0.38802338
-0.11541021
-0.35234565
-0.0033409754
0.30713543
-0.28243032
-0.02838077
-0.031624101
0.20774993
-0.22619216
0.38977545
-0.085433021
0.6677776
-0.32739681
0.096530907
-0.064517312
0.90736777
-0.57047278
0.11708582
-0.10411292
0.66530991
-0.4407768
0.33061779
-0.13174705
0.27032346
-0.46489578
0.17975095
0.093193084
-0.42058584
-0.61053449
0.33335894
0.11937853
-1.3011175
-0.43392953
1.3361998
0.082140595
-0.63521892
-0.20365937
0.55105168
0.071717925
-0.20389692
-0.14105235
-0.051824797
0.10882086
0.010499187
-0.060907252
-0.31636426
0.23117584
0.12862508
-0.054309826
-0.32061452
0.27600789
0.12731151
-0.13097894
-0.40750429
0.24241756
0.14025764
0.067255601
-0.68559009
0.20082839
-0.76002651
3.1177773
-2.1897776
-0.72369695
0.095706537
-0.64625287
-0.012149387
-0.097947538
-0.039118119
-0.44314224
0.036805242
-0.086257175
-0.29501036
-0.28846094
0.27551889
-0.090429612
-0.80874538
0.084274717
0.36360672
-0.091791131
-0.13186756
0.11652585
-0.11236954
-0.066184513
0.44230527
0.035777025
-0.72526652
0.14120942
-0.13800716
-0.14116247
0.61607414
-0.0093279853
-0.6615575
-0.2228345
1.3161839
0.12147889
-0.23251428
-0.14764106
0.50324285
0.14945437
0.11443654
-0.20874117
-0.090167962
0.11663514
-0.20215802
-0.17182864
0.039484151
0.048726689
-0.39478081
-0.17811587
0.030564552
-0.055446617
-0.13743897
-0.31942445
0.0084398203
-0.023208098
-0.085150689
-0.38935211
0.072960816
-0.0076549421
-0.26815388
-0.48562115
0.32625651
0.13868873
-0.29771319
-0.19668959
0.30108824
-0.2195375
-0.24235813
-0.072708286
0.18761224
-0.54136908
-0.015153977
-0.27050251
0.17552626
-0.33968928
-0.19753003
-0.59284532
0.55479401
-0.23604511
-0.50643736
0.58531916
0.33588731
0.090302221
0.9052102
-0.052786112
-0.64989507
0.49508473
0.28005111
2.1237276
-2.7502179
0.37999877
-0.79916203
2.4736283
-3.4897897
0.33856165
-1.0426462
-1.205871
-1.1661422
0.11403603
1.985254
-5.2738252
0.13480143
0.19215746
-1.367435
-1.0963526
0.071753979
-0.31309345
0.038970131
1.3436813
-1.6796973
-0.54465503
0.87264347
2.0798023
-3.1074243
0.40714163
0.94735318
1.249716
-1.5106829
0.3980681
-0.21918723
0.11556001
0.41850406
0.26895666
-0.15004833
-0.51295799
0.72297424
-0.036708631
-1.9506241
1.2287359
-0.90639269
0.13835187
-0.14322509
-0.31560126
-0.099309467
-0.33273888
-0.29426929
-0.27763376
-0.01062948
-0.22683449
-0.37756792
-0.17560092
-0.034772232
-0.20976378
-0.48739353
-0.047553033
-0.054611139
-0.26578271
-0.031632677
-0.22369015
-0.40446129
-0.21898359
0.27690288
-0.34223753
-0.6586166
-0.069900908
-0.086936653
-0.38541833
0.35664827
0.0031521467
-0.29479498
-0.26928347
0.92208159
0.099388354
-0.15651783
-0.52900892
0.41140994
0.17107448
0.11572625
-0.25185019
-0.43261921
-0.0079180021
0.022999773
-0.079234943
-0.61817664
-0.10815048
-0.13571991
-0.012478161
-0.70732135
-0.1864827
-0.0077586775
-0.10097266
-0.62280023
-0.11553884
-0.28138942
-0.27180254
-0.088860527
-0.11262738
-0.57244802
-0.35634547
0.34056363
-0.083804838
-0.19658025
-0.018028283
0.31172377
-0.19216909
0.14779563
-0.19137879
0.21791233
-0.26243123
-0.0012163341
-0.079128101
0.17466645
-0.14351216
0.012113288
0.01411289
0.0037639849
-0.075405262
-0.10821942
0.11584605
0.072005272
-0.05863579
0.066022478
-0.038537484
0.029143434
0.0046085734
0.33623505
-0.1274662
-0.22567211
0.099832281
0.11967964
-0.25151253
0.29162121
0.036136746
-0.14838733
-0.18899079
0.28599828
0.11675427
0.26810145
-0.37650099
0.3730298
0.068677194
0.22878569
0.025550039
-0.051972389
0.14053817
0.14385654
0.091685101
-0.19003384
0.076431967
0.16550487
0.011375898
-0.23354281
0.02432994
0.24689482
0.063394085
-0.47596678
0.16727346
0.13514
0.057011746
-0.37525102
0.21659279
-0.19049582
0.20807065
-0.13945448
0.30802751
0.034985021
-0.36250106
0.42218223
-0.72961706
-0.54538673
1.2591653
0.091848187
0.22637329
-0.46392772
0.83618802
0.12649322
0.21495023
-0.35516751
0.49433279
0.26078156
0.18453634
-0.32383966
0.25445685
0.48712233
0.17409548
-0.2516596
-0.02442158
0.90516365
0.13443673
-0.16968058
-0.15024246
1.0271702
0.099572115
-0.36886212
-0.33342701
1.2790943
0.027099213
-0.49687168
0.12034163
0.71827364
0.11631796
-0.20095542
0.23440075
0.63193643
-0.024810484
-0.13848269
0.38474786
0.42658713
0.25289533
0.064703412
0.41509685
0.28338227
0.1630803
0.38409919
0.010750771
0.26029551
0.15879892
0.37397754
-0.069444038
0.16514085
0.13061439
0.43592951
-0.13002212
0.15766613
0.079803549
0.73224646
-0.35837996
0.088671021
0.083449028
-0.098395608
1.300994
-0.63685954
-1.3018979
0.016698094
0.064140923
-0.052934751
-0.066289693
0.015024577
0.04267212
-0.091015346
-0.016916256
0.079868875
0.0049438458
-0.13061433
0.0059547997
0.045082875
-0.040173829
-0.056393318
0.021463349
0.033326074
-0.066833436
0.011911449
0.031709775
0.11499123
-0.035815518
-0.094024301
0.098605976
0.21412772
0.001428289
-0.10264206
0.07757955
0.1695203
0.13693191
-0.020184381
0.1104465
0.16994666
0.014837352
-0.11908146
0.14766993
0.13268365
0.012933004
-0.11077896
0.078612328
0.12879974
-0.02798331
-0.088149518
0.032050926
0.096222036
-0.053918436
-0.10016215
0.0051111849
0.054260191
-0.025114246
-0.17550123
0.063415751
0.019244911
-0.0066191363
-0.18505643
0.054149378
-0.038023192
0.018251184
-0.14518411
0.076085038
-0.028845176
0.13548277
0.014096724
-0.97725999
0.50252008
0.093695678
0.12972105
0.11489628
0.43745393
0.15769237
0.16956259
0.081927978
0.45026281
0.12248181
0.1949714
0.086597525
0.41803423
0.15801457
0.17646247
0.092800952
0.019734289
0.49061015
0.29811111
0.027010119
-0.047431812
0.56650209
0.40842783
0.042884234
-0.41438708
0.73418915
0.6072157
0.088520542
-0.48258409
0.63960391
0.77057964
0.10372371
-0.50885177
0.46607605
0.85034811
0.10213869
-0.5401454
0.71902448
0.66814899
0.11048719
-0.044993188
0.6844359
0.18763751
0.036401764
0.25279644
0.410602
0.080487788
0.16153637
0.2306975
0.28677094
0.0275643
0.23927279
0.25464109
0.15176409
0.051931318
0.28839225
0.32246405
0.0482012
0.086655408
0.20011306
-0.55707651
1.9065055
-0.85530007
-1.4121016
0.0200707
0.038436368
-0.0086394902
-0.042263851
0.021033656
0.020684801
-0.045391522
-0.019944971
0.086087205
0.014484241
-0.078510053
0.00538023
0.039210673
-0.036362853
-0.032772228
0.016625945
0.035983633
-0.051383678
0.033715311
0.042648353
0.11389319
-0.047257349
-0.068983138
0.10290015
0.18155114
0.012568632
-0.055609461
0.074715883
0.10786303
0.13528112
0.031272989
0.11090011
0.14318541
0.01679392
-0.073008604
0.11844657
0.13074854
0.025851797
-0.071950845
0.073735304
0.10984142
0.0053460025
-0.076436415
0.042560015
0.10546363
-0.034449797
-0.092403002
0.033691987
0.078580782
0.00033077231
-0.17485832
0.086370274
0.033918191
0.001260609
-0.19016507
0.096755639
-0.015692154
0.044238433
-0.1492313
0.099737681
-0.011542473
0.080523446
0.029773794
-0.94307101
0.059962183
-0.13926038
0.013701666
-0.27871636
-0.095297873
-0.10663291
0.089627095
-0.17183942
-0.10048707
-0.077084221
-0.029845199
-0.12600248
-0.18197869
-0.05580255
0.027469877
-0.10431858
-0.035775758
-0.21989818
-0.048923351
-0.030279808
0.24589571
-0.28093359
-0.34847695
0.059237547
0.2194766
-0.31253409
-0.030766862
0.046197545
0.061055746
-0.15669167
0.2163033
0.12048559
0.10712795
-0.35969725
0.18581226
0.13422483
0.14132221
-0.20933935
-0.09649317
0.020775644
0.1216636
-0.16650751
-0.24428463
-0.04810473
0.10267031
-0.16655202
-0.33285475
-0.082543515
0.13643166
-0.089635268
-0.53784984
-0.0088388007
0.096578754
-0.075285666
-0.51048332
0.010056139
-0.14206506
0.03883839
-0.35771149
0.095749997
0.018621584
-0.29117036
0.42401555
-0.59386235
-0.080586247
0.22072452
-0.45347714
-0.054552395
-0.12113733
0.33462897
-0.49070808
0.0048386687
-0.12714958
0.41742864
-0.54763454
0.007673603
-0.24039786
0.43401968
-0.43386349
0.0029285422
-0.28060192
0.33969104
-0.21152741
0.0039518261
0.028443696
0.013424512
-0.040067509
0.032664254
0.36430106
0.083257385
-0.036658607
0.13356552
0.80877346
0.42594448
-0.22675063
0.10044134
0.51436716
-0.078685172
-0.39137492
0.28374276
0.23270577
-0.034174439
-0.22580698
-0.060913485
0.3881081
-0.36112732
-0.21191116
-0.074087359
0.22608308
-0.30304775
-0.11201113
-0.044828288
-0.10446966
-0.17438455
0.15839212
-0.042634994
-0.17487907
-0.14963523
0.12901354
0.0076898211
-0.3422786
-0.084119201
0.098737791
0.016166331
-0.093013205
0.40880981
-0.49814317
-0.64685476
-0.58106393
-0.14093845
-0.45847255
0.012138213
-0.076802433
-0.94858724
-0.033751491
-0.057393599
0.0066362298
-0.86507386
-0.014405143
-0.16072081
-0.56246871
-0.50484127
0.2616263
-0.19243237
-0.63347161
-0.35512674
0.63983136
-0.1815137
-1.9299725
0.42639676
1.82526
0.046510957
-1.7492487
0.7438494
2.1220489
-0.015938455
0.1574894
-0.22098795
1.439697
0.12622659
0.26661676
-0.29690757
0.1010317
0.11354119
-0.10876262
0.1590925
-0.22270903
0.084565736
-0.17930393
0.011597238
-0.085034184
-0.087168366
-0.31824037
-0.21103242
0.049281485
-0.2838878
-0.36866432
-0.34282318
0.33136904
-0.15224941
-0.1957822
-0.2744191
0.14862175
-0.063841321
0.077854455
-0.18742248
-0.41796291
0.10210212
-0.082023636
-1.2826829
1.2383914
-0.24634382
0.026372029
-0.15978788
-0.031862553
-0.18773635
-0.058764204
-0.099876948
0.0018227368
-0.12640961
-0.15159464
-0.059242904
0.057177991
-0.12325574
-0.33606666
0.044576295
0.14999266
-0.086833119
-0.11244755
-0.013594815
0.11800069
-0.056217451
0.12269121
-0.10227054
-0.13045754
0.11902827
-0.10168904
-0.11933902
0.48543024
0.0017817892
-0.62492299
-0.081964381
0.87694973
0.11642947
-0.093136683
-0.21014671
0.39630988
0.091618188
-0.0095990682
0.06280376
-0.063108511
0.10602003
-0.060590975
0.052376427
-0.13054287
0.037758723
-0.089155994
-0.041707005
-0.11922693
-0.028109126
0.040453058
-0.11271109
-0.20127104
0.027671222
-0.044469472
-0.12055145
-0.089073926
0.074451543
-0.21468711
-0.063679986
0.065548509
0.14568348
-0.14829674
-0.17924988
0.29021943
-0.44374567
0.23532425
0.49623686
-0.16016708
0.75889665
0.17547713
0.44495288
0.17187959
0.36529237
-0.48637414
0.45494932
0.21298422
0.1704019
-0.77965319
0.4127045
-0.46983689
-0.12711392
-0.89014852
0.32620609
-0.93842584
-0.22810428
-1.471613
0.68956476
-0.1825932
-0.32801256
-1.1464826
1.2654307
0.77264768
0.31149834
1.1857153
2.1134417
1.2584445
0.11385915
0.99116129
0.9706499
1.0214772
0.041102074
0.82236934
0.74269605
0.30993545
0.85649562
0.41090083
0.26518032
0.46727067
0.42710772
0.21403289
0.1986322
-0.48923454
0.27360943
-0.18285027
-0.097015969
-0.54450363
-0.03252111
-0.39333612
-0.026340581
-0.54175603
-0.33759272
-0.23978841
-0.23814672
-0.73465985
-0.56254584
-0.37183064
4.4714193
-6.5004392
-0.40151697
0.12011094
-0.50636095
0.19352674
-0.062194832
-0.049852233
-0.2737689
0.065368131
-0.11210106
-0.28717083
-0.14949034
0.15587386
-0.12552248
-0.6868794
0.31646591
0.070969753
-0.07845857
-0.32669124
0.41514048
0.15561081
0.012754406
-0.14782089
0.19979073
0.025228642
0.41780353
-0.90901476
0.6100471
0.37996882
-0.036327776
-2.076381
0.57363123
0.14304806
0.11650353
-0.60882288
0.93839592
-0.81037259
-0.059687536
-0.68989503
0.79542124
-0.41301405
0.23201077
-1.1196132
0.28041252
0.74823129
0.062763214
-1.0647575
-0.045266677
0.7810964
-0.06703341
-0.76637363
-0.37016907
0.44880998
-0.033344146
-0.15176548
-0.46133763
-0.10523655
-0.021619376
0.079277776
-0.54983824
-0.15602326
0.15807542
-0.16163552
0.019548964
0.21988232
-0.30449092
-0.13868533
0.82617784
-0.15581232
0.08850988
-0.0045805592
0.34416655
0.084593229
0.10996024
-0.4453859
0.94292742
0.35644665
0.057230383
-0.29985604
1.5848409
-0.40366998
0.073832989
-0.40741074
1.4945632
-0.10453014
-0.17537442
-0.89059621
1.5434467
0.48899895
0.054611333
-2.0970993
1.8752627
1.5715488
-0.049040727
-3.4557664
-0.73729396
3.3433526
0.10019139
0.12728682
-0.99594706
1.6452546
-0.1365521
1.1210794
0.20475438
-0.34452525
0.53711742
0.39393044
0.28743425
0.26854777
0.013782999
-0.38250783
0.40555713
-0.076751411
-0.19257861
0.27556232
-0.069952302
-0.43722048
0.014255784
-0.26945114
-0.30788869
0.24376985
0.28917578
0.32189032
0.17001335
0.1438569
0.22921953
-0.62486029
-1.0192574
0.95076579
-0.31632951
0.16752815
-0.76531219
0.057861179
-0.56289148
-0.097384751
-0.7267403
-0.052077495
-0.3097859
-0.097482115
-0.63671976
-0.42482591
-0.21311529
-0.23980334
-0.46689516
-0.52798796
-0.27311325
-0.00048618324
-0.6443767
-0.87627846
-0.19750232
0.21173076
-0.81058872
-0.87443519
-0.15554027
0.11316226
-1.0308297
-0.16447808
0.034692787
0.3988128
-0.75019485
0.072410971
0.12359795
0.37035128
-0.97941858
-0.09639734
0.19617353
0.33107862
-0.45460171
-0.79149556
-0.15019622
0.1022527
-0.17925167
-1.0044936
-0.2836329
-0.022214722
-0.050727487
-1.1573117
-0.36210248
0.013502674
0.038113501
-1.2135228
-0.2804755
-0.14206237
-0.14288473
-0.77620327
-0.27309814
-0.66623288
-0.11695002
-0.17576526
-0.21809228
0.26559559
-0.34108812
0.92345798
-0.43507561
-0.34634489
-0.27585745
-0.33354554
-0.53525054
-0.17095174
-0.24134175
-0.47220895
-0.30328813
-0.070573911
-0.18977219
-0.21014784
-0.46297753
-0.501697
0.11797006
-0.58956015
-0.47798681
-0.35358742
0.069615453
-0.80276883
-0.31464979
0.16826969
0.66897631
-1.6914846
0.21671021
1.0994824
1.9428481
-2.2896676
0.39638492
2.2112451
4.4735928
-2.0796883
0.098645985
1.6746552
0.9905383
-2.2891359
0.84675938
0.48852038
-0.11032825
-1.1588706
0.58148229
-0.074026771
0.1571413
-0.55308735
-0.11427671
0.041358918
-0.076765314
-0.81385899
-0.37813413
-0.045280892
-0.25574362
-1.0276983
-0.55588144
-0.55879748
-0.34699631
-1.000559
-0.55901152
-1.3312825
-0.56143427
-0.99296254
-0.81336492
0.91791731
1.4614078
-2.9629705
-0.066281468
-0.053058095
0.4045386
-0.078762993
0.14113186
0.1873827
0.17379403
-0.049736891
0.16093571
0.35486811
0.09743917
-0.21519184
0.17707978
0.17848726
0.28895807
-0.25440136
0.18497998
-0.088149182
0.23991418
0.026960703
0.096020803
-0.26365119
0.39946568
0.19782606
0.048350699
-0.16724069
0.26641598
0.10514208
0.15261538
0.67013359
0.25315669
-0.39569053
0.1076702
1.003374
-0.33662984
-0.23830584
0.13976635
0.78307569
-0.46128914
0.20398089
0.23795171
0.70328569
-0.32735094
0.22172673
0.17765507
0.14378442
0.010702353
0.38263789
0.14576854
-0.19867827
-0.030913947
0.51330531
0.12867795
-0.1164422
-0.014420674
0.47454223
0.11655253
-0.2570928
-0.039924495
0.49638975
0.078329206
0.16217478
-0.078493923
0.14298849
-0.80072999
0.12433966
0.80570215
0.3558228
0.1841083
0.26657456
0.06130581
0.30007613
0.27966705
0.16652259
-0.012584118
0.30244204
0.32545105
-0.022852477
0.16270016
0.17097303
0.29691514
-0.28683499
1.3571737
0.16271794
0.1321484
1.0868828
0.15037903
0.93115157
0.88721955
1.7873838
0.78730524
0.9861303
-0.34711051
0.35014048
1.0676457
1.5717369
0.12670448
0.93398917
1.0522575
1.6805923
-0.12958266
-0.011339346
-2.1565495
5.1156044
0.23008591
-0.92788136
-3.0966249
6.0276332
0.11096448
-1.62726
-1.8171571
4.9340816
0.26613683
-0.5335533
-0.46607804
2.60092
0.27831945
0.49526438
-0.38631952
2.2737837
0.36169171
-0.53359711
-0.13369147
2.3765459
0.43201742
1.2050449
-1.0210687
1.2564259
0.3201389
-0.057531279
-1.0820429
0.73343623
-0.029386377
-0.30788836
-0.11223546
0.35851416
-0.12812909
-0.39043745
-0.13136429
-0.059337281
-0.23971847
-0.60797203
-0.11945445
0.18005258
-0.25293666
0.17311046
0.26081428
-0.64640784
0.010300907
2.0530038
-0.36339322
-3.0352423
0.83413291
1.8054204
-1.0845844
-0.99678451
-0.043820404
-2.0876777
0.44207093
0.74062949
0.099720336
-0.029650679
-0.26329675
0.36662698
-0.028457256
-0.78336173
-0.026162671
0.73920876
0.091270119
-0.84009343
0.26503035
0.63918895
-0.0091223102
-0.49603406
0.19787191
0.48422772
-0.30132717
-0.47191167
0.19664232
-0.22573073
-0.30176669
0.0067429286
-0.032949433
-0.78797477
-0.29827616
-0.056105431
-0.000463409
-0.41473892
-0.17253737
-0.68760401
0.54867035
-0.66488868
-0.33875692
0.093503363
-0.044221655
-0.060209908
-0.18589841
0.10470495
-0.062197503
-0.12010357
-0.10213117
-0.0026251806
-0.10455608
-0.0036717828
-0.078334458
-0.18994747
-0.036444392
0.17234659
-0.070342824
-0.1841362
-0.030910704
0.27363038
-0.040956706
-0.049373008
-0.062495332
0.18097268
0.13583447
-0.17405587
-0.0049761045
0.60525322
0.032705858
-0.70589268
0.0042806347
0.92946053
0.10144114
-0.18946575
-0.0095739821
0.30567208
0.078484893
-0.17609188
0.27409929
-0.036526736
0.1455026
-0.18124294
0.24988799
-0.030057542
0.037476357
-0.14752683
0.018306497
0.023795752
-0.030793106
0.013064407
-0.070921548
-0.057134081
0.043162923
-0.056761596
-0.05910641
0.013131478
0.056374472
-0.078145772
-0.0072084377
0.036224149
0.10187127
-0.13901249
-0.076071307
0.20662765
-0.53844064
-0.194097
0.084000178
-0.04380456
0.37159133
0.17470352
-0.16359754
-0.20755754
0.22260162
0.19739069
-0.16713838
-0.036539759
0.11636174
0.41815487
-0.21668074
-0.063759245
0.04874523
0.48993304
-0.39808032
0.23854284
0.056100134
0.24107377
-0.46677095
0.31219974
0.28739062
-0.19973327
-0.3324163
0.70747012
-0.017736394
-1.0642146
-0.39782998
0.72349107
0.10506434
0.89472842
-1.2069157
0.2858105
-0.0040169572
0.10300492
0.67075527
-0.80481148
0.21844587
-0.46727946
1.1156482
-0.48266613
0.1182282
-0.63132888
0.63351429
-0.12987436
-0.048302513
-0.29303584
-0.036491059
0.16376488
-0.035732951
-0.19803542
-0.65358728
0.65848374
-0.10661976
-0.010011921
-0.72567469
0.70164937
-0.07526727
-0.17332505
0.25282973
-0.028494773
-0.29951322
-0.039529603
0.15017977
-0.2982713
-0.10780746
-0.078195699
0.17227936
-0.29684049
-0.061175361
-0.072220646
0.1583073
-0.32222643
-0.060488451
-0.078975983
0.064837337
-0.25027311
-0.058951616
-0.082062624
-0.00054207997
-0.15392804
-0.0087253712
0.15107545
-0.15470859
-0.16656058
0.059575614
0.37679842
-0.081674047
-0.19802885
0.072061777
0.34071666
0.22410579
-0.045911133
0.11448499
0.15403059
-0.014271257
-0.16507508
0.21556532
0.039145246
-0.03547683
-0.13620836
-0.045607056
0.16011989
-0.24704567
-0.12551531
-0.079519734
0.12372518
-0.2499495
-0.1303089
-0.070106879
0.031009328
-0.14497134
-0.17357996
-0.056172311
0.024272498
-0.088601679
-0.21807638
-0.013955632
-0.096216239
-0.014069181
-0.22074944
-0.0018995005
-0.054480076
0.35169154
-0.17511292
-0.65015602
0.62890476
0.98915362
0.75405467
1.8280438
0.82413369
1.0831817
0.9460181
1.3505692
0.89275944
1.1897173
1.2202227
1.2284031
1.0508705
1.2935228
1.466409
1.2109466
1.1755764
1.6008947
1.7371947
1.0380808
0.91886795
1.9339155
2.0448084
1.0716773
0.53972876
1.9997472
2.4669466
-0.068528973
-0.13103753
1.5409011
1.5668308
0.11976401
0.6286341
1.9135256
2.4019017
-0.44370422
1.2162673
2.05478
2.0831842
1.3296659
1.2626884
2.1155736
2.0797853
1.5247796
1.2893879
1.7464005
1.8706975
1.5345229
1.2273443
1.5093074
1.6135446
1.4874595
1.124047
1.4346181
1.4018143
1.4869417
1.0364608
1.1324605
1.2354161
1.7584689
0.019375913
-3.7526715
-3.2660987
-0.33332464
-0.21939027
-0.45103577
-0.095266931
-0.25058937
-0.2367498
-0.47059211
-0.17249992
-0.13192569
-0.28936306
-0.46370468
-0.11527205
-0.14390719
0.0018899947
-0.5905385
-0.15368514
-0.25537446
0.12157248
-0.62147868
-0.082554162
-0.16076601
0.025532518
-0.30648518
-0.11674117
0.02505134
0.42669824
0.27971888
-0.43026286
0.08905331
0.012277536
1.4804357
-0.43303061
0.098228946
-0.34224138
0.82189268
-0.53768909
0.15746173
-0.83043611
0.6478551
0.068147004
-0.013396475
-0.60526335
0.084813565
0.30111709
-0.081825435
-0.37627071
-0.011129518
0.21726871
-0.12443432
-0.16880913
0.098737188
-0.013731586
-0.15672381
-0.14390305
0.13248089
-0.10540608
-0.20489079
-0.40176922
0.43410107
-0.21024035
-0.24012642
-0.25189683
0.64450091
-0.90935963
-0.28189221
0.55780029
-1.0693712
-0.17712989
-0.218848
0.075719237
-0.8233009
0.1977682
-0.20639563
-0.37246808
-0.39552513
0.44080907
-0.16702826
-0.62331456
0.31686795
0.37978053
-0.23989496
-0.15203625
-0.026050633
0.50520867
-0.17860416
0.64460838
-0.42928103
-0.15874313
0.19391301
0.34740636
-0.3186413
0.15959671
0.009269679
-0.33242005
-0.39879516
-0.2539506
0.10586237
0.31602633
-1.260896
0.75984973
-0.015519906
0.71523947
-1.0677429
0.28463992
0.1012349
0.35319778
-0.43351698
0.070505597
0.010446107
0.35643038
-0.14175016
-0.15235399
-0.18564951
0.68878508
0.40206081
-0.92485279
-0.043762252
0.25421995
0.51156223
-0.57199872
0.0051348843
-0.39129668
0.55559677
0.13478506
0.087614946
-0.58083838
0.29399401
0.026314691
-0.21059339
-0.48969388
-0.34510475
-0.67709559
-0.20411842
-0.30648342
-0.25918603
-0.27171826
-0.29622012
-0.0061182193
0.027002783
0.088372752
-0.094865724
0.043114483
0.63897747
0.099096701
0.026320886
0.15930556
0.45558074
0.35988155
0.1732292
0.88414484
-1.2127397
0.61119062
0.4705281
1.2214317
-2.8408077
0.95087308
0.5054214
1.0492768
-3.4423933
1.8899994
0.11214005
0.98575014
-3.5725305
1.1477017
0.61412543
0.2511557
-0.22983587
-0.079007268
0.016300462
-0.081750378
0.011463314
0.12411224
-0.086078867
0.10094694
-0.27938947
0.11932628
-0.13288221
-0.022558505
-0.17945692
-0.13935964
0.0015303836
-0.15284419
-0.17136684
-0.24745677
-0.069138095
-0.21545695
-0.11521688
-0.35606152
-0.22791179
-0.98396945
-1.4159991
-0.25861073
0.041754723
0.48281679
0.33425108
0.39521733
0.10078521
0.046645455
0.0038152889
0.31787807
0.34269416
0.49332249
0.45776647
0.30047432
0.28669998
0.49200094
0.54231846
-0.019582108
0.1169419
0.063436694
0.62752068
-0.4674314
-0.01126227
-0.44653141
0.65055197
-0.67755848
-0.61264187
-0.35551918
-1.0959576
-1.0559894
1.0444229
3.6182649
-10.739786
1.9301258
0.12522076
-0.77858412
1.8952554
-0.67974216
0.44987279
-0.26657999
1.1700269
-0.99587911
-0.77917385
0.39015445
-0.4398669
-0.34666699
0.19496186
0.42420116
0.48001328
-0.16316088
0.46208334
-0.15579021
-0.26101854
0.40666869
0.081280336
-0.2595706
-0.2803216
-0.19362319
0.0034804293
0.29199928
0.28959951
-0.030994859
-0.13983822
-1.0424563
-0.067593776
-1.7015541
0.022742165
-0.82229561
0.4397243
-0.02754114
-1.0657822
-0.65448523
-0.0478465
-0.14907795
-0.64631796
-0.29389817
-0.89760578
-1.1000423
-0.11694555
0.037646554
-1.8247175
-0.61922735
-0.25787267
0.18148814
-1.8913683
0.48457637
-0.063770853
-0.75746799
-1.7117819
1.3879379
0.37467963
-0.55043715
-1.0069573
1.8285029
-0.37660024
-0.044418067
-1.5649337
2.2266405
0.1017738
-0.027057754
0.18226747
0.088503294
-0.12246244
-0.042866491
-0.16873756
0.63691431
0.30995983
0.31979632
-0.96429032
0.70278835
0.10176522
-0.94299561
-0.86722821
0.60024667
-0.33786866
-0.96553439
-0.72716957
-0.16385761
-0.54601365
-0.65354615
-0.68244702
-0.24317212
-0.93731511
-0.19367838
-0.99467069
0.49056911
-0.84720778
-0.2808907
-2.8463197
4.853735
-0.067149699
0.36879402
0.023371743
-0.022328267
0.011127858
0.2108123
-0.11381661
0.1016688
-0.26582664
0.30851358
-0.05379473
-0.23124981
-0.18986481
0.16986395
-0.0022181196
-0.43771052
0.058421202
0.053120177
0.050044581
0.043345157
-0.10339074
1.429751
-1.5178758
0.10741445
0.84026235
3.5904262
-0.61343688
-1.8746828
0.31618634
1.0721804
-0.25201955
-0.41732469
0.10327549
3.0026934
-0.58604825
-2.434078
-0.24650252
0.97286856
-0.3279036
-0.96228963
0.63220263
-0.043645173
-0.0069697397
-0.0042532212
-0.0077887452
0.25653428
-0.38779142
-0.3770951
0.010536698
0.15664361
-0.2775467
-0.4399811
-0.12494471
0.12188202
-0.24174495
-0.35030267
-0.14124754
0.043605994
0.078562938
-0.31218985
-0.13148789
-2.1296055
-1.1432071
-3.0663011
0.55361933
0.18241528
-0.15111674
0.12184639
-0.22793044
-0.040033642
-0.11077568
0.22057879
-0.14647874
-0.011684683
-0.036744196
0.036493219
-0.050074846
-0.10294507
0.18063255
0.024673395
-0.067149222
0.17551625
0.064614952
-0.083996363
-0.010618195
0.36658108
0.10303329
-0.48145127
0.12155244
0.19128923
-0.1678078
-0.090967029
0.059886739
0.20834944
-0.28095606
-0.42848542
0.10378844
0.86359662
-0.53781205
0.10636078
-0.01520652
1.064501
-0.28627729
-0.4049525
0.2846081
0.67478037
0.013961493
-0.49342528
0.26744011
0.46830675
-0.053529296
-0.29806238
0.11778644
0.44065329
0.056187205
-0.49249366
0.21992996
0.24482286
0.10280324
-0.31533182
0.21704017
-0.18222609
0.29720882
-0.0019018459
0.28402981
0.068929642
-0.42737561
0.48882508
-0.7594164
-0.038915113
-0.25073341
-0.36722079
-0.39654189
-0.11009798
-0.31754521
-0.33936208
-0.24186248
-0.19058542
-0.32762095
-0.34421316
-0.22895771
-0.219909
-0.32533628
-0.32474786
-0.27599752
-0.16337557
-0.43198353
-0.37069988
-0.1929352
0.020669386
-0.56365895
-0.39819053
-0.084846206
0.11026329
-0.50211549
-0.08709754
0.040238116
0.12098556
-0.056754384
0.14538772
0.098304726
0.020901678
-0.36438045
-0.21842721
0.21354021
-0.062958546
-0.15450269
-0.48586729
-0.097311996
-0.045142505
-0.16243353
-0.58706796
-0.1940117
-0.047205392
-0.15234852
-0.66751212
-0.26556605
0.0030105317
0.011349163
-0.72741884
-0.24616067
-0.13285665
0.0043387939
-0.50005412
-0.24722527
-0.35394269
0.02906714
-0.25775233
-0.27855802
-0.027381644
0.10500741
0.31894541
-0.21380529
0.34788945
0.45320174
0.60764772
-0.50809151
0.28026769
0.33734047
-0.15336676
0.36269224
0.19318445
-0.2536962
0.2817339
0.2672708
0.51298141
0.083223619
0.67408133
0.061071191
-0.53799534
0.55270439
-0.96307284
-0.10100307
-0.36839089
0.25287953
0.00072584755
-0.63540339
-0.62900013
-0.64995939
-0.010450977
2.3813431
7.9829264
-2.7308042
-6.965663
0.099146083
-0.89951551
-1.0456506
0.15207884
1.6586149
-1.0540942
-0.93002164
0.25414208
-1.412051
-0.4785575
0.10271968
-0.90486026
-0.89495116
-0.055108059
-0.21077581
-0.36326393
-0.18904796
-0.15556483
-0.23600072
-0.37862235
-0.076675892
-0.28051913
-0.24612208
-0.1067849
0.11706731
0.0058446527
-0.032781109
-0.039107855
-0.14842314
0.14878283
-1.7305188
-1.2657247
-0.035137292
-0.43232086
-0.23483509
-0.070577405
0.096019901
-0.39036638
-0.10434529
-0.18111405
0.20583212
-0.3509357
-0.17289795
-0.54343796
0.23295984
-0.090649821
-0.50800002
-0.44808936
0.056805406
-0.41613078
0.26806739
-0.0052156504
-0.021854296
-0.37535882
0.48521867
-0.26722226
0.62838137
-0.25857136
0.51125216
1.3204199
-0.11961351
-2.4188025
1.1817228
3.091141
0.11357366
-1.9497519
2.5455778
1.1817119
0.13585339
-1.2065855
1.5722086
0.66157949
0.032385226
-0.01462281
1.5889442
-0.74694628
-0.1657664
0.10474777
0.51513565
-0.46726054
-0.23851684
-0.18869211
0.084516585
-0.10081766
-0.26509154
0.083347403
-0.18576407
0.043777157
-0.25282934
-0.046435092
-0.076000594
0.25024793
-0.41790342
-0.61978209
0.0091738505
0.15226786
-0.14058222
0.43210468
-0.77397341
0.4653028
0.036875565
0.39017349
-1.0296743
0.26809588
0.21767779
0.27967927
-1.3186517
0.11296844
0.23914015
0.07569924
-1.9322184
0.72616106
0.13333604
-1.0077686
-2.1671522
1.8977754
0.060855549
-1.2727367
-2.6304855
2.5951936
-0.015062136
-1.0032046
-2.0639637
1.3951296
0.17899236
0.23009168
0.59491569
-2.1794548
0.11521871
-0.40781564
-0.37310228
-0.52196044
0.17211805
-0.8942408
-0.22132564
0.34111059
-0.32493129
0.24986033
-0.26922861
-0.18030901
-0.059507795
-0.010573071
-0.064170748
0.1966538
-0.22786088
-0.47845611
-0.28750631
0.27308071
-0.42341629
0.031116113
-0.42571321
-0.75589365
-0.33495563
-0.42263421
-0.49280336
-0.48756525
-0.30161133
1.072462
-1.7426864
-0.45542446
-0.33821476
0.16633406
0.40133217
0.087944597
-0.1632459
-0.01957754
-0.076002195
-0.25744075
0.13478555
-0.15169138
0.30065876
0.032559149
0.17102155
-0.52690691
-0.074524634
0.59649426
0.24426365
0.32794935
-0.49980676
-0.67341059
0.18610042
-0.35605925
1.4991003
-0.42279127
-0.21494494
0.59092206
1.3931026
-1.2971255
0.52667159
3.1910999
0.854325
-2.8883004
0.1272321
-0.18455893
-0.88816327
0.73846096
0.47889197
-1.5586562
-0.86152345
1.1021301
-1.3545859
-2.5345116
-0.73897427
1.3534147
-1.3494587
-0.58876079
-1.1974008
0.11626843
-1.1575016
-0.083811618
-0.42166972
-0.34497792
-0.78850383
-0.29321769
-0.29955852
0.25652736
-0.22497258
-0.03035501
-0.30547401
0.89513773
-0.40835738
0.8612994
-1.4742907
0.56666386
-0.32913989
0.015006651
0.11192444
-0.074666187
0.0027530331
0.058306467
0.086657263
-0.069928847
0.026125867
0.11308
0.041780487
-0.11818075
0.022777937
0.074335478
-0.0046217442
-0.04597313
0.047172334
0.033138208
-0.014678799
0.021596741
0.071447484
0.086023092
0.033463024
-0.052068476
0.10890015
0.18852122
0.070757195
-0.067761347
0.084229447
0.2105539
0.22678106
-0.065033719
0.12334091
0.19318478
0.079240337
-0.13716897
0.15418029
0.1292927
0.043741755
-0.075212747
0.069145657
0.13625857
-0.01027163
-0.047127206
0.052520208
0.11389699
-0.011820898
-0.039717935
0.055077821
0.037843063
0.0093060397
-0.079755343
0.099237368
0.013090098
0.013983467
-0.1012424
0.10484836
-0.042585716
0.039877865
-0.085414596
0.084308811
-0.021364264
0.21861784
-0.082839556
-1.051216
0.067715421
0.026398174
-0.047044847
-0.010300089
0.079060502
0.0040149754
-0.07660123
0.027599972
0.11457063
-0.01840665
-0.095639899
0.032498162
0.07258828
-0.068752952
-0.041530047
0.025752109
0.018616986
-0.041102469
0.037533183
0.04700337
0.069646344
-0.027163908
-0.007840883
0.097213231
0.14815889
0.069791637
0.017299825
0.070057929
0.015121568
0.26873404
0.07298328
0.12647608
0.080256216
0.14702204
-0.066277422
0.13318564
0.015377215
0.14649855
-0.022265423
0.079046175
0.041069638
0.077131435
-0.0098918369
0.046230249
0.043729711
0.020189991
-0.023009986
0.034080252
0.043057583
0.05827897
-0.088137701
0.043456804
0.0070109046
0.071808279
-0.12691475
0.052810263
-0.048507024
0.11615589
-0.10557687
0.059306972
-0.024623115
0.22379839
-0.10481545
-0.92988616
0.50656283
1.0334538
-0.10754811
0.66669887
0.75498778
0.52135223
-0.01351953
0.51922989
0.56272787
0.26871631
0.29388681
0.50935847
0.14196889
-0.31449455
0.97331899
0.43459809
0.014415281
-0.24645539
1.79425
0.27678084
-0.39566863
0.37445608
1.156962
0.50438201
-1.959167
1.6748204
1.8830125
-0.15974139
-3.3386269
2.2775698
2.1830597
0.12505002
-0.022925502
-0.31736571
2.8324294
-0.16985592
0.69553226
-0.031524379
1.6645923
0.98028952
0.30176926
0.17885058
1.8866508
0.53391248
0.45467034
0.86556947
0.17508122
0.42884433
0.40910104
0.40778255
-0.4363966
0.35281679
-0.043778952
0.27322719
0.36686519
0.032898173
0.03054931
-0.020219434
0.91606963
-0.0026082098
1.1194469
-2.2279243
0.67882913
-0.54299647
-0.29526499
-0.7172175
-0.71649748
0.18636182
-0.45787597
-0.025082096
-0.26492101
-0.30987802
-0.64352691
0.11402103
0.13063951
-0.42338145
-0.11386674
-0.20738609
0.059107874
-0.54028201
0.47824463
0.49883237
-0.33713758
-0.35167366
0.77316314
2.6893864e-05
-0.85342133
0.41416952
0.63857412
-0.41835636
0.77339602
-0.1270009
-0.91359872
-0.32873449
0.88965875
0.10170155
-1.6415555
-0.70944649
3.5925138
0.018384652
-0.68582702
-0.62574339
2.0673983
0.28413966
0.42352852
-0.086033501
0.55280042
-0.0087674083
-0.0049079726
0.22713859
-0.030399589
-0.22667727
-0.30220574
-0.1057222
0.058174565
-0.0072113923
-0.20318815
-0.26465866
0.020135781
0.049011882
0.34026358
-0.28426966
-0.33335263
0.3848446
-0.14683858
-3.6408463
3.0625899
-0.29904997
-0.060987223
-0.3783218
0.18636008
-0.38450366
-0.30923465
-0.35291868
0.30669969
-0.25323537
-0.33983052
-0.30134746
0.11825585
-0.18727194
-0.43545491
-0.26818377
0.02505341
-0.16917711
-0.21017618
-0.43399355
-0.19694209
-0.0742236
0.2173388
-0.52357918
-0.62889653
-0.022065194
0.33040768
-0.56039661
-0.38504776
0.040580943
0.3149465
-0.3198185
-0.16388549
0.11354709
0.091079094
-0.51900673
-0.035513058
0.19479816
0.0011488709
-0.39309567
-0.1980183
-0.084406823
0.019464381
-0.39470303
-0.41106603
-0.1797563
0.036724731
-0.37301233
-0.56978083
-0.2659277
0.10995734
-0.3366366
-0.72351295
-0.18906568
0.11997367
-0.38178894
-0.69326377
-0.15376484
-0.1589113
-0.28057081
-0.50285649
-0.081932068
-0.0012540825
-0.042608384
0.47436145
-0.47123289
0.30474666
-0.5525645
-0.31044561
0.47723368
0.16316472
-0.2486725
-0.55072027
0.36526135
0.23288614
-0.38028711
-0.54793489
0.17217761
0.10906389
-0.22470784
-0.41633531
-0.065804243
-0.24631223
-0.1879257
-0.12625265
-0.14155822
-0.13179788
-0.34614065
-0.099827997
0.094018482
0.078660928
-0.55851346
-0.059170581
0.15514663
-0.84578884
0.82957304
-0.45595354
0.099541202
-0.57973939
0.90657657
-0.1768076
0.14493997
-0.69730198
0.92837423
0.65418309
0.071145505
-0.85885572
0.42761481
1.3368003
0.016658742
-1.217064
0.45114067
1.3917115
0.12404388
-1.1486121
0.5058859
1.0148159
0.1940944
-0.88368416
1.046018
0.29214799
0.22762571
-1.0610127
1.6052716
-0.45474592
0.17397065
-1.0882788
2.4262607
-1.8750697
-0.52186424
0.25882855
-0.48325673
0.39742193
-0.050458983
0.21219599
-0.17078952
0.3706519
0.077516109
0.7706989
-0.21494962
0.37471777
0.051772013
1.1312405
-0.27509609
0.60499144
-0.008361429
1.0430464
-0.050606083
0.51229751
-0.069853932
0.32896397
0.9918974
-0.2666128
0.012729893
0.21781372
1.7582054
-0.83902955
0.030227063
0.038204182
1.3117731
-0.24893637
0.10053686
-0.190299
0.47238061
0.13551219
0.27585846
0.0012278333
0.17063798
0.17728435
0.22341743
-0.20609692
0.36507326
0.10017995
0.11601797
-0.15422212
0.2286327
0.12243518
0.049469259
0.040121358
0.0069138645
0.16582279
0.028158989
0.12180427
-0.061451513
0.11800177
-0.014483802
0.16310163
-0.060110144
0.21461275
0.0088767493
0.040968064
-0.59520519
0.73391062
0.21041203
0.019552758
0.10165909
0.024624141
0.072840221
0.10237108
0.080506153
0.0071407021
0.078434698
0.1754159
0.038615834
-0.040071394
0.091884829
0.12953648
0.0057425378
0.027387334
0.11555737
0.10862229
0.020475987
0.070917062
0.1234957
0.12402279
0.059212681
-0.011821014
0.11369608
0.20128714
0.071426339
-0.030862289
0.11554696
0.22773364
0.13750139
-0.040302578
0.098526858
0.26226503
0.056799456
-0.060099751
0.14368001
0.21323438
0.023899825
-0.02193955
0.11277622
0.20440194
0.0077816751
0.036136527
0.099256352
0.12507707
0.020990238
0.020288831
0.12219147
0.037695386
0.052945945
-0.015999837
0.16396788
0.025194986
0.065307073
-0.030860405
0.16366117
-0.0093681635
0.058981687
-0.0095162969
0.1739288
-0.022688871
0.14305024
0.025046622
-1.046381
-0.34153283
-0.34200245
-0.69782013
-0.35621798
-0.22354963
-0.77826142
-0.17274299
-0.36060134
-0.17676973
-0.90535825
-0.010662884
-0.39786324
-0.014380593
-1.0325593
-0.0037047726
-0.40302449
0.20193785
-1.5604125
0.19478616
-0.30849496
-0.70302868
-0.50288922
0.093010239
-0.22927879
-0.48323327
0.044894833
-0.23863858
0.11839212
0.75093067
0.17708424
-0.3005158
0.10086437
0.19990322
-0.5313018
-1.2099514
0.32503262
0.32771748
-0.67438722
-1.2383988
-0.080195256
-0.35270062
0.22226436
-1.1929784
-0.083132155
-0.1432441
0.18719293
-1.3416919
-0.15976562
-0.046407305
-0.06727346
-0.99978656
-0.19704209
-0.36607346
-0.30582309
-0.46798539
-0.22353965
-0.55223453
-0.27674398
-0.31337708
-0.19845374
-0.24093615
0.44651905
-0.029686028
-0.054698557
0.023446439
0.35616031
0.12711526
-0.071729325
0.13410769
0.46211815
0.17499353
0.37611419
0.094406754
0.35565311
-0.43938226
0.25051829
0.10598394
0.046665411
-0.046171136
-0.30774158
1.1113143
-4.6349692
1.5368385
0.7506358
1.1076648
-1.5654238
1.0267961
1.0453039
0.51578444
-0.17030914
1.1017511
2.0630696
0.52414894
5.0325751
-8.8769684
0.11986727
1.1395456
-0.23352094
-0.88720047
1.0679561
0.97189218
-1.6010612
1.3339008
0.82986605
1.5418028
-3.3254342
0.7519471
1.5915904
-0.1336754
-0.064666398
0.50000316
-0.1256713
-0.095560402
0.38684964
0.25697348
-0.25735426
0.27172306
0.68136442
-0.034920499
-0.039757185
-0.28757846
-0.36091766
-0.10646885
0.29656553
-0.8789289
-1.863924
-1.5871907
-0.012739155
-0.071009718
-0.78135896
-0.2830281
-0.57151634
-0.33757186
-0.047710609
-0.53184712
-0.24401823
-0.21853258
-0.35654405
-0.12494428
-0.095230378
-0.029994067
0.03865644
-0.35332537
0.041310132
0.15846832
0.24255717
-0.63747501
0.30190101
0.55694813
0.20041403
-0.565054
0.457533
0.53389925
0.33022395
0.1657325
-0.085098483
0.78762728
-0.67120183
0.20214792
0.10901345
-0.37461096
0.67594075
-0.34735048
0.085268542
-3.2361717
2.7990985
0.58993441
-0.044055719
-2.6244392
2.1081932
0.47533765
-0.12583806
-0.41401955
1.2592282
0.011182852
-0.19025545
0.6226719
1.2256198
-0.34119692
-0.36119655
0.85329938
0.506073
-0.29652894
-0.087256141
0.68876362
0.22934127
-0.24363117
-0.084225819
-0.86358732
2.0214612
-2.7955625
-0.26935139
-0.031779259
0.022258028
-0.56062061
0.10436127
-0.39448142
-0.27695763
-0.25450456
0.23322184
-0.23805743
0.36278903
0.20901051
-0.05422705
0.46828306
0.7049436
-0.10509386
0.17278811
-0.74174279
1.4505601
0.045838971
-0.23404415
-0.88366705
0.29915988
1.3199503
-0.013624916
-1.6828222
-0.1048729
1.8504449
-0.070107833
-8.8374586
4.0236669
3.1006441
0.12437727
0.69715393
-0.6843285
0.56065631
-0.057118699
2.2534606
-0.5298152
0.078927226
0.58832586
0.57126129
0.079874247
1.1257845
-0.29075
-0.22884834
0.035849009
0.54110187
-0.079566978
-0.43478823
-0.19555943
-0.3591204
-0.10817288
-0.063342132
-0.23469692
-0.1890543
-0.13032526
-0.24011256
0.19060862
-0.010366703
-0.37115878
-0.32251084
-1.48719
-1.755756
-0.071845129
-0.021887301
-0.234942
0.40092096
-0.37833536
0.36852735
-0.26735309
0.10362215
0.060435571
0.11694457
0.36617008
-0.19401349
-0.12278158
-0.16521989
0.056821864
-0.1797955
-0.11329061
-1.4565257
-0.017779056
0.1253324
-0.22219978
0.33611301
-0.96255696
-1.2869068
0.33532837
1.8819749
0.75912642
-4.9646368
1.0896586
0.96680874
0.006121377
-1.5748181
0.10141003
0.60021597
3.6366825
-5.7322183
0.76355851
0.45028943
0.87996131
-3.1310983
-0.056820374
0.012360699
-1.0948036
-0.54114985
-0.1473403
-0.66663885
-0.71698427
0.28590599
-0.23403952
-0.62061942
-0.42918408
0.19101204
-0.28088996
0.21660243
-0.31910551
-0.18878114
-0.31995261
0.28915489
0.49309829
0.50641364
-0.66761118
-2.3147066
-0.24282138
1.0855919
-0.11985633
-0.47026101
1.7352496
-0.83571166
-0.58827859
0.98395735
0.84286189
-1.8423296
-0.21399927
1.1351556
0.60024559
-2.3091912
0.036930088
1.5688825
0.60959333
-2.7875841
0.030401586
0.57986516
0.78824705
-2.085464
0.014977453
-0.41008982
-0.37135625
-0.19667734
-0.013604905
-0.58249944
-0.45173067
0.18358718
0.17904346
-0.68748331
-1.0266323
0.17960216
0.10991362
-0.81898856
-0.95441729
-0.23431621
0.23303092
-0.40204403
-0.79939419
-0.48575911
-0.25828922
-0.36519444
-0.14363442
-0.45847505
-0.12017949
-0.2841126
0.0049926061
-0.6651234
-0.048645467
-0.065514162
0.074546263
-0.81524205
-0.21408841
-0.031094057
0.017879531
-0.55134517
-0.42472082
0.40829077
0.028591068
-0.3815178
-0.74615222
-0.56704617
0.12383237
0.025326174
-0.39087158
0.1813602
0.01656791
0.49915695
-0.13298953
0.41975129
0.44158944
0.20505485
0.016189126
0.32256743
0.3854917
0.045276802
0.31187224
0.062426839
0.0091530979
0.013768055
0.38769525
0.1196892
0.037476607
0.048055358
-0.08592321
-0.53013903
0.84565157
-0.63736224
0.05055023
-3.4754117
1.9358746
0.14480095
0.049491107
-3.4978762
0.26955283
1.8033607
0.12073997
-4.3988028
1.2548065
0.76285446
0.026512546
-2.0728421
0.68287611
-0.50817257
0.087014213
0.68698019
0.068069331
-0.77254856
-0.17390317
1.2399489
-0.020998683
-0.083591193
0.54820752
0.67951864
0.23680827
0.93082142
0.25952354
-0.11693707
0.23644185
0.40322375
0.20649116
0.036295403
-0.088256791
-0.12780812
-0.15326609
-0.13965738
-1.7472676
-2.0548613
0.099129803
-0.07949163
-0.55104053
-0.22113919
-0.34959146
-0.13526294
-0.17242832
0.25822681
0.059322331
0.32179114
0.26675901
0.21407753
0.32528293
0.067845792
0.63827813
0.33842871
0.0027493911
0.64744568
0.81489402
0.009631779
0.45117745
-0.33519486
0.60901147
0.23940673
0.18205872
0.1826483
-0.44788831
-0.15174492
0.19441609
9.2515097
-2.9222443
-3.9766269
0.11715543
3.2175217
-0.60400242
-1.2997159
0.18737635
0.60498607
0.54624361
-1.1092448
0.044568304
-0.060678847
0.52594781
-0.1544693
0.11380989
-0.063655853
0.23586677
0.46736014
0.33567587
0.48750556
0.15521763
0.84018081
0.58782017
0.41152465
0.31123105
0.22634897
0.47789606
-0.083130538
0.073531821
0.25255218
0.56396639
1.9859648
1.2448965
-0.072818972
-0.097945638
-0.15049908
-0.068210378
-0.11656538
0.10430557
0.24406219
0.25591609
0.00098006718
0.062600516
0.32607454
0.15796454
0.37654096
0.37295166
0.46697545
0.024541337
0.54173332
0.58393586
0.33407617
0.16724746
0.23213416
0.9176721
-0.27520201
0.63852727
-0.24903801
0.3872405
-0.37847832
0.057861324
-0.42804807
0.18985751
6.5230331
-4.4755478
-1.115383
0.10911969
3.3135633
-0.26781642
-0.66685593
0.17199735
4.1185651
-0.7853089
-1.1000645
0.1647474
3.6885705
-1.4927348
-0.57845229
0.1602897
1.9603437
-1.3796711
0.077552758
0.19442679
-0.10127867
-0.69890928
0.48317346
0.29124442
-0.79815507
-0.12204821
0.33224741
0.35580346
-0.36396092
0.20324107
0.40042597
0.74407893
0.4730117
1.2022947
2.5816636
0.0010398154
-0.5252648
1.0398731
0.12342193
0.28437999
-0.024317078
-0.097390428
0.5869723
0.3208589
0.11001939
-0.51282936
1.4813137
0.37712604
1.4823351
-1.2682314
1.6413987
0.70386481
2.0799432
-2.2943985
1.1818862
0.44742963
0.57102096
-0.12494424
1.3872765
0.096243829
0.94275224
0.73589689
-1.342641
0.5288496
0.51644278
1.0950221
-3.3534117
0.10233168
-1.2748382
-0.22355466
-0.078731425
0.33399373
-1.0736247
0.19658713
-0.1374083
-0.10287188
-0.30724967
0.32433212
-0.33226126
-0.033017874
0.19853656
0.17542225
0.32371676
0.0697065
0.47833946
0.58779895
-0.12047054
0.26691413
0.18565024
0.37498698
0.63281947
0.3418667
-0.00049132528
0.87243164
0.50710249
0.13571534
0.58389217
-2.3740797
0.062315322
-0.43674958
0.85396892
-0.63733208
0.9510361
-0.85380358
-0.23752718
0.26175871
-0.41981593
-0.93389452
-0.33819628
-0.77682716
-0.7500459
-0.41096902
-0.37455946
-0.34768426
0.13099295
-0.81880522
-1.9187313
-0.69480586
0.074573986
-1.6992888
-0.61299264
-0.27949995
0.38885096
-0.42837387
5.49963
-1.3417808
0.3163957
-0.23756506
2.0862401
-0.49547005
3.6569498
0.53287303
-0.82792628
2.9751899
-0.53526074
1.0737506
1.0865912
-0.31997341
-0.27392283
-0.48516732
-0.49175224
-1.3936338
-0.49718589
-3.4721923
-0.020913418
0.015479011
1.8902599
-0.71060252
-1.9697458
1.2760857
-0.058624711
-2.7783289
2.5411313
2.6689417
0.4371002
2.0484245
-1.13885
-0.77388096
-1.2791556
-0.19667342
2.2759337
-0.24246375
1.3722063
-0.20431292
-0.60480171
-0.90467179
-2.2886152
-0.48413044
0.58291936
-0.59020376
0.51082057
-1.2252084
0.93844926
0.7110886
1.9915026
0.65023518
-0.3093361
-0.99865645
-0.80720919
2.0399823
-1.0488076
-0.68655849
-5.7623134
-3.0871971
-1.215847
0.26556882
0.83146638
-1.5364101
-1.3792225
0.27013543
1.2008471
-1.1622888
-0.13333496
-0.27517816
0.87903208
-1.804841
-0.87207752
1.2790319
-1.5595126
0.17048424
-2.0377762
-1.7070677
1.0849649
1.7652487
-0.71839994
-1.4369074
2.8655918
2.0399473
-3.0692041
0.90213978
-0.65230298
-0.057316609
-0.010244481
0.13329586
0.61285573
-0.66041553
-0.061934419
-0.46460283
0.019515004
0.16278535
-1.0067155
0.80788195
0.43219227
-4.3097758
2.0866075
0.61671692
0.58378416
-2.0522814
-0.81038809
-1.3958411
1.1597217
0.61727399
0.83165306
-0.36946979
1.3247405
-0.24138497
0.66650993
-0.29053599
1.124992
0.74693924
-0.16011499
0.76715511
-0.034095187
-2.7315748
0.53196651
-1.4764163
-0.68767864
-0.17264968
-0.0059398459
0.32339194
0.92111713
0.0070276097
-0.67269796
-0.56522065
-0.054697085
-0.84292811
-1.2237687
-0.86725408
1.5422719
-3.0408893
1.0212883
-1.1934508
-2.8377509
2.6273358
-1.2708766
-0.25258633
0.067878209
-1.580606
0.460852
0.019439703
0.13891874
0.0054981597
-0.022467252
-0.024993395
0.22578859
-0.20378146
0.31648263
-0.0071548116
-3.6145444
0.18641229
-1.0761375
1.4236841
-1.16177
-0.15739372
0.30973643
-0.91490585
-0.037802715
-0.12447072
0.15750095
-10.850608
-0.39628071
-0.38864285
-2.7946725
-3.7122402
2.9812818
-9.0034952
-0.066440016
0.78490603
-3.99705
-0.51156288
-1.5842438
-0.22790328
-0.060607545
-0.072545357
-1.5730679
-0.0089041768
0.72821152
-1.2003171
0.093976803
-0.097453684
0.95654589
-5.5790091
-2.6237059
-4.9740682
-1.6070939
0.037169475
-5.9574513
3.1883276
5.5508876
-3.3937223
-4.4949288
-2.5237451
-0.93839628
3396
