0.14762239
0.17768075
0.012745605
0.016123652
0.32554674
0.18238236
0.15856476
-0.043915868
0.16450374
-0.060217988
-0.035263427
0.23419036
0.078379907
-0.1574339
0.37991616
0.092937708
0.099979632
0.26605725
0.099844337
-0.048703432
0.12521458
0.21269858
0.10406622
0.18057421
0.27941468
0.15656064
0.15599538
0.26275608
0.24089809
0.055769034
-0.10085694
-0.014899017
0.16239412
0.002756408
-0.13740189
-0.071857102
0.20380247
0.08087787
0.0069568688
-0.15971702
-0.070250094
-0.089985944
0.19432037
-0.053058021
0.069302581
0.085447297
-0.00067107822
0.20686843
0.23997164
0.11862166
0.21094519
0.082267188
-0.086265318
-0.045227893
0.040668521
0.19643126
0.15307523
-0.062361691
0.068174265
0.15438779
0.16527794
0.1394784
0.098108508
0.10225417
0.070189744
-0.15444019
-0.054410517
0.080207527
-0.033650082
-0.1372741
-0.011607766
-0.065891363
0.26626483
0.039561659
0.05501084
0.078790992
-0.021647092
0.12205614
-0.21018569
-0.22210041
0.17077364
0.14339426
0.21828447
0.011673097
-0.040660314
0.19056582
0.40932727
0.25653589
-0.087438487
-0.12127327
-0.081210516
0.30167651
0.02681125
-0.16997747
-0.057981528
0.044725094
-0.1841336
-0.01648033
-0.051519353
-0.038627572
0.24733751
0.050036587
0.091442153
-0.28009021
-0.065035284
0.051518042
0.091445304
0.14223926
0.10544056
-0.078641713
0.02188943
-0.30000374
0.11388659
0.0048838551
-0.13663344
0.0082249464
-0.012109988
0.061914034
0.067169458
0.16379236
-0.062622949
-0.24685533
0.46147797
0.26345244
-0.36439008
-0.19451916
0.49085832
-0.20076373
0.24525797
0.14917807
0.231718
-0.26258171
-0.10501001
-0.034662042
-0.058207717
0.27825636
0.14129752
-0.15060505
0.15013339
0.018422769
-0.014309331
0.17175756
-0.099916883
0.0063720765
-0.17075928
0.064281546
-0.4496223
0.14530459
0.084616132
0.11359154
0.13378069
-0.049043436
0.26054236
0.2960014
-0.34366986
0.23400386
0.21627845
0.050731987
0.41812226
0.14089921
0.10660301
-0.31990826
-0.090854831
0.23498698
0.071651712
0.18965253
0.22864959
-0.44176996
0.40515381
0.03195174
0.15018719
0.15883757
-0.030578028
-0.037829094
-0.20513979
-0.19285938
-0.15244597
0.17444272
0.28960568
-0.040588621
0.06996759
0.21207999
-0.22647893
0.059961006
0.13073671
0.37079239
0.19689223
-0.14227046
-0.45254689
0.56327134
-0.18671708
0.36579776
0.19460486
-0.044977125
0.38098085
0.32682523
0.37992123
0.18368842
-0.28420347
0.16034134
0.12164032
0.10663614
0.030311581
-0.14818335
-0.03414214
-0.053149607
0.22928469
-0.13025314
-0.27988929
-0.17838018
0.24853741
-0.064992309
-0.17263754
-0.23397857
0.012866613
-0.18658096
-0.16636458
0.63786334
-0.02085609
0.32487661
-0.067881554
0.24654184
-0.075684771
-0.081778675
-0.40184689
-0.30484849
-0.24607512
0.042689379
0.042831197
0.2193484
-0.12408753
0.34795693
-0.07320451
0.090409987
0.43132001
0.17091735
0.22441554
0.30710286
-0.49538767
-0.1314708
0.5713864
0.375103
0.14571497
0.27853703
0.027842777
-0.14296834
0.0847487
0.059065603
0.20008343
0.023519274
0.28014123
-0.0036594816
0.17011993
0.45885181
0.18969339
0.16429491
0.26099271
0.48430502
0.28996074
-0.62201834
0.43318546
-0.20652099
0.084290519
0.54895645
0.18565693
-0.1571752
0.65416396
0.081517398
0.46609604
-0.0083670327
0.076825701
-0.20185289
-0.065934643
0.4819628
-0.048467986
0.019460557
0.071646169
0.079014204
0.043845799
0.13731116
0.92083627
0.030408522
-0.18681559
-0.13973042
0.20301229
-0.1247006
-0.063329928
-0.22815663
-0.062409978
-0.12883179
0.11323968
-0.071081124
-0.0086478721
0.089510195
0.21741478
-0.054816727
-0.20347625
-0.19262885
0.35170364
-0.043633848
-0.25782499
0.1338394
0.035787575
0.43806484
0.33032018
-0.079827763
0.34562877
0.090844557
-0.23092435
-0.14816527
-0.25160131
0.26897675
0.052736521
0.19267714
0.12623785
0.54126829
0.45419374
0.20763767
0.22145791
0.0723757
-0.056880772
0.018004918
-0.12288491
-0.15954794
-0.055688355
0.33680201
0.021380967
0.061150461
-0.078496359
0.16978902
-0.18369775
-0.38555115
0.18413624
-0.094157994
-0.29620737
-0.085291326
0.50482881
0.19251399
0.26496851
0.30673704
-0.08100377
0.072166629
0.0024634034
-0.10377949
-0.37164894
0.11822796
0.45570317
-0.16250551
0.076237112
0.27773744
-0.051437844
0.30455458
-0.069883347
0.1906711
-0.1227974
-0.32847431
-0.28417444
0.52447188
0.17013913
0.22734903
-0.05863566
-0.14333852
0.14961894
-0.11712945
-0.22520322
-0.058094129
0.13456094
0.49552861
0.18729937
0.036816914
0.18024687
0.16600037
-0.026889592
0.062451132
0.27369073
-0.0026513592
-0.12223975
-0.043149542
0.66044044
0.41397208
0.022881094
0.51761043
-0.25339329
0.084890045
-0.057217095
-0.76466674
0.089733087
0.12536237
0.45160308
0.35940608
-0.19655743
-0.23413676
0.020624902
-0.14008467
0.38361171
0.17366865
0.039992649
-0.18074045
-0.60630685
1.2901944
0.39505243
-0.076784253
0.33955976
-0.11940847
0.24931264
0.43544635
-1.2516323
-0.11138613
-0.05933537
-0.074241146
0.16574703
-0.33257404
0.053334534
0.32459298
0.29249474
0.40002519
0.44473219
-0.025295572
-0.4632189
-1.4825577
2.0616493
0.61193562
-1.1062659
-0.28971818
0.013938872
0.66232556
1.0642622
-1.7450265
-0.13937669
-0.0031353678
0.21176352
0.34692907
0.35175464
0.10878854
0.40512726
-0.023874713
-0.39086768
0.85471952
-0.2303813
-0.1457753
-1.6842576
1.8158315
0.89055496
-0.15200616
0.045784257
0.44634369
0.75506562
1.5291468
-1.7819378
0.17387314
1.0021055
-0.28043973
0.90687603
0.12007495
0.064835906
-1.5711304
0.51771301
-0.39462823
0.62494081
-0.22048102
0.74819994
-1.5147026
1.2863266
0.55637777
0.3819589
1.4717233
0.69949073
0.42093188
0.12265981
-2.0030808
0.24635722
0.81783998
-0.061886206
0.58804733
0.040763978
0.63059711
-1.7950648
0.36764792
-0.13466239
0.17741448
-0.0080908984
0.072226569
-1.5276675
0.82075328
0.35556877
0.33451685
0.32334799
0.21597174
0.62149566
-0.32905316
0.36408526
0.031818673
0.28634799
0.064649746
0.31927702
0.0089716297
0.17649423
-2.2558517
-0.36849064
-0.300872
-0.00029055224
0.45344806
0.13100201
-1.5969796
-0.64040804
-0.49773735
-0.020195693
-0.12292504
-0.25956354
-0.36023426
-0.39607939
0.50626403
-0.01264596
0.22667876
-0.43588373
-0.4022902
-0.53164607
-0.0061373645
1.2033798
-0.41682425
-0.32765022
-0.12171104
-0.25932264
-0.36287209
0.45926929
-0.71029824
-0.30452853
-0.20040403
0.098162323
-0.15191215
-0.24211095
-0.071068078
-0.22784461
0.13658899
0.26381767
-0.039567538
0.27109951
-0.26315761
0.084146217
1.4388372
-0.19732116
0.32003546
-0.15047453
-0.10612924
-0.33004934
0.58173466
-0.58526999
-0.37973878
-0.45867953
0.3784256
-0.053955417
0.18302034
-0.12218663
0.33384445
-0.02909806
0.46452054
-0.087188922
-0.13661429
-0.24173473
0.23842962
0.29367727
0.23270011
0.22327904
-0.18326075
0.11478896
-0.30374181
0.1870639
-0.71577811
-0.22546287
-0.32608181
0.34587973
0.1044177
0.25556913
-0.44853732
0.41987512
-0.0044546551
0.38785246
-0.62380916
0.17938508
0.091370687
-0.029623874
0.28316054
0.044390641
0.3878704
0.032407269
0.39615449
0.2659243
-0.14946322
-0.91688699
0.021609496
-0.087519646
-0.084654972
0.49167174
0.17509535
-0.28190297
0.22833259
0.042963948
0.28023922
-0.55409312
0.31608972
-0.069469951
-0.021744894
0.064448141
0.017890997
0.23062722
-0.011632225
0.19932657
0.13496326
0.018560383
-0.41536337
0.096009463
0.078034319
0.12860912
0.27371922
0.11690522
-0.22686112
0.084088452
-0.10125185
0.31552285
-0.50327772
0.061302539
-0.086989015
0.1570524
0.24313025
0.049017735
0.084558591
-0.10013445
0.14298147
0.078340702
-0.053720947
0.32201079
0.022773625
0.037513707
0.034534495
0.086244084
-0.14772992
-0.08941108
-0.11837294
0.21091908
0.27228272
0.38730162
-0.098188959
0.28258008
0.2904087
0.05490293
0.054593153
-0.061768934
0.075051762
0.1417475
0.02503252
-0.12630351
0.070376143
0.14596972
-0.012886449
0.10070174
0.30539498
0.085750535
0.18801038
-0.43722779
0.024456529
0.17372355
0.27514833
0.11962347
0.21618402
0.14146478
0.16509584
-0.070234492
-0.2144804
-0.17254192
-0.19219755
-0.022824559
-0.12236742
0.18537775
0.39280501
0.28716245
0.49240959
-0.044679407
0.38987514
0.69022262
-0.42162585
0.14694063
-0.095242962
-0.1191368
0.45892891
-0.11187526
0.098479107
-0.11205477
0.19984601
0.056919083
-0.10969546
0.036946267
-0.13958114
-0.40290788
0.39953923
0.16802794
0.064945772
0.18707465
-0.1322796
0.27334064
0.32244074
-0.7525472
0.1288154
0.17663077
0.28146511
0.56574583
0.20505689
0.17666683
0.48689681
0.065705657
-0.064954475
0.19129559
0.28127941
0.1357246
-0.11832315
0.44098812
0.077331625
0.0019107579
0.11341293
0.43800533
-0.1040877
0.007185427
-0.47567675
0.16108909
0.30629882
0.7440508
-0.1613839
0.31505883
0.3962338
-0.22204714
-0.051730931
-0.23289378
0.21752509
0.1304885
-0.064185321
-0.039957244
0.10565688
0.28289586
0.005459975
-0.094821803
0.19204466
0.047107749
-0.17035262
-0.32196048
-0.11413416
-0.024588961
0.28272003
0.39057595
0.1779763
0.23473178
0.43918368
-0.18214041
-0.09243039
0.19955748
0.010637671
-0.11404315
0.1258132
0.34760833
0.50513798
-0.17713782
0.19543473
-0.10483795
0.34550166
0.46624371
0.041865893
0.0099919047
-0.13761349
0.31006736
0.55123186
0.014591591
0.10344401
0.19297814
-0.0087880809
0.1576816
0.37918735
0.12376783
-0.10297387
0.59910303
-0.36165997
0.37093714
0.24988094
-0.049970504
0.0031740265
-0.13291602
-0.24115349
-0.17826477
0.35106766
0.08200971
0.71765941
0.29775503
0.19057018
0.046058279
0.056468572
-0.71636945
-0.21649759
0.21076193
0.24417308
-0.23814908
0.56813329
-0.42054325
-0.054538686
0.16902775
-0.019632919
-0.1676735
-0.12218922
-0.31983161
0.73307812
-0.0015909668
0.049962256
-0.018965583
0.063235193
0.13244471
-0.096336171
0.46745539
-0.33133075
-0.14549087
-0.072673745
-0.23878171
0.0069837696
0.53355467
-0.25609967
0.12553832
0.34503126
0.10558881
-0.13670318
-0.030632062
-0.18509272
-0.23546115
0.080115721
0.35813096
0.34294802
0.13655485
0.4079597
0.24414095
0.048565447
-0.011238819
0.51811415
0.34508657
-0.0064668492
0.1813283
0.18091142
-0.17234387
0.15158445
0.086005986
0.13963038
-0.120451
-0.068129249
0.088734291
-0.090183541
-0.23171654
-0.030874915
0.051194798
0.33460954
-0.052525852
0.042677604
0.67491949
0.018033464
0.38007116
0.18438381
0.0052390317
-0.079322487
0.28132409
0.019153384
-0.044117924
-0.084603995
0.31736869
0.0680926
0.16559501
0.30592197
-0.064096913
-0.10006484
0.15859874
-0.22976615
0.051546428
-0.057637528
-0.094230741
0.49546605
-0.087779745
-0.13977817
-0.024576316
0.067704789
0.21546313
-0.056201212
-0.022162065
0.20767273
0.31114498
0.14654161
-0.065127634
0.17174682
0.34300658
-0.31513581
0.12371325
0.25555968
0.020925136
0.1570006
0.08673083
-0.011021361
-0.13198888
0.22532307
0.27803168
0.28869203
-0.030877659
0.12832148
-0.24143544
-0.11209023
0.046677452
0.011645984
0.27215886
0.14376582
0.12658718
0.14209816
-0.3699697
0.040795479
0.30444682
0.076849952
0.14105311
0.27684101
0.044816695
0.15517184
-0.067927748
-0.087171823
0.17346227
0.030632434
0.19295619
-0.017897675
0.055656984
0.33731028
0.1902612
0.040791888
-0.031644717
0.16192853
0.19150281
0.075004503
-0.10362047
0.14000069
0.20548272
0.50779063
0.23198341
0.25830251
-0.13635908
-0.1228405
-0.28002685
0.095031373
0.056786034
0.084969223
0.28382078
-0.41129994
0.091166168
0.065199248
0.15338503
0.2147226
-0.071992859
-0.1104725
0.6250385
-0.070244282
0.17165977
-0.17705512
-0.045309756
-0.096939616
-0.18986782
0.014123221
-0.10684322
0.33303246
0.13840273
0.13158643
0.3440071
0.26211214
-0.4107984
-0.01236339
-0.21288443
-0.3685011
0.48342761
0.12171665
-0.0038814449
0.38121229
0.19028626
0.18731447
-0.17684644
-0.097449176
0.013648192
-0.047443878
-0.031633634
-0.034018032
-0.1508527
0.17852829
0.080728389
0.45515805
0.01832854
-0.22747327
0.20176342
-0.35530481
-0.18981434
0.61546713
0.27057922
0.27164304
-0.19369572
0.026026651
0.12308691
-0.40261781
0.14794616
0.075822026
0.072874188
0.51119477
0.15520257
0.031186312
-0.082199305
0.16760373
0.3379716
-0.28033206
-0.047798064
-0.25053847
-0.17619178
0.064218208
0.33235484
-0.1369196
0.068294413
0.051842559
-0.040024795
0.17140962
0.12749569
-0.21731694
-0.10037813
0.35109663
-0.011577118
0.2050743
0.16264814
-0.021837147
0.018227214
0.22335987
-0.23526625
-0.21001524
0.049074851
0.077199712
-0.15912092
-0.014448572
0.054374956
0.26824522
0.19554101
-0.056806922
0.3385579
-0.074147582
0.042587332
-0.12992796
0.27061027
-0.29063237
-0.081451923
0.24251138
0.21765
0.024239162
0.56148267
0.0090673985
0.18316467
-0.074605338
-0.32096937
-0.62674516
0.32860675
0.24665511
0.4900687
0.21375737
-0.13752325
0.44109103
0.07677234
-0.039244644
0.10438533
0.43560588
-0.045754425
-0.30945617
-0.011582411
0.05169227
0.14852507
0.8942346
0.24876966
-0.4264268
0.3521843
-0.46831855
-0.58050501
0.48900816
0.17140235
0.84771466
-0.068177879
-0.010781909
0.53668809
-0.43857104
0.098689452
-0.089225866
0.11421778
0.17264563
-0.046649072
0.45331514
0.071292214
0.35856962
0.94832009
0.28368583
-0.78049791
0.55775785
-0.06007123
0.44073984
0.41627604
0.12245166
-0.13097785
-0.47973311
-0.083643965
0.62330055
-0.34867296
0.077169463
0.046765175
0.1609161
0.098923199
0.097579964
0.09347067
-0.026614238
0.2956275
0.63254988
0.27196687
-0.53508282
0.29065508
0.38724279
0.72105891
0.12460919
-0.096498877
-0.7757647
0.2151646
-0.44285589
0.099615023
-0.23973884
0.12262968
0.073208809
0.08738979
0.58521581
0.10695992
-0.28240806
-0.16019364
-0.054007262
-0.089751408
0.25346464
-0.18982406
-0.11405981
0.19606666
0.44039327
-0.28886655
-0.022481073
0.12268405
0.63978535
-0.15692425
-0.13281414
-0.0250331
-0.012083336
0.041048974
-0.42221224
0.79260027
0.15231468
-0.53484273
-0.23954599
-0.30605873
-0.055689327
-0.0045460816
0.11053876
0.25092196
0.13026595
0.67644042
0.0027140249
0.15655939
0.2442051
1.2041776
0.051870741
-0.28421587
-0.42939687
0.42852014
-0.25501013
0.05189392
-0.43202376
0.53808469
-0.30476302
0.077977031
0.028892187
-0.093588553
0.29070398
-0.63479996
0.09508577
0.17535752
-0.10124751
0.33395648
0.18774469
0.093871057
0.73362386
0.081417464
-0.41249859
0.16363545
0.024799909
0.099441871
-0.15164517
0.068273321
0.11445657
0.040709358
0.073425092
-0.23851696
-0.27684328
0.18295857
-0.44699177
0.072707817
0.038946267
-0.75873291
0.29884526
0.27142194
0.39060277
0.68750197
0.17582743
-0.07099577
0.45718026
0.27591306
0.33048895
0.042062361
-0.77747756
-0.55201691
0.18888728
0.47751057
0.16206761
0.62506974
0.19361304
-0.33024457
0.22456481
-0.30973276
-0.27495274
0.31841165
0.25922829
0.5175069
-0.77069068
0.070435964
0.14127623
0.26288062
0.21899551
-0.067296319
-0.27861682
0.34322527
-0.29749721
0.57264286
0.57065636
0.16707584
0.52428287
0.019334437
-0.26944679
-0.30617452
-0.23474099
-0.098281257
-0.27323523
-0.01168607
0.075587153
0.013825743
0.084786825
0.32281005
0.39062735
0.12565078
0.18303403
0.34256473
0.34403104
-0.13629092
-0.4538177
-0.05351413
0.3509129
0.41206303
-0.014772255
-0.098182864
-0.19857626
0.058074672
-0.030146047
0.23114233
0.08339145
0.0097920736
0.25431505
0.088325769
0.17003049
0.02806266
-0.048084803
0.10130622
0.11814702
0.16612747
0.12480159
0.025209649
0.11138567
0.085693084
0.23096296
0.20945127
-0.024200259
0.07175976
0.022916583
0.11022531
0.2142043
0.18388464
0.25830567
0.057976577
0.078735188
0.044195589
0.059558656
0.01988798
0.065794691
-0.12074819
0.19437508
0.31545076
0.55624014
0.19691843
0.055288669
0.14312221
0.12618777
-0.11265056
-0.19261937
-0.049504384
0.032796133
0.16755348
0.034369189
-0.029745702
-0.0045402306
0.077168144
0.2465599
0.22102523
-0.1465365
0.25781429
0.28277868
-0.087169163
0.050806202
-0.018992513
0.19238731
0.15253925
0.20168853
-0.0060555311
-0.13294075
0.42291766
-0.14571132
-0.42276964
0.094015911
0.24007316
-0.025645152
-0.1177846
0.17642909
-0.022430524
-0.016979717
0.57245868
0.13920423
0.051932313
0.33924967
0.061665591
0.3715668
0.12359139
0.28619599
0.14413533
0.020872712
0.037465174
0.090626426
0.092475988
-0.092908122
0.43404251
0.02542688
-0.057369653
0.060728841
0.014876492
-0.10399618
-0.14058635
0.19950606
-0.0011952234
0.24869904
0.44823462
0.34446844
0.22790587
-0.13034686
0.14999655
0.010084975
-0.028596507
-0.26372093
-0.46890166
0.28199971
0.44804186
0.39452365
0.071226045
0.22884424
0.23066781
-0.15038639
0.14967178
-0.28818557
-0.30232954
-0.12520865
0.123856
0.041047044
0.24330142
0.374143
-0.21035393
0.093701467
0.23888032
0.0033374829
0.12493809
0.12644848
0.071143754
-0.018857529
0.066069603
0.22742103
0.09520378
0.79881287
0.12696595
-0.16698234
-0.26172251
0.16323172
0.011619091
-0.0078786118
-0.21203747
0.2571483
0.20334685
-0.25259674
0.011213111
0.14184585
-0.14919747
0.020200055
0.67485923
-0.087263502
-0.48708904
0.019346183
0.45800704
0.35628757
0.10607513
0.18755107
0.011301167
-0.281293
0.7952562
0.042285357
-0.22416019
-0.025635749
0.28159052
0.37352404
0.072578453
-0.036781538
0.45736831
-0.07093069
-0.24187063
-0.16771103
-0.37584516
-0.1925751
-0.15770008
0.038674552
0.33803013
-0.060320456
-0.011161088
0.15940545
0.10506661
0.0043108934
0.036451228
-0.013508555
0.1474577
-0.13657859
-0.096046716
0.20647506
0.033817045
0.46708736
-0.12829199
-0.4225558
-0.020093158
-0.30633092
-0.10190192
0.0059279953
0.071351513
0.36143982
-0.048977524
0.065853223
0.31726226
0.13934396
0.030851508
0.064617649
-0.025832398
-0.068354741
-0.10953909
-0.17366378
0.24630435
0.32408258
0.49159157
0.20733264
-0.34708115
0.48922685
-0.11833737
-0.34226143
0.16498162
0.013734464
0.060113434
-0.51988405
0.24451944
0.23917131
0.14054522
0.17980281
0.090926215
-0.17782314
0.38711149
-0.057622232
0.25737378
-0.064463921
0.068129905
0.37019804
0.052961152
0.11463752
0.31672612
-0.54831731
-0.86296308
0.20599644
-0.21934791
-0.30062455
0.29074249
-0.20119402
0.23414166
0.29386604
0.33833957
0.20772272
0.35634241
-0.14533305
-0.23526515
-0.18938932
0.086495794
0.28385249
0.55739003
0.120552
-0.22089332
0.21983905
-0.004709004
0.20601118
0.33185562
0.075315975
0.11662971
-0.44853261
0.08405266
0.25523809
-0.054057226
0.12413021
0.023364915
0.056322318
0.27465671
0.35054728
0.21623115
-0.036481351
0.15471877
0.26474711
0.13901789
0.048915353
-0.29875001
-0.16896656
0.24592569
0.33261815
-0.093248039
0.0486058
0.15172505
-0.18347949
0.23261467
0.13563022
-0.15619867
0.045681577
0.23455968
0.031337719
0.18790416
-0.066306755
0.090422399
0.070848621
0.37226638
0.31357861
-0.16576275
0.32888073
-0.069573306
-0.092695437
0.18388478
0.057351056
0.059193596
-0.097615108
0.032219298
0.037481681
-0.12224431
0.22475748
-0.096656218
0.046932854
0.19209433
0.020999039
0.065008067
0.2059032
0.2476242
0.17719895
0.21576504
-0.096318021
0.061047211
-0.086926527
-0.001309723
0.18059966
0.068750292
0.11050624
-0.016574975
0.13044012
0.067507707
0.16930856
0.04079093
0.023643665
0.052041616
0.043003649
-0.099598438
-0.067460895
0.10174346
0.090448864
0.056964654
-0.049456466
-0.025941815
0.058090691
-0.015163531
0.063444592
0.16331473
0.063643508
0.1004782
0.26045084
0.078408256
-0.028469982
0.033839576
0.026095983
-0.084734179
0.010001704
0.023834551
-0.065537252
0.1049336
0.18821448
0.026335487
0.054277215
-0.056790728
-0.19838582
0.08769837
0.084474221
0.2113245
0.064247869
0.16777292
0.16679564
0.14765891
0.053987041
-0.056695681
0.022990186
0.092894129
0.0033136739
0.031451628
0.11249615
0.047601286
0.08355014
0.12217487
-0.0019475446
-0.10318346
-0.00291471
-0.071512431
0.050576791
-0.12109706
-0.12579747
0.13125926
-0.028647551
0.046909984
-0.016740993
0.1095767
0.24568495
0.20230135
0.022153879
0.15250891
0.23162918
0.035142832
-0.061096888
0.011711637
0.069609664
0.15382841
0.17818442
-0.074953899
-0.060947452
-0.030759413
-0.084186845
-0.092827342
0.20690843
-0.07911741
-0.073336311
0.15448859
-0.012481023
0.29023224
0.11460058
0.0075957505
0.099845916
0.037197366
-0.033638038
-0.078909792
-0.11202917
0.055470951
0.045819089
0.2621268
-0.11399794
0.083256818
0.14470853
0.094313495
-0.021365834
0.072025992
0.032364454
0.0062610181
0.30967689
0.049446758
0.060568616
-0.083314627
0.098067835
0.0064506023
-0.033727944
-0.091489181
-0.033528458
-0.16861258
0.038814198
0.0081127193
0.11250405
-0.23796766
0.064929478
0.16529825
0.086493261
-0.024115548
-0.042566542
0.093193114
0.020204946
0.12622882
-0.019517416
-0.10435231
-0.24978447
0.12262246
-0.036381789
-0.096315682
0.11821012
0.06354586
-0.020902552
0.17350106
-0.039338458
-0.031647339
-0.63502985
0.17386533
0.080131352
-0.21729265
-0.26598442
0.11261807
0.075956501
0.10523389
-0.42144814
0.035135556
0.35512871
-0.042659201
0.041484993
0.10225184
0.16611847
-0.053936735
0.031338274
0.04464132
0.37798581
0.062670417
0.33540261
-0.61856526
0.31990474
0.14902519
0.082849964
0.0038762782
0.070119731
0.11145534
0.18558605
-0.031178899
0.17989884
0.11096817
0.040941615
0.097517371
-0.055895083
0.10782016
-0.48073584
0.049523037
0.016428875
0.1424854
0.1447923
0.10815573
-0.61066383
0.10143819
0.080815531
-0.076774083
0.014135557
0.17403746
0.09216325
0.0065033333
-0.27645037
-0.044457681
0.19283812
0.18379059
0.026241779
0.026306048
0.15063196
-0.045894261
-0.11461365
0.031480055
0.16795316
0.12128498
0.11951933
-0.25885493
0.10508035
0.077244088
0.040234666
0.16347313
-0.029188089
0.16784188
0.077078931
0.069469325
0.040836826
0.14790311
0.23776498
0.015715189
0.12975751
0.19594228
-0.38855922
-0.10538412
0.087186225
0.10878035
0.10387087
0.11341984
-0.21390538
-0.0062282099
0.1266135
0.048207287
-0.10419686
0.0038811325
-0.081776097
-0.12348122
0.1788274
0.096218511
0.033868592
0.12669234
0.090603925
0.02269879
0.14615731
-0.030076416
-0.12864746
0.031247918
0.18181144
0.1123103
-0.023011163
-0.15709093
0.016495297
0.048365254
0.18849882
0.23923552
0.01622507
0.017621363
0.10753659
0.21548118
0.095989205
0.00038883334
-0.048337389
0.13322143
-0.028689696
0.012644044
0.09279827
-0.074015111
0.0038386111
-0.020416174
-0.026220238
-0.029957566
-0.10816526
-0.074416853
0.18332557
0.081990227
-0.064968824
-0.011666067
-0.0001028456
0.028063728
-0.009793154
0.11848857
0.12232106
0.18391645
0.2040239
0.067388363
0.16124183
-0.041457549
-0.063574769
0.056851178
0.16596052
0.11669051
0.019081751
-0.077033296
-0.15393859
0.13879085
-0.028116925
0.066249579
0.094263367
0.04350454
0.034155171
-0.091047615
0.018963398
0.10648879
0.12525904
0.16561373
-0.041601993
0.06131807
0.15819581
-0.12944035
-0.029956175
0.060460966
0.073040642
0.045829825
-0.018023187
-0.069068447
0.17046809
0.33794302
0.018487068
0.02893636
0.32097247
0.20325992
-0.47217104
-0.16215448
0.18084405
0.0041892114
0.24652518
0.14418086
0.00081123563
0.35232773
-0.094515517
-0.0039462992
-0.131504
0.13593091
0.19361825
-0.32715911
0.2693941
0.22784473
0.051405869
0.53140241
-0.1166522
0.12668872
0.52945054
-0.29034597
-0.093343779
-0.12718196
-0.23869179
0.20036061
-0.10903257
0.17410052
0.14410134
-0.044091746
0.00075196597
0.1663713
-0.073270708
-0.097073436
-0.34484187
0.25951651
-0.099921823
0.17708175
0.36968189
-0.047677524
0.2099601
0.014334052
-0.40721613
0.026668347
0.076110333
0.53490132
-0.12670891
0.48864871
0.22824711
0.31358188
0.036851019
-0.32513857
0.31335205
0.17274806
-0.21583284
-0.21219933
0.3877863
0.19090161
0.3750295
0.50961405
0.65207201
-0.058980022
-0.19012445
-0.48026672
0.14961824
0.096213706
0.47775307
-0.10272169
0.46615326
0.25553566
-0.25913313
0.032522012
-0.41982245
0.1891266
-0.00079415663
-0.21514212
-0.074046299
0.21583019
0.28240913
-0.075884685
0.41808134
0.76522213
0.21537246
0.44825852
-0.28317228
-0.1255451
-0.25563166
-0.16779892
0.55742526
-0.2099684
0.082360804
0.054195356
0.11910607
-0.056016471
0.15104051
-0.069893047
-0.235559
0.13390882
0.41541851
0.41890216
-0.2505441
0.33361512
0.071788013
0.44464496
0.75883055
-0.16702375
0.25976023
-0.17892326
0.29667261
0.94365495
-0.0067081088
-0.11060305
-0.26090086
0.22843
0.29662734
0.18957771
0.0072649247
-0.068591818
0.063714363
-0.22454661
0.29100111
0.24812223
0.093845494
0.8242988
0.057584379
0.14503491
-0.078848943
0.27194124
-0.18297766
0.9652738
0.21002118
0.27856931
0.08704979
0.45405287
0.13790129
-0.041129507
0.27854577
0.23048724
-0.60732883
1.4009265
-0.12833141
-0.049935382
-0.18064988
-0.26629281
-0.081193201
0.01574504
-0.4013142
1.5428421
-0.028810382
0.099178739
0.21045862
0.062376197
0.17546369
-0.043633677
0.1906082
-0.94146436
-1.1987107
-0.098555215
0.0074166758
0.1468485
1.2470675
-0.013319246
-0.059863515
-0.46005777
-0.082514726
0.40256238
0.010065366
-0.0043856874
-0.50868803
0.087659277
0.43722725
0.46447048
0.35189602
0.39731225
0.61548024
1.1243169
-0.29506388
0.40175396
0.42014238
0.32684803
0.49722022
1.3759487
-0.73033613
-0.12587748
0.50223184
0.39257282
0.2920233
-0.18651257
-0.43187782
0.19793963
-0.11818285
-0.38780436
-0.35741469
0.027240209
-0.12823808
0.16114695
0.704045
0.057786547
0.64673716
0.035621133
-0.052122645
-0.36275506
0.13309599
-0.28822789
0.26229092
0.4620882
-0.22344416
0.40666395
-0.38187504
-0.70582455
0.12236868
0.28607848
-0.026864629
-0.26728904
-0.061920855
-0.12121452
-0.19852653
0.35079268
-0.1298153
0.068053491
0.096174911
0.045030095
-0.081824258
-0.12001751
-0.26895833
-0.040112782
0.3768912
-0.21337773
-0.055507619
-0.24300237
-0.12137701
0.058539789
-0.28745273
0.088374443
-0.026607251
0.171656
0.030404488
-0.066526368
0.42307392
-0.031961001
0.15027738
0.21420284
-0.31944153
0.1008894
0.023061957
-0.14842829
-0.17110972
0.19537011
0.32709059
-0.21830173
-0.12163607
0.029313568
0.37330821
-0.028684104
0.015467968
-0.090245835
0.017060898
0.051622633
0.059971403
0.22063394
-0.093823135
-0.084662043
0.11406206
-0.066297084
0.056712124
0.0020231176
0.011905717
-0.0059805354
-0.020456739
0.30224758
-0.0023843679
0.013677443
-0.0043041985
0.14053202
-0.095545679
0.038293947
0.21534343
-0.077561185
0.063368015
0.048458878
0.44490865
-0.084195904
0.13678701
0.17613947
0.10539436
-0.012980263
0.31896999
-0.18338583
0.061204948
0.37583488
0.29025429
-0.0065929224
-0.21882538
0.075308964
-0.24755077
-0.059956152
0.19585696
-0.026615886
0.25709894
-0.043892741
-0.04385772
0.44007397
-0.25423327
0.03175367
0.29324731
0.11185385
0.14897254
0.35241973
-0.096478641
-0.082635291
-0.069073923
0.21420911
0.078021571
0.076579735
-0.075119145
0.46092007
0.24878126
0.30163914
0.040033117
0.043852236
-0.003933453
0.13897023
0.25838342
-0.019647421
0.0037676974
-0.1123354
-0.049617492
0.22898038
0.090412244
-0.24500866
0.022364648
-0.14424898
0.16546246
0.47688019
0.081354171
-0.050347023
0.5323534
0.045783971
0.043747522
0.04096223
0.016683506
0.09912888
-0.046076681
0.26505142
0.29258481
-0.087895706
0.01912695
-0.055299319
-0.201241
-0.020027731
-0.21083073
-0.11991802
0.092040062
0.029840125
0.16465464
0.065677099
0.12168593
0.7011134
0.036851626
0.12154943
-0.17064592
0.2616699
0.12128472
0.13851555
0.1672879
0.30937445
-0.039736368
-0.1631127
0.077167206
0.058515094
-0.31540987
-0.18358579
0.11255091
0.082401641
0.10684472
-0.0020713552
-0.073405422
0.34958309
0.50858444
0.0071943677
0.36316663
0.11040146
0.12291417
0.4252024
-0.028493797
0.048928186
0.10869993
-0.10346025
0.0069256341
-0.18347549
0.23488392
-0.14064787
-0.14424439
-0.28390899
0.24055508
0.75976348
0.14085959
-0.13121156
-0.096081831
0.63790113
0.2042736
0.085999556
-0.00081640907
-0.32811701
0.0026336268
-0.091423653
-0.095813707
0.33554262
0.48844737
0.11403674
-0.16650082
-0.17661956
-0.42450589
-0.087917402
0.14401862
0.25988263
0.2804018
-0.31162074
-0.17955649
-0.30776995
0.39462405
0.10620767
0.26518333
0.38890097
0.15332715
0.14970802
-0.027867645
0.42877129
0.012978892
-0.17599615
0.22440629
-0.004627984
-0.084695153
0.17241973
0.41644809
0.31677058
0.082676999
0.20474613
-0.14334476
0.27781686
0.65582395
0.45602316
-0.093043059
-0.16055925
0.089537755
0.12423263
-0.037411664
-0.32623327
-0.091122538
0.20843546
0.40148494
0.11724727
-0.21275249
-0.11481058
-0.78048158
0.55183595
0.057401434
-0.00071270985
0.16950519
-0.2337358
0.11915096
0.63121164
0.065023497
0.013830582
-0.12990257
0.061746109
0.50975549
-0.12439686
-0.22648415
0.0094264047
-0.68086016
-0.13920303
0.014166663
-0.50128871
0.090029158
-0.81406063
1.1632999
0.26524538
-0.04351249
-0.58632296
-0.047429156
-0.11334807
-0.12224944
0.60149622
-0.099500179
0.52722019
0.38924757
-0.55888522
0.24804685
0.56790555
-0.62868267
0.1336464
0.63348311
0.2041498
-0.27068004
0.31052643
-0.80820906
0.98477238
0.21774586
0.36439279
-0.064974137
-0.081507333
0.24586882
-0.010046243
0.14901467
-0.044176102
0.54810226
0.44403639
-0.098269917
0.13650721
0.043434918
-0.83590764
-0.16151483
-0.25792915
-0.037862718
-0.16497402
0.23799121
-1.0670191
0.61867899
0.75555062
0.40205225
0.86291981
0.32051307
0.61204994
0.1784915
-0.43162799
0.2290282
0.082406014
0.16812441
0.75560439
0.030648686
-0.18232465
-0.51030344
-0.40884125
0.48786047
0.29268312
-0.087725118
-0.00052575243
-0.38626447
1.6137042
0.55054009
-0.24034137
-0.078399964
0.33785307
0.098553739
0.23921682
-0.090549543
0.15144779
0.54598421
1.0698211
0.50131911
0.39894158
0.50334024
-0.74504119
-0.15571469
-0.28184929
0.51800662
0.5364145
0.12026282
-0.15953147
1.6880653
0.38343573
-0.55318618
-0.56029463
0.74833989
-0.37388977
-0.5889281
0.19301292
0.0011824922
0.85208243
1.2101297
-0.29674524
0.65798128
0.66923642
-0.24027352
-0.16473576
-0.35221273
0.17882949
0.44470999
0.2761566
0.11107537
0.94688857
0.62037086
0.016442616
0.26331824
0.74851269
0.60724074
0.75517476
0.08845482
0.07726644
-0.089476779
0.39373532
0.63690734
0.046796523
-0.11539631
-0.91556865
-0.099858761
-0.081586584
0.25487268
-0.19792952
-0.099111237
-0.33073643
0.92103148
0.41647679
0.17993701
0.43509406
0.11008554
0.66530252
0.94429988
0.18787073
0.10662757
-0.20471694
0.28728455
0.8292768
0.043552253
0.13660401
-0.65952396
0.19803485
0.21588005
0.41178364
0.32626879
-0.068823107
-0.44128308
0.016860146
-0.10838626
-0.20322983
-0.41971001
0.31291032
-0.062274121
-0.20353498
0.067232884
0.39257717
0.087389238
0.18002546
-0.22555611
-0.10891209
0.08829809
0.008223353
-0.23456989
-0.014986231
0.18787299
0.24711829
0.14415158
-0.57436574
-0.24512529
0.12821518
-0.15163116
0.18611608
0.19302343
0.064276569
0.22977999
-0.17114092
0.03921105
0.077648036
0.031745043
0.15798184
-0.20598625
0.030633133
-0.077604361
-0.16005765
0.34327316
0.13732947
0.1008525
0.13342652
-0.43199283
-0.20209825
-0.072041422
0.17535064
0.1896607
0.3521435
-0.11491951
-0.0018923276
-0.08772818
-0.028987972
0.21342544
0.20488255
-0.18835972
0.094486482
0.1814689
-0.011796908
0.1225208
0.41581577
0.16523398
0.037591644
0.0037527021
-0.29631212
-0.0079986751
0.11591002
-0.098488957
0.19427833
0.26050434
0.043145478
0.53842914
0.021958901
0.018607259
0.014706366
-0.012358042
-0.013798358
-0.099242188
0.08996433
0.1066723
0.03575854
-0.026007727
0.062065214
0.0082288748
-0.036666207
-0.25514421
-0.28345677
0.083495729
0.39005688
0.52381074
-0.02836116
0.13045904
0.23332539
0.43620202
0.037997596
0.052269146
-0.15604441
0.31853411
-0.12031657
0.13840306
-0.5606873
0.38216168
-0.22279014
0.053786568
0.2132901
-0.14074144
-0.41790926
0.14718314
-0.14564633
0.088913456
-0.37024739
-0.059420507
-0.068881117
-0.36854473
1.0420979
-0.13980934
0.3466453
0.059484083
-0.19527902
0.23157798
0.18828572
-0.39624915
-0.25182673
-0.3652789
-0.085800625
-0.0034536244
0.43878993
-0.35257843
0.20176029
0.73989642
0.23647079
0.24485144
-0.040496331
0.44424301
0.29404569
-0.2603696
0.26898924
-0.19914995
-0.31439275
0.65235418
-0.044074707
-0.17842777
0.0071413852
0.39225757
0.52489853
0.11571004
0.15909401
-0.056265194
-0.91259259
0.15771036
-0.29370087
-0.82052749
-0.31331781
-0.046862371
0.051912345
0.13537063
-0.73527223
-0.31886429
0.23519859
-0.064609021
0.096246205
0.10410488
0.13599704
1.0339624
-0.18281788
0.031709835
0.36286822
-0.13429175
0.48810813
-0.82318813
0.44993111
0.49814707
-0.01245467
-0.098374516
0.10410099
0.23272768
0.54296261
-0.37165993
0.081579722
0.35232458
0.38209701
0.58507144
-0.0053757085
0.05917294
-1.2581396
0.088825837
0.35023192
0.56549126
0.31897298
0.44755387
-0.89717931
-0.129334
0.096653447
-0.058037125
-0.14298153
0.23187366
-0.085086353
-0.092664249
-0.28187099
-0.056013871
0.36361516
0.19417258
0.12350501
-0.028538913
-0.14802396
0.22979699
-0.46582276
-0.25296533
0.052847221
-0.04277087
0.31485209
-0.19949338
0.13860585
0.11448594
0.0057908003
0.34195918
0.26162681
0.36729831
0.29552811
-0.079953589
-0.11885918
0.11725119
0.14386216
0.18474194
0.10105023
-0.14852226
-0.016772596
-0.072503194
0.35153025
0.051908139
-0.20022103
0.25847688
-0.22838372
0.2346084
0.12928502
0.05365444
0.16045664
0.17340596
-0.094952583
0.18997151
0.46140337
0.11380976
0.079391442
0.026906887
0.30892366
-0.066696599
-0.077574506
-0.12868953
-0.10617524
0.07250578
-0.052250344
-0.070886523
0.21982647
-0.078201644
-0.079641551
0.076713026
0.22603083
0.24736129
0.351735
-0.0070179105
-0.048910707
0.37395424
0.011712397
0.004351154
-0.062404502
0.19595943
-0.02244257
-0.053539976
0.32999048
0.12083779
-0.10971305
0.048648424
-0.23948789
-0.12343396
0.1676368
-0.10171873
0.069493875
0.22667907
0.062210262
0.25509244
-0.041203342
-0.018740825
0.35278136
0.12472056
0.14774989
0.097841479
0.29272056
-0.010815901
0.032071151
0.13445193
0.21385886
0.21857218
0.034488093
-0.01164319
0.12349034
0.2446519
-0.056673873
0.036042806
0.02692516
0.19187216
0.2302139
0.1802548
0.051970385
0.36802384
-0.083075643
0.21141668
0.22715688
0.12043853
-0.057789061
0.035645377
-0.015515413
0.13894436
0.030686708
0.20351778
0.15360971
0.15014702
0.33915731
0.54519409
0.19523065
0.29356134
-0.081632055
0.022811554
0.16694292
0.1209603
-0.020925151
0.13251413
0.046141766
0.39196661
0.061330847
-0.3473666
0.53729624
0.10541277
-0.038364518
-0.060401272
0.22600453
-0.38578188
0.051298849
-0.040511727
0.26916265
0.31479171
0.16279389
0.40756011
-0.015391445
-0.033061575
-0.10149831
-0.067648157
-0.0083841356
0.0073067723
0.66511452
-0.16747622
-0.22916377
0.52411664
0.50152904
0.037246339
-0.20600656
-0.012998132
-0.20867313
-0.35444343
0.21370248
0.29186568
0.23932439
0.054744147
0.34765762
-0.35787109
0.23801725
0.035592638
0.47304827
-0.11220707
-0.21781631
0.63815469
0.23736031
-0.089100264
0.66102523
0.58892584
0.20089267
0.25632995
-0.32721227
-0.076110542
-0.33047035
0.032627188
-0.20953195
0.19216587
0.20327485
0.51697761
-0.08398506
0.1842245
-0.33900473
0.77193385
-0.2396394
-0.2701194
0.35798264
0.2192201
0.030688103
0.16792499
0.48879221
0.30069306
-0.055964384
-0.077257991
-0.17971739
-0.48940456
-0.023522299
-0.66933531
0.47266865
-0.33577353
0.46338281
-0.38539684
-0.014682615
-0.64091396
1.3323711
-0.23320784
0.024309726
-0.28047866
0.52782261
0.080537796
0.32322595
0.27894804
0.16954353
0.25259346
-0.37057638
0.21689771
0.18721409
-0.043098371
-0.0320815
0.19933754
-0.14577973
0.72732723
0.18176134
0.74088037
-1.0406932
0.41975021
-0.14511697
0.037126236
-0.43934363
0.51667351
-0.080998138
0.17828253
0.31543201
-0.37904564
0.2406681
-0.33693093
0.48771054
0.55707699
-0.67051971
-0.65744281
0.5107578
-0.52677715
0.64492202
-0.19910119
-0.35778275
-0.48236713
-0.42172092
0.47236758
0.61139768
-0.36262888
0.75738263
-0.15027064
-0.4066579
0.23891008
0.21948555
0.73495686
0.65678483
0.0052279658
0.81941217
-0.31213009
-0.075535379
0.049313735
-0.98908067
-1.7291996
0.49742281
-0.1153017
0.44666809
1.4361627
0.64530951
0.40081263
0.27177978
0.38854679
-0.20565709
0.37790182
-1.5433551
-0.92495918
0.13559768
-0.052214783
0.15049772
1.7720613
-0.0061816433
-0.4442921
0.69500542
-0.86982405
-0.98154318
0.30943573
-0.15965751
1.3060243
0.13409327
0.56354237
0.88759089
-0.078900978
0.25684023
-0.80493772
-0.20875807
-1.788624
0.010844561
0.79170096
0.44656062
0.0044745291
1.7610954
-0.14930584
-0.31823519
-0.13011222
-0.98088396
-1.702589
0.76238054
-0.21510519
0.37302858
1.1802481
-0.45349014
0.58310801
0.13048927
0.02881988
-0.11188531
0.55935329
-0.91994745
-0.93866676
-0.15851305
0.090367936
0.14711246
1.9964577
0.18728743
-0.93257207
0.62400222
-0.20494223
-0.31936166
0.027651742
-0.313788
0.11196279
-0.28418258
0.15126801
0.553909
-0.80072433
0.14390378
-0.37128961
-0.049412619
-0.20591958
-0.017861977
0.18990032
-0.028284246
0.40445083
1.4054564
-1.0463324
-0.27258208
0.2812244
0.011912793
0.0050127325
0.48046309
-0.44952619
-0.52063304
0.018220074
-0.21517205
0.3244189
-0.52891922
-0.33974397
-0.0049632904
0.27292371
0.14263795
-0.076984152
-0.69643337
-0.30410823
-0.029413814
0.9364689
-0.84085935
-0.38076448
0.7005899
-0.23728654
0.45208395
0.03623737
-0.11492787
-0.65272188
0.077030279
-0.07764636
0.26070932
-0.83410007
0.011660529
-0.20169269
-0.038866293
0.22658314
0.49041316
-0.23539615
0.35016182
0.22658069
0.56483084
-0.76236182
-0.31272882
0.41538265
-0.048751794
0.51076514
0.0059300633
-0.3266573
-0.5576666
0.35679647
-0.32553747
0.31151164
-0.66212881
0.052373853
-0.31418124
0.080270939
0.60914481
0.55211973
-0.14871784
0.14566572
0.35029647
0.4970158
-0.26135886
-0.60547495
0.2605187
0.11641362
0.25918821
0.2461649
-0.28819439
-0.26285478
0.72114748
-0.055473194
0.22187944
-0.38874528
0.27818188
-0.11502191
0.059505809
0.49055278
0.56467688
-0.17155676
0.10900781
0.28292662
0.35973206
0.27932647
0.081417762
-0.014797804
0.2249372
-0.028873237
0.38196334
0.23999336
0.07535664
0.27005303
0.17093599
0.25562978
0.038086869
-0.070922747
0.072090507
0.14563169
0.12151733
0.29946795
0.29719323
0.11811783
0.032779466
0.33075008
-0.092689149
-0.031027028
0.15977426
0.015160136
0.11591928
-0.29520875
0.12951149
0.24002425
0.36887774
0.10593242
0.090115525
0.24129596
0.27427858
0.039588179
0.13225538
0.057604779
-0.36362299
-0.06728591
-0.087336451
-0.036894467
0.27102703
-0.12173865
-0.25868806
-0.15977277
-0.047564428
0.43588811
0.20311391
-0.23648635
0.13490686
-0.018216636
0.15372455
0.048741151
0.13336718
0.12031163
-0.096646138
0.30579898
0.57037783
0.20186457
0.29328221
0.13311276
0.08327166
-0.15490484
0.027512509
0.026972504
0.20390929
-0.035030305
0.18879639
0.063978501
0.47010237
0.4681524
0.48191914
0.20732756
-0.12795304
-0.038366504
0.23759305
0.080724277
0.1747061
0.49099162
0.15113403
-0.13730593
-0.070405237
0.15585388
-0.076964676
0.028195873
0.30453962
0.24639282
0.12480266
0.52918571
-0.029331721
0.32271713
0.28064534
0.90958685
0.042343657
-0.19437872
-0.32095003
0.25489908
-0.1143972
-0.008579229
0.18136756
0.50363219
0.07100857
0.1882529
0.012601916
-0.1583913
-0.071557343
-0.048839442
0.026569882
0.025693927
-0.18396719
0.019766336
-0.022336224
-0.14417458
0.79891926
-0.063292086
0.042972729
-0.23417266
-0.050101019
0.016162928
-0.031709928
0.48436952
-0.060321286
0.010613287
0.00063236861
-0.13386577
0.19527757
-0.18547969
0.081561372
0.22493093
0.40795827
0.32627577
-0.10757025
0.12325434
-0.49119318
0.20202062
0.23767045
-0.09867648
-0.23002282
0.27874643
0.078758307
-0.15634219
0.41694519
-0.14621413
0.52748507
0.076122239
0.021208283
0.13425645
-0.75693339
-0.18962975
0.10651913
0.10876893
-0.26007816
-0.1945789
0.11702496
0.63840848
0.068937652
0.10432062
0.52113396
-0.19674057
0.25631556
0.0021294795
0.03181719
-0.42450544
0.67543286
0.89404559
0.51881808
0.11039993
0.74443328
-0.74135715
0.43567997
0.014338854
-0.44161773
-0.63912642
0.11003063
-0.049933318
-0.05939398
0.44816238
-0.051376671
0.53745377
0.21071771
0.055397131
0.024422163
0.39035738
-0.81442779
-0.33852094
-0.24136846
0.33236271
0.63089502
0.85201722
-0.72159219
0.14471996
0.42720461
-0.15137188
-0.14772463
-0.00061795645
0.32828057
0.73315191
0.068413705
0.4179922
0.21312156
0.17793791
0.18736935
-0.15321878
-0.11189892
-0.051831812
0.080945686
0.5702101
0.34265393
0.41265824
0.37905157
-0.13255249
0.27231619
-0.38908815
-0.63522553
-0.4964886
1.1252528
-0.47661746
-0.53020364
0.33713299
-0.354525
0.47599536
0.29421011
-0.33322859
0.097537108
0.54571152
-0.14000791
-0.40100363
-0.22219519
0.22536986
0.040748082
0.64529347
-0.065364189
-0.19241782
0.43891072
-0.0038591116
0.38148701
0.23433483
0.14501803
0.37418175
-0.45825723
0.097622752
0.19494011
-0.11838791
0.45968339
-0.10806423
-0.0033317369
-0.22871377
-0.057541709
0.52370518
0.22519307
0.25017819
0.31104648
-0.55680096
0.12683855
-0.057871643
-0.050757203
-0.31266367
-0.2891531
-0.23423192
-0.43858904
0.22778752
0.24446036
0.483549
0.42045996
-0.21176742
0.38166985
0.43966806
0.42014647
-0.049790565
-0.17959638
-0.046132889
0.16952296
0.3087343
-0.35635465
-0.25202051
0.25819725
0.0052446919
0.1709214
0.0050512981
0.18258668
0.017670149
-0.14509988
0.0757076
0.14517961
0.0026293439
0.27886665
0.020722551
-0.10786538
0.51665753
0.10613993
0.12264688
0.24942024
0.089278504
0.058688477
-0.36931461
-0.21928364
-0.3381857
0.18028943
0.39010337
0.20124649
-0.23297021
-0.34503862
0.59548527
-0.33713341
-0.071130648
-0.11438695
-0.023408504
-0.18403237
0.13909052
0.45851064
0.44762325
0.090381801
0.020094302
0.077615693
-0.18386067
-0.3698335
-0.021490514
0.045934752
0.047605362
0.074399702
-0.078839026
-0.049096886
-0.019128794
-0.12374048
-0.022292946
0.087436736
-0.0014803197
-0.02096992
0.03720602
0.093911618
0.16508654
-0.064892516
-0.031448945
0.032864865
-0.0012745175
-0.012051816
-0.33800724
0.034750439
0.13876483
0.016542552
0.087036297
-0.0203328
0.099305324
0.1585595
-0.14709322
0.070913322
0.042999741
-0.010261795
0.11415078
0.055492975
0.099036559
0.11130694
-0.010413203
-0.0031377492
0.096560538
0.016127085
-0.051372785
-0.18922204
0.1581064
-0.053790607
-0.041617036
-0.031105872
0.072085306
-0.053634677
-0.021163726
-0.065653645
-0.0010265436
0.19305129
0.13873492
0.0092797689
0.13489556
0.16324954
0.058594339
-0.024622219
0.032463923
0.054961625
0.077115394
0.1847192
-0.1046005
0.14539658
-0.017762108
-0.0044914959
0.0053344765
0.088531643
-0.090030879
-0.11028635
-0.070181139
0.029849438
0.23629634
0.22155283
-0.13672295
0.1352668
0.17286885
0.027125344
-0.1288984
-0.074247696
0.21564044
0.11708175
0.15082569
-0.044865999
-0.02718607
-0.015227951
0.062231362
0.181894
0.13044848
0.014071445
-0.054524209
-0.04282824
0.07636302
0.010967261
0.057449657
-0.14399956
-0.027308293
0.081167303
0.025143379
-0.12798594
-0.011075636
0.20590059
0.053942233
-0.053244386
-0.036337752
-0.081680268
0.10461125
0.065744087
0.36968008
-0.076984443
0.080905616
0.125285
-0.063062534
0.098444253
-0.07290592
-0.023360753
0.087357238
-0.060665961
-0.076189972
0.35698187
-0.010285432
0.12984453
0.064042591
-0.088448808
-0.095012195
0.076023653
-0.044836283
0.03720808
0.13707745
0.39645532
0.21361633
0.11709738
0.30184203
-0.11509816
0.18956673
-0.058218714
0.13480538
0.066797227
-0.066094577
-0.0037793557
0.43091562
0.099601701
0.26459014
0.29838744
-0.029287269
-0.14864795
0.61941797
-0.0079042111
0.019171232
0.22778706
0.054507673
0.083602354
-0.10048717
-0.17767273
0.41928014
0.00033449451
-0.13004331
0.30780938
-0.081282414
0.02043771
0.072839223
0.41132453
-0.18845633
-0.0026912121
0.020833308
-0.0066278516
-0.23000747
0.51075858
0.032019947
0.035606995
0.039161965
0.058993515
0.23163389
-0.02149662
-0.16768396
0.37952623
-0.05771061
0.043616869
0.15680802
0.071946234
0.11968026
0.11449283
0.24302433
0.015586613
0.12953328
0.19329152
-0.0506781
-0.0040356177
0.56643218
-0.14692134
0.17284201
0.2059789
0.042536061
-0.059126571
0.081798695
-0.0058691902
0.075136885
0.064438842
-0.054902364
0.11254545
0.2462572
0.085714683
-0.048858233
0.20394151
-0.060401306
0.11970639
0.028608715
-0.15592059
-0.042431027
0.076273993
-0.15432411
0.11674244
-0.036382936
-0.11490475
0.13821954
-0.045036301
-0.034121893
-0.1527479
0.11069331
0.097942866
0.12980258
0.12326578
0.053919014
0.083805867
0.28515247
-0.091259271
-0.050994799
0.092291303
0.086179174
-0.055526629
-0.016221052
-0.0039289123
0.065376669
0.11991942
0.064067163
-0.033490848
0.055593431
0.073857121
0.068910576
0.020970797
0.013899812
-0.048336245
0.09193074
-0.040860131
-0.056892406
0.23789293
0.046868883
0.032923151
0.064890854
-0.09324941
-0.029140104
-0.023670183
-0.032281239
0.033737317
0.067149684
0.091607735
0.05405347
0.03741575
0.014210381
-0.041854084
0.059586864
0.14110364
0.094554938
-0.010662287
0.077653036
0.045437414
-0.015119078
-0.021194691
0.021080799
0.12194425
-0.011775447
0.013143847
-0.11415007
0.077406287
-0.033345945
-0.10309359
-0.097011171
0.14827171
-0.068914607
-0.18723966
0.084388316
-0.075016692
0.19722429
0.1776793
-0.16003577
0.13277887
0.15376933
0.013800941
-0.11487892
-0.056629002
0.17618887
0.048051842
0.081037506
-0.10525331
0.14627442
0.047944728
0.046118028
0.027528707
0.029910002
0.021788081
0.043999419
0.085298084
0.10744408
0.097160488
0.097155958
-0.039840531
0.077783614
0.066207625
0.042116836
-0.053764805
-0.043791246
0.047908124
-0.061638847
0.013544668
-0.14653125
0.30339295
0.35416329
-0.46119517
0.5163002
0.18625665
0.09960217
0.17640421
-0.43109527
-0.066767313
0.15213798
0.43381757
-0.027765188
-0.29734147
0.00026647683
0.25292748
-0.18722464
-0.18266523
0.30933723
-0.022719856
-0.014425432
-0.0048667723
0.39305085
0.30041671
-0.22027017
0.68108147
-0.058569007
0.24697703
0.2303566
0.027428741
-0.35285288
-0.144151
0.36614507
0.51062369
-0.17447166
0.52967006
0.39797544
0.11821754
-0.29725233
-0.23961228
-0.12370127
-0.32206243
-0.019642541
0.1648908
0.34191871
0.3485916
0.6417678
0.15755735
-0.080826022
-0.18553358
0.879071
-0.33551604
-0.05199587
-0.25827482
0.42813951
-0.2902334
0.37671798
0.37649956
0.70331633
-0.14955537
-0.33664829
-0.12618388
-0.2726357
0.14513156
-0.54969817
0.039073765
0.24826957
0.59907508
0.26966497
-0.091732852
-0.49420255
1.2757442
0.20968392
0.13022853
-0.1789505
0.011707268
-0.17171878
0.030186621
-0.090141535
0.2680693
-0.061745629
-0.55885029
-0.11796378
0.060190629
0.38809994
0.038903527
0.50755829
-0.051621888
0.34231615
-0.09018556
0.46815532
-0.27346954
0.40981996
0.11611155
0.089600503
-0.07740581
0.49054262
-0.2944409
-0.12027857
-0.14267036
-0.1536288
0.44732851
-0.050414227
-0.18263757
0.35107151
-0.14328876
-0.96389586
0.48529136
-0.63591617
-0.56905657
-0.49252266
-0.20060894
-0.050043233
-0.14288352
0.26826608
0.78064805
-0.39822868
0.40878516
-0.45930505
-0.45594761
0.2288401
-0.0015434856
1.2128642
0.75360805
0.14549321
1.1547372
-0.091621101
-0.49358171
0.41345727
-0.80052078
-0.99724281
-0.30260068
0.33587703
0.13570967
-0.25161129
0.25462958
0.59451354
0.36499363
0.21239188
0.017992936
0.10712957
0.13600212
-1.372352
-0.36862281
0.013115138
0.31511769
1.1629926
-0.015058482
-1.0312378
0.4750942
-0.31284046
-0.18351629
0.54353094
-0.20663592
0.30236807
-0.53263843
0.025618955
0.62983102
0.17273161
-0.081920654
-0.39799893
-0.341261
0.16909264
0.44693342
0.060732022
0.04800031
0.10622518
0.34766993
0.026289541
-0.17099296
-0.17984135
-0.57616204
-0.89539486
0.79430366
-0.023362352
-0.13102405
0.79638153
-0.38504446
0.43569216
0.29257035
0.29473829
0.48118475
0.34013945
-0.50964928
-0.41508102
-0.080918901
0.088452414
0.10107443
1.3579781
-0.042425968
-0.36406195
0.72853136
-0.21015736
0.30568552
0.41350794
-0.29048559
-0.36844885
0.30908164
0.46056995
0.14818062
-0.59700537
0.1127587
-0.24748349
-0.15762483
0.45800188
1.068578
-0.053683925
-0.1763006
0.25779614
-0.14854199
-0.42197421
-0.012399794
0.066097684
0.35206485
-0.22388406
0.33498126
-0.15059507
-0.10095214
0.40504456
0.1622977
0.36593646
-0.1244512
-0.39152893
0.12243366
0.25009581
0.30505982
0.59453464
-0.098236427
0.03641865
-0.27086407
0.43518198
-0.13944298
-0.24289151
0.052577004
0.26190639
0.031125048
0.18552375
-0.11344424
-0.21012799
0.54162532
0.27717125
0.017680818
-0.017951276
-0.20507039
-0.061889548
0.03850311
-0.059722133
0.36732611
0.15042299
0.17697075
0.13300316
0.26038888
-0.40168056
-0.30720145
0.05676325
-0.034238592
0.37119344
0.19150595
-0.12420243
0.11976717
-0.028599257
0.16784365
-0.020339383
-0.003622015
-0.10087497
-0.13961585
0.1004174
0.39689797
0.45807177
0.21964572
0.17873463
-0.019856751
0.010242608
-0.41259137
-0.47907788
0.091174111
0.15767492
0.12724264
0.39815596
-0.18237019
-0.19226415
0.61604327
-0.016667871
0.12965789
0.21061832
-0.1736268
0.19065852
-0.047418032
0.072701849
0.081773609
-0.080307327
-0.034704249
0.27413532
0.2265099
-0.10700465
-0.26333407
0.2943227
-0.0078880452
-0.077238917
-0.13610812
0.056317732
0.11024091
0.460262
0.31198442
-0.035616696
-0.1017197
0.036417674
-0.16375993
0.13967159
0.39152253
0.34253427
0.21300098
0.14188279
0.12571618
0.046705246
-0.1098014
0.74093038
0.41789025
-0.1653688
0.27730009
0.14115815
0.003656181
0.66384709
-0.56758612
-0.045084786
0.0006980222
0.12673667
0.0006952046
-0.12315241
0.18272349
-0.39398846
-0.011026468
-0.25715581
0.0049349554
-0.042734344
-0.2334272
-0.57331932
0.88211852
0.39994311
-0.065294296
0.14754255
-0.0031484487
-0.034720819
0.3162204
-0.65551192
-0.059977002
0.10719145
0.56768709
0.29093379
0.086199246
0.19607116
-0.22875518
0.17315133
0.083267048
0.52203941
0.1382799
-0.14326522
-0.16605352
1.199441
0.21453035
-0.22010657
0.080929257
0.33582178
0.067030363
0.11183571
-0.34478962
-0.15322648
-0.08368627
1.1374019
0.36334991
0.37924096
0.3809936
0.0060855537
0.16076623
-0.39539915
0.11352041
0.112096
-0.29831883
0.11470107
0.94682997
0.39286962
-0.13726875
0.61274171
-0.0087888315
0.25842264
0.23145042
-0.52734017
0.19081225
0.11449906
0.81067652
0.50043678
0.16932487
0.12996879
-0.12475497
0.16607319
-0.51387191
-0.15798736
-0.11345556
-0.28041172
0.10515966
0.88007069
0.73014241
-0.21887304
0.31224647
-0.13577764
0.29944226
0.6419338
-0.29011369
-0.095388018
-0.16241163
0.67715549
0.83478308
0.1995233
0.41916043
0.047888
0.24120691
-0.024704607
0.047789533
-0.020948067
-0.3198545
0.38354054
0.69670719
0.35339791
-0.34786129
-0.37147975
0.070066765
0.10379032
0.45369491
0.13494067
0.24925867
-0.41205904
1.240024
0.23192053
0.25949651
0.28175631
-0.098861679
0.36049905
0.18244359
0.17559783
-0.061578747
-0.56955481
0.2299141
0.33005938
0.16384272
-0.073398046
-0.18924411
-0.46553168
0.094763443
0.31833169
1.7115966
0.31659269
-0.062724769
1.0037882
0.20956393
0.25651443
0.28619653
-0.16714011
-0.26040325
-0.67256558
0.095448017
-0.16995981
-0.096273258
2.1294227
0.081885479
-0.086239308
0.098413318
-0.27752799
-0.29396012
0.22081354
0.30831689
1.3621755
0.38232079
0.65956587
1.0654355
0.37671581
0.48971507
0.27136278
-0.75388134
0.2404488
0.084655285
0.20228863
-0.17417672
0.6826393
2.0267129
-0.65469825
0.10953241
0.13401231
0.32262057
0.31666097
-0.020045402
0.083122849
-0.080766119
-0.14597289
0.62988329
0.86459798
0.71879375
0.30074576
0.45667404
0.38079956
0.70535225
0.85137987
0.2372175
-0.299169
0.1759166
2.2540011
0.010724066
0.055671789
-0.16394322
0.33140108
-0.35082066
-0.14323021
0.17726444
-0.40749413
-0.38331234
0.008191539
0.35112926
0.094036222
-0.12909719
0.10527343
0.86559218
0.28253788
0.075499684
-0.13657443
-0.060768466
-0.13338578
0.10385717
0.22529542
0.12192982
-0.086289763
0.4813838
-0.60709465
0.080382541
0.9341259
-0.25721803
-0.4663125
0.26552919
0.040849358
-0.075253576
-0.1660735
0.20742933
0.30286473
0.019374639
-0.037080448
-0.071263038
-0.027455725
0.41961285
0.18784612
0.46857193
-0.094346538
-0.29147878
1.0144234
-0.45093465
0.21837552
0.86066622
-0.27919647
-0.27998
0.12415212
0.21963544
-0.16228341
-0.068117268
0.27739596
-0.23296702
-0.15468489
-0.010709807
0.35627094
-0.23384607
0.16236874
0.12413754
0.39238706
0.09660773
-0.29399335
0.69312078
-0.45195249
0.039598137
0.44232324
-0.58594096
-0.26489487
0.30912042
0.36052158
0.30425844
0.041991282
0.38000622
-0.016960735
0.21539927
0.034241132
0.027498826
0.18193983
0.21259655
-0.1623002
0.2789616
-0.085192665
0.025516784
0.065912917
-0.092466891
-0.1175321
0.47748867
0.090671211
-0.16659755
0.21262865
0.33470714
0.21936689
0.05219679
0.11643869
-0.052431196
-0.14380023
-0.41586956
-0.11885829
0.17721921
0.28796116
0.059227366
0.26888004
-0.069510832
-0.067495607
-0.022616494
-0.047218412
-0.048147004
0.47464973
-0.09839493
-0.13341032
0.18967301
-0.053440064
0.23131478
-0.18472822
-0.084813952
-0.039876509
-0.22184804
-0.14742354
0.25567716
0.063443452
0.37778383
-0.17402869
0.1369337
0.27253482
0.08812847
0.012364232
-0.089744836
-0.017707106
0.0415802
0.31421915
-0.098939642
-0.16072193
-0.1020652
0.28529423
0.02958538
-0.10095038
0.33129948
0.024029685
0.06662377
0.2753852
-0.18883628
-0.12934272
0.16451792
0.22325966
-0.11013397
0.21271545
0.34944087
0.28275648
-0.035938025
0.062103637
0.36387086
0.14421079
-0.20585756
-0.27838862
-0.019355437
-0.16298179
-0.20308737
0.3084856
0.084239878
0.08475697
0.059229121
-0.10738979
-0.14539042
-0.078073025
0.001715484
0.13999136
0.2646949
0.10943736
0.133506
-0.073874943
-0.038645785
-0.15519178
0.34019157
0.065682456
-0.079973496
0.032940835
0.066210888
0.12483592
0.20327157
-0.075738385
0.06621179
0.14007851
0.248649
0.023886358
0.041445334
0.010959091
0.11405116
0.22956428
0.37947375
0.16129664
0.13034125
0.11305571
-0.10925703
0.28455091
-0.14498241
-0.066283464
-0.028519245
-0.048744909
0.0124719
0.1538225
-0.20024188
-0.067819618
0.1963166
0.17689602
-0.15395829
-0.087443352
0.11588121
0.37692067
0.13576339
0.39293751
-0.11392945
0.092736751
0.25296542
-0.030193955
0.10798368
-0.30930766
-0.20116688
0.41450542
-0.21603857
-0.13123453
0.449992
-0.080346137
0.13558899
-0.049503934
-0.061281253
-0.19182417
-0.054567669
0.25863591
0.030616673
0.14571972
0.47453037
0.075721279
0.060232557
0.070530795
-0.066235743
0.24872813
-0.0024048737
0.016370097
0.11244964
-0.033248253
0.18244359
0.074500032
0.054829862
0.1691148
0.17389999
0.2781423
0.0042883456
0.033246629
-0.056756943
-0.13091961
0.15719697
0.45484886
0.037229702
-0.15531822
0.019530816
-0.1395333
0.055668727
0.2143342
0.48190036
-0.051786125
0.062426168
0.18707815
0.16748527
-0.26771453
-0.24516559
-0.25502151
0.013463705
-0.060969554
0.3509171
0.69123995
0.11722443
-0.075659439
-0.080109507
0.21471269
-0.0065339115
-0.10034353
0.17905526
-0.17759649
-0.27249712
0.38863879
0.43503529
0.11887027
0.065627322
0.69616014
-0.11545403
0.14529705
0.078559883
-0.074549593
-0.176314
0.32828614
0.038672339
-0.13238326
0.36528286
0.56312835
-0.048958395
-0.080503643
0.12854654
0.38227963
0.10451744
0.13097543
-0.010861061
-0.029660558
0.061211545
0.071767651
0.19085257
-0.0020953042
0.052298348
0.078523375
0.038324963
-0.025876319
0.38392845
-0.10154039
0.28022677
0.22938822
-0.045055114
0.16572489
0.19189891
-0.018020792
-0.074581325
0.12599213
-0.16852468
0.017708547
0.32735026
0.044304945
0.031114932
0.15785988
-0.39125329
-0.093891807
0.1246293
0.17254394
-0.12580529
-0.044892106
0.020052349
-0.071317449
0.17628288
0.12858577
0.1038064
0.014542861
-0.011905998
0.091382697
0.25128922
-0.09353058
-0.014993383
0.062003627
0.0016942688
0.035797592
0.48082772
-0.0018430792
0.039723732
-0.061042231
-0.0202772
-0.15192398
-0.046857443
0.054989658
-0.054945949
0.59131914
0.32697472
-0.032524206
-0.016871704
-0.15899575
0.45859247
0.21870364
-0.27102798
-0.3482922
-0.00024681058
-0.12720926
-0.034574226
0.2796171
0.12964858
0.0021874176
0.20049967
0.069546618
-0.34537509
-0.018420139
0.02103477
-0.0086758295
-0.12208839
-0.055138841
0.23458718
0.028975485
-0.029555876
-0.26869515
0.21426563
0.034401756
-0.090512238
-0.06240733
-0.034510035
-0.0086851092
0.78307217
-0.29431516
-0.13760473
0.21086836
0.27595517
-0.024457501
-0.013037601
0.0016282883
0.19226573
0.24193838
0.41396007
-0.11100502
0.20440595
0.3250764
-0.19139476
0.28628802
0.04486559
0.033210281
0.23087171
0.073511302
0.051342569
0.12058805
-0.082234792
-0.020113295
0.031381901
0.023119785
-0.037080333
0.059284244
0.35386798
0.48165452
0.11253291
0.10974995
0.21344453
0.18067807
0.33042446
-0.12074663
0.15286076
-0.089306749
-0.10338714
0.3174741
-0.017288996
-0.12199392
0.24654639
0.13555415
0.3460778
0.083424032
-0.14006269
-0.063254327
0.03344842
0.31247956
0.092272021
0.041638009
0.17137563
0.28158894
0.056993995
0.1612854
0.14733924
0.054630976
-0.03690701
0.041436151
0.087998025
0.0067552738
-0.096386656
0.08508344
0.074857622
0.021231016
-0.12729318
-0.18722035
-0.027082879
-0.20859627
0.14712241
0.041329309
0.14966995
0.032000944
0.091502629
0.11190005
0.047870081
0.12233824
0.14967091
0.070253618
0.16720927
-0.027537216
0.086414143
0.21009803
0.025629686
-0.0018761677
0.028110543
0.094707973
0.11267003
-0.002626783
-0.07150279
0.090169787
0.027065994
-0.1469882
-0.21715584
0.098642305
-0.12051493
-0.16826558
0.010291769
0.01299092
0.34926814
0.35991073
-0.12335245
0.2327956
0.17139633
-0.07913278
-0.18274355
-0.1844492
0.23310579
0.15568881
0.2246446
-0.059672076
0.10186423
0.14280927
0.19233662
0.12314913
0.20781034
0.037533108
0.087885134
0.21944535
0.065248087
-0.004447645
-0.0042337044
0.091528684
-0.016181014
-0.0086569702
0.050279379
0.054801088
-0.070180751
0.035403572
-0.0012428446
-0.072855569
-0.03405324
0.038517378
0.08358033
0.1929404
0.13287844
0.0071906773
0.019935926
-0.076922037
0.36888978
0.20410326
-0.14395843
-0.061399978
-0.042745516
-0.013550452
0.097947545
-0.19998938
-0.020744989
-0.060584545
0.49215502
0.20313327
-0.23871344
-0.10294244
-0.060894489
0.14711259
0.005957569
-0.28418782
0.047010262
-0.10070885
-0.2483502
-0.10568699
0.11377344
0.17003261
0.31934118
0.041724268
0.24795024
0.053880997
0.071829893
-0.20135885
-0.2350298
0.27046502
0.13096096
0.032787386
-0.21235192
0.35642049
0.25998944
0.20588998
-0.28393209
0.23282163
-0.090273857
-0.2271305
0.19335586
-0.021548636
0.14329095
0.20386353
0.12291548
0.11524802
-0.13546398
-0.18166578
0.12217446
-0.023798589
0.089305066
-0.14136501
-0.041496128
-0.38308939
0.39383623
0.14053211
0.15164728
0.020085508
-0.14766127
0.027513515
0.045609098
0.14556459
0.080059029
0.0056857225
-0.042652346
0.21850631
-0.028358582
-0.0070612538
0.23010519
0.095523395
-0.0014348307
-0.012560468
-0.1438615
-0.072306558
-0.38140246
0.49872825
0.1803146
0.22745682
0.077380024
0.12558946
0.25568661
0.20539257
0.079150803
0.1437961
-0.11434758
0.022611475
0.21679586
0.10470431
0.046329703
-0.083742984
0.15566994
-0.043690596
0.13033609
-0.022085151
-0.15819445
-0.34610376
0.03165574
-0.12386622
0.19342603
0.21574058
-0.11511663
0.10134955
0.065010875
-0.14326963
0.39038172
0.16417901
0.230827
-0.12824377
0.037881132
0.29846621
-0.19981195
-0.16680717
0.062194359
0.23689228
0.37048593
-0.060351953
-0.270253
0.26216638
0.045746289
0.11743987
0.13216758
-0.04499175
0.14258535
0.028364647
0.24763481
-0.12580004
-0.058098454
0.15290281
0.12481265
-0.018558815
-0.0037032426
-0.09423393
-0.090659335
-0.030924177
0.12085176
-0.049709007
-0.17825438
-0.25912848
0.43232149
-0.059651811
0.09531226
0.085059933
0.053507403
0.034587491
-0.017097827
-0.012659188
0.028660232
0.27308005
0.32436687
-0.048370425
0.17849128
0.10987727
0.048429061
0.027086951
0.12669145
0.1308983
-0.007530157
0.092301168
-0.075628377
0.28222287
0.066900641
0.053498708
0.077714697
-0.080463469
-0.072106577
-0.035309333
0.4411605
-0.036863178
-0.10655648
0.047584753
0.14598311
-0.025286101
-0.0023815662
0.096553959
-0.13213518
-0.075031057
0.12031516
-0.148412
-0.13318947
-0.052566897
0.083969548
0.12524045
-0.014096006
-0.08392904
-0.061343703
-0.0048908135
-0.067720346
-0.018372217
0.17783248
0.24110535
0.22980613
0.2360674
0.10992541
0.19101012
0.11219525
-0.13652293
-0.065254681
0.070095673
0.21675298
0.098700888
0.055345736
0.12276165
0.13037872
0.15502542
0.22331397
-0.035956811
0.13648807
0.16895151
0.069220513
0.15101781
0.019709591
-0.034429468
0.26244122
-0.044324424
0.02392447
0.26068282
-0.084621459
-0.0062891031
0.033116046
0.086868733
-0.01673286
0.092825502
0.0067701652
-0.32342574
-0.010254521
0.32991445
-0.57174826
-0.023202237
0.29303476
0.66755778
0.033273593
-0.045809019
0.13823472
0.063510537
-0.10390733
0.14900261
-0.066506393
-0.05885528
0.28796712
-0.081132635
-0.043018609
0.15041953
-0.14193174
-0.199902
0.0058832197
0.059415847
0.23696035
-0.30456376
0.30025998
0.35614425
0.28503299
0.34514487
0.01878779
0.17101566
-0.018691503
0.1908195
-0.2315852
0.10765602
-0.092321493
0.29631564
-0.039257392
-0.20136769
0.020216051
0.033178594
0.092775136
-0.036874808
0.077542491
-0.14953642
-0.31340349
0.30693328
0.35102952
0.28883895
0.40290111
0.082632549
0.2031785
-0.18894558
0.22551633
-0.12959088
0.31917799
0.1905982
0.1699568
-0.098001085
-0.28973415
-0.0026710862
-0.032068651
-0.044764195
0.22308837
-0.0066687455
0.21675132
-0.019854745
0.31254959
0.18926395
0.24907131
-0.13455829
0.073340215
-0.12207018
-0.0069920975
0.16929397
-0.28842565
0.31202951
-0.22079629
-0.26938677
-0.13909589
-0.09143991
-0.085263893
-0.22399446
0.25552678
0.51275718
0.094662018
0.27749699
-0.2912564
0.07627748
0.05089077
0.078138947
0.0060779336
0.11711186
-0.25598907
0.055647593
-0.022103766
-0.063665345
0.028053872
-0.26764047
0.19857414
0.19913308
0.40724891
0.084775351
-0.33559915
0.58954054
-0.16187474
-0.0614646
0.37807351
-0.079543091
-0.44416323
-0.21800812
-0.61848664
-0.078332752
0.91438228
-0.19420059
-0.7048949
-0.010823402
0.037043601
0.0099029923
-0.0068764663
0.29222116
0.43977514
-0.014829472
0.54088473
-0.66904145
0.87458372
0.479624
-0.2818118
-0.7285766
-0.2883594
-0.092691079
-0.30982786
-0.52786374
0.40543649
0.86103904
-0.039719813
-0.57674348
0.50479847
-0.067563087
-1.2798173
-0.16724315
-0.039010856
0.86856228
0.16670425
0.62106067
-1.9439331
0.48126662
0.28681612
0.28047395
-0.27200499
-0.27865699
-0.015854277
-0.273727
0.29993576
0.18476662
1.25264
-0.22718732
-0.081243925
0.1465902
-0.32268572
-2.6620841
-0.25982958
-0.067796767
0.079380624
-0.40036213
0.96628594
-1.8089168
0.43964934
-0.3337194
0.57011884
-0.10119448
-0.43549564
0.35995907
0.014801444
-0.74138075
0.14816131
0.57499009
0.22155914
-0.019631118
0.44257775
-0.27708104
-0.62076521
0.38676
0.72950244
0.23576187
-0.55715257
0.25631604
-2.0158026
0.43664131
-0.13518344
0.37998128
-0.27110726
0.29128388
-0.18131892
-0.42966112
0.46975279
0.41364601
0.70545959
0.96417522
-0.26147264
0.22604105
0.29905784
-1.2641379
0.26354715
0.18215428
0.29364389
-0.11836749
-0.22432472
0.13101001
0.071829788
-0.57995582
0.099267513
-0.23143215
0.10052326
-0.46380654
-0.11330987
0.64626139
0.26307115
0.14085402
0.84608531
0.056730468
0.073376432
0.2815333
-0.68142295
-0.019604877
-0.14135081
-0.074992441
0.1662744
-0.44003725
-0.40387687
-0.2270713
-0.20617408
0.13638127
0.14179648
0.29272625
-0.21516392
-0.48115236
0.12488022
0.0048695817
0.29529062
0.039118018
-0.057650197
0.13810544
-0.13970475
-0.018388953
-0.089070462
-0.031307667
0.18982187
-0.088118762
-0.24848506
-0.37553734
-0.32847238
-0.17033359
-0.0012810274
0.29946986
0.094013073
0.1558976
-0.010271484
-0.51387912
0.18233243
0.014855122
0.30778521
0.18724309
0.13174032
-0.24455756
0.11357635
0.028502049
0.23892052
0.14218667
-0.045879174
-0.43484524
-0.77280807
0.26313275
-0.33402503
-0.094698504
-0.035898987
0.021167163
0.10197955
0.025592759
0.15846597
0.35927108
0.094590515
0.40503734
0.30368778
0.060216282
0.099744074
0.17938514
0.054229651
-0.25779665
0.22661453
0.072937034
-0.10587355
0.11196221
-0.074730776
-0.15407267
-0.086857796
-0.13350856
-0.12521349
-0.14922705
-0.027066374
0.56298608
0.37777343
0.0046101427
0.26577231
0.0089897849
0.047054518
0.075268239
-0.10093676
-0.18684371
-0.18105869
0.18617237
-0.13697171
-0.19916245
0.11766799
0.053171445
0.078426197
0.034080546
0.061595954
0.1294654
0.047475275
0.049413778
0.11247309
0.075208485
0.052561127
0.058358848
0.049777102
0.015581487
0.050819911
0.084194489
0.049893599
0.060639277
0.13510151
0.051608201
0.050537985
0.047241919
0.013800649
0.041791938
0.052271347
0.07116881
0.093542308
0.032108471
0.050279252
0.1140644
0.060281914
0.033732634
0.082528591
0.04127482
0.046387125
0.12636636
0.097735912
0.03442483
0.049681645
0.12189715
0.079106592
0.063532397
0.014781401
-0.014235378
0.10673061
0.028216586
0.046214778
0.087046504
0.082205608
0.031594925
0.054371439
0.0048582894
0.10374245
0.11783288
0.057648141
0.07457497
0.10400206
0.10366131
0.045575865
0.024184078
0.095532179
0.086906701
0.038494829
-0.012086711
-0.010460777
0.088749394
-0.0042101578
0.030276885
0.12993243
0.038776424
0.047909923
0.1139663
0.038222045
0.048547044
0.038779702
0.0876498
0.065173924
0.10690042
0.12366895
0.021954019
0.051571671
0.090336338
0.099409692
0.04973045
-0.049616389
-0.054541364
0.049688995
0.069830097
0.020504519
0.09551537
0.087595552
0.032173928
0.12827413
0.021323062
0.11734786
0.038382497
0.076268166
0.094618388
0.034632336
0.013803381
-0.0054941126
0.007326317
0.12300302
0.058261063
0.10146715
-0.054531693
0.0098053813
0.1098974
0.040959265
-0.032225359
0.069701016
0.035363171
-0.02933435
0.10544287
0.023715938
0.11856771
0.042413905
0.05021359
0.045654822
0.079060942
0.020262584
0.0026233897
0.024428736
0.096935578
0.052606184
0.095134124
-0.13886362
0.042377032
0.085357465
0.01704648
-0.059642818
0.059997283
0.082336649
0.02887802
0.047415785
0.038823601
0.10141431
-0.065625086
0.11745638
0.097815745
0.00070992945
-0.0086071715
0.080537334
0.040426277
0.14699897
0.064613767
0.10148287
-0.33650741
0.065690733
0.059064876
-0.015304859
-0.044807248
0.11111574
0.01043014
0.068554744
-0.044228077
0.032692451
0.185651
-0.035526242
0.028704228
0.058221634
0.082795776
-0.056868039
0.067245394
0.0058926409
0.13311847
0.046302572
0.15622264
-0.32692415
0.10261191
0.062732257
0.082828008
0.068694293
0.085870944
0.071285859
0.13425966
-0.0029335718
0.069264345
0.10593767
0.038923278
0.11332145
0.022843162
-0.003166883
-0.12020972
0.044099361
0.065237217
0.10221208
0.035970166
0.11361499
-0.36787632
0.017904261
0.03476749
0.05018935
0.099512048
0.09638653
0.084315151
0.030903013
0.046294287
0.0024142864
0.16119373
0.053011622
0.033593174
0.025342224
0.10466146
-0.036486115
0.042625912
0.030390803
0.15292814
0.083996288
0.11032528
-0.09292084
0.017419938
0.056602735
0.058455039
0.1328738
0.036191259
0.12403532
0.086599901
0.020707501
0.046839938
0.1283188
0.062298574
0.076247692
0.062782072
0.040480655
-0.057964876
0.012045591
0.045180488
0.11011988
0.055242859
0.073204234
-0.11652376
0.00031626766
0.064192772
0.049459241
0.052445695
0.11943407
0.055375956
0.026646297
0.070620053
0.057999391
0.057499692
0.092674874
0.087795757
0.044292212
0.056560509
0.064365447
0.031518362
0.080195479
0.064939536
0.06534221
0.049819034
-0.06221788
0.0425818
0.0556533
0.063146979
0.11793168
0.061892506
0.065675825
0.038766697
0.14173609
0.056085598
0.086576
0.068123087
0.082256496
0.077154331
0.091491252
0.044467829
-0.0050819218
0.010308067
0.1181896
0.055493519
0.023866842
-0.025097268
-0.035489641
0.083562501
0.064284496
0.062710695
0.044286683
0.04909078
0.010396541
0.084481999
0.0678619
0.098722339
0.097944856
0.10803801
0.019645231
0.089026503
0.047900144
0.040027302
0.063068464
0.12272166
0.096930772
0.08366096
-0.0025355006
-0.017938817
0.10918377
0.063883819
0.096385866
0.046603877
0.07406234
0.11191689
0.077017516
0.097931884
0.027565461
0.044525649
0.15951861
-0.021015355
0.050542224
0.10520539
0.050961293
0.068950884
0.096349269
0.11022923
0.0018864771
0.029290989
0.1170393
-0.15548125
0.034767233
0.075867429
0.14942516
-0.4348956
-0.46604005
0.38494015
0.046331149
0.19823989
-0.19381662
-0.35219622
0.059980899
0.24409395
0.094813243
-0.17031589
-0.35419133
0.11668351
-0.10053642
0.040331975
-0.11888451
0.21137866
-0.015243719
0.11492711
-0.21675906
0.25725067
-0.22671533
-0.45440489
0.63384211
0.059078708
0.34379184
0.047091845
-0.074185513
0.18096264
-0.066910177
-0.12984413
-0.19345739
-0.41163099
0.42594555
0.068441711
0.22397125
0.28292537
-0.36370006
0.13179195
0.3650713
-0.14484793
0.56729144
-0.35828477
-0.6231131
0.3457768
0.081888922
0.11126143
-0.061251126
-0.076573908
0.086998187
-0.0094644707
-0.3862958
0.036297649
0.39704829
0.3675667
-0.12734339
-0.08451511
-0.13065159
0.20541859
-0.47705239
0.47112158
0.30102423
0.24851134
-0.23791358
-0.33555958
0.52745742
-0.088704325
-0.028500484
0.15470824
-0.49306977
-0.047788747
-0.14960541
0.33528444
-0.076499902
0.085019067
-0.086446479
-0.35175672
-0.16302527
0.032858524
0.41824162
-0.27921262
-0.11731719
-0.3935861
-0.0067255273
-0.28115469
-0.44903952
0.6207099
0.29378706
0.38920644
0.17960165
-0.43599433
0.25748885
0.088244416
0.3622357
-0.058145694
0.15134437
0.37028274
0.15539737
0.36885208
0.10669909
-0.25833136
-0.60621649
0.43435439
0.5508554
-0.012100125
-0.48420292
-0.047269352
0.50867927
0.45398372
0.15521312
0.19711819
-0.70924985
-0.10323431
-0.064071395
-0.059051923
-0.089687102
-0.095023483
-0.17431092
-0.023251932
-0.093407631
-0.033419002
0.019275414
0.21806373
-0.076233692
-0.0080515658
0.25985056
0.018833349
0.098031074
-0.88559359
0.21626522
-0.092547111
0.34104335
0.25877839
0.015052901
-0.1940413
1.1488992
-0.66345376
0.16344407
0.38073573
-0.12895283
-0.14182195
0.40486947
1.2835472
-0.02530328
-0.042376883
0.013355243
0.23858814
-0.085594684
0.33623412
0.36748493
0.022581756
-0.32927239
0.40228465
0.11218461
-0.11459035
0.24734388
0.80885363
0.29828888
-0.1570067
0.35669875
0.36952218
-0.47718662
0.35571787
0.30202407
0.12260287
0.083174549
0.093411721
0.37423396
0.19885689
-0.10839166
0.1611658
0.47275475
0.080412872
0.43548918
0.6739248
0.35330766
-0.046169695
0.13815057
0.09223143
-0.18571834
0.013598048
0.077741012
-0.19500561
0.38576871
0.25906584
0.44514072
0.19816475
-0.14980838
0.25881848
-0.049411085
-0.2782703
0.084271871
-0.015765715
0.28825465
0.46267489
0.35800332
0.32412675
0.14748655
-0.52142978
-0.13578632
-0.035988405
-0.033728659
-0.20215462
-0.15614247
-0.12283207
0.028588317
-0.0038144966
0.10091747
-0.13799155
0.17164624
-0.077285893
-0.013059121
0.23134784
0.31302118
0.013848099
0.53426659
-0.030554689
0.34504864
0.18334965
-0.1658126
-0.16992268
-0.056211296
0.04010573
-0.2424947
-0.32914561
-0.034923047
0.70967257
-0.13705498
0.047118519
-0.14830984
-0.11867736
-0.1100618
-0.1563309
1.2463474
0.14448561
-0.27403763
-0.19910669
0.057542525
-0.24872172
-0.26396081
0.30187562
-0.087378643
0.024343682
-0.17037955
-0.23112123
-0.13422169
-0.22496364
-0.14729737
-0.1558705
0.057110041
0.17165565
-0.097814731
-0.15353446
-0.03661425
-0.091322325
0.12184225
0.29149345
-0.024636375
-0.082759932
-0.088546053
-0.15093884
0.41638672
-0.18276331
0.047275588
0.23306628
-0.067024425
-0.12679258
-0.004466258
0.03999012
-0.028623093
0.20941639
0.29603711
-0.040915374
0.035777826
0.12073363
-0.38160482
0.015521734
0.067558646
-0.14817789
0.042485915
-0.17373265
0.097429901
0.65304542
-0.12639736
0.21505298
0.21411701
0.090039082
-0.097476251
-0.069638997
-0.010697735
0.015698083
0.04500955
0.087878704
-0.17785738
-0.2295326
-0.082531869
-0.12445813
-0.040215105
0.077056527
-0.073030986
0.22400831
-0.025875472
0.048026584
0.72034985
-0.17554271
0.22218931
0.14290017
0.016627494
-0.031259328
-0.016760506
0.40315834
0.24569866
-0.095073879
0.43741852
0.165517
0.22191618
0.44902909
-0.33281329
-0.042420834
-0.063341759
0.006631217
0.27504677
-0.066121243
-0.052900903
0.086556025
-0.02812404
-0.024810685
-0.0470029
-0.14059788
-0.084013507
-0.43750432
0.46924961
0.22074777
0.17575733
0.3198061
0.22023226
0.45172325
0.42147207
-0.036782909
0.12753257
-0.12874065
0.023706429
0.3163259
0.10935401
0.12656797
0.017306741
0.24460486
0.20386347
0.16045424
-0.030151796
-0.1166799
-0.18463056
0.3720068
0.15866001
-0.15005711
-0.22165975
0.3641884
-0.00070584263
-0.12389579
-0.2928212
0.20642197
0.45557135
0.4588916
0.062312145
0.31794485
0.28344369
-0.13870251
-0.22636493
-0.010325913
0.23351204
0.30112854
0.34661588
-0.04052414
0.18141308
0.1267349
0.095859125
-0.067421883
0.41179171
-0.11487083
-0.21231639
-0.1638128
-0.11846368
0.45541644
0.3817884
-0.10461742
0.24638197
0.28798547
-0.22507326
-0.098339505
-0.2339621
0.22199869
0.19638847
0.17157559
-0.037599903
0.29418895
0.33104211
0.30084866
0.22806169
-0.099955752
0.074379951
-0.070456311
0.31541389
0.034168851
0.012744703
0.11493589
0.22069322
-0.033967149
-0.069947697
0.012443655
-0.074089147
0.093638487
0.14035237
0.045418657
-0.11471279
-0.0018895542
0.21788155
0.085180841
0.32525608
0.49906656
0.073385656
-0.070362747
-0.19666475
-0.1010553
0.24275738
0.023434265
0.095257998
0.0014240033
0.050264992
0.083029889
0.031337328
-0.12217228
0.063186526
0.27750534
0.20300835
-0.17919719
-0.21791852
-0.17478676
-0.21560089
-0.012298591
0.064984553
-0.10018521
-0.23462211
-0.096603006
-0.77424985
-0.047652896
0.71594465
0.59079778
-0.10087276
0.28538465
0.090144269
0.15805979
-0.36488944
-0.09163186
0.18464468
0.19554341
0.42279637
-0.26671088
0.58223927
0.16252029
0.29096508
-0.012885639
0.14050727
0.17302044
0.085070491
-0.3989498
0.067540936
0.10143302
0.7235502
0.23634815
0.32368597
0.29667097
-0.021157188
0.082226984
-0.014743514
0.032395013
0.12930076
-0.20140269
-0.29087803
0.82419026
0.028663022
0.22928108
-0.017106937
0.27142
0.18672176
0.08499328
0.3583566
0.044423077
-0.13445142
0.10863104
0.39935914
0.11641388
-0.015093061
0.033961814
0.23945798
0.16985781
0.22095548
0.006226988
-0.076775551
-0.30170849
0.38244554
0.21061304
0.26081133
0.057358969
0.12915814
0.20162705
0.0098863281
0.28778356
0.14422846
0.21745831
0.08430364
0.47348559
0.13904947
-0.050123822
-0.4854342
-0.055684112
0.27167282
0.1742522
0.038140953
0.21431382
-0.26218024
-0.31187159
-0.010256024
0.44260526
0.22992556
0.14909463
0.10851099
-0.074041963
-0.68148428
0.040292073
0.31074923
0.47561595
0.23633301
0.24773414
0.13528749
0.10755219
-0.050081126
0.048398469
0.065403782
0.066105552
-0.20425354
-0.16021127
0.17902696
0.0557229
0.12449935
0.10974056
-0.073991537
0.10129247
-0.10591543
0.02700492
0.055150736
-0.095251262
0.10562184
0.14676872
0.022908041
-0.072838634
0.8327319
-0.067638628
0.12202283
-0.022845067
-0.21858458
-0.28242478
0.0062606502
0.13879734
-0.25222534
0.24162839
0.12821919
-0.035778131
-0.10481181
-0.16518682
0.68915361
0.11459124
0.028276265
-0.09089049
-0.095373884
0.012903656
0.16328019
-0.12834454
-0.069404259
-0.19437411
0.22819071
0.082492463
-0.14032003
-0.13651232
0.012585386
-0.12035307
-0.091511734
0.18669778
0.0020257737
-0.18955843
-0.16010392
-0.22327223
-0.071997114
0.36466804
0.23180379
0.091703683
0.095539831
0.31120801
0.37888554
-0.091173783
-0.070298024
-0.06252218
0.03194261
0.045357242
0.021677101
-0.11842619
0.10169064
0.15971291
0.38635901
-0.13883679
0.29485279
0.28811023
-0.18627439
0.084680378
-0.00077166024
0.040874816
0.34345302
0.10456713
0.068373784
0.33345389
0.049266115
0.30633134
0.3084729
0.034753814
-0.079720989
0.14484492
0.25211343
0.19807851
-0.096209697
0.12119387
-0.0042802244
-0.071828522
0.056516543
-0.13116212
0.067539938
0.078912206
0.42285708
-0.11643023
-0.063091464
0.080463827
0.15715858
-0.18223384
-0.12357736
0.095074557
-0.25797316
-0.095642231
-0.47763589
0.17351545
0.5473417
-0.2359153
-0.0065051173
-0.0092205973
-0.20538044
0.19143657
0.035093676
-0.12276644
0.18940914
0.019339235
0.4280332
-0.3368488
-0.061350469
-0.22444795
0.063359201
-0.096151643
0.29339683
-0.093243219
0.19638439
-0.34191516
0.75032252
0.33000851
0.00048279288
-0.10567388
0.5558781
-0.094839282
0.63847405
-0.29826608
-0.17998888
-0.0015394188
0.29593185
-0.046557993
-0.25959042
0.23250605
0.12446919
0.41725951
-0.1721572
0.13833819
-0.096368544
-0.18095316
-0.4459748
0.73588634
0.32950422
0.17488843
0.43559048
0.19433667
0.31740481
-0.035582487
-0.58896673
0.096834213
0.32844275
0.30750877
0.071479805
-0.23204447
-0.18829453
-0.041156691
-0.54578382
-0.73977244
0.27808207
0.00074548752
0.28732315
-0.26776499
0.70712394
0.35075387
0.59454322
0.99143142
0.060265813
-0.12934312
-0.35937601
-0.84484243
-0.061195776
0.014680186
0.60965818
0.29424343
-0.22603849
0.24570341
0.058809541
-0.26373953
-0.63694721
0.11933436
-0.23641685
-0.39297774
-0.37058079
0.55737948
0.11195336
-0.15260264
0.11764162
-0.36144137
0.18080895
0.20898229
-0.15043792
0.036161914
-0.10863052
0.79101855
0.36928821
-0.29803741
0.2692605
0.36972845
0.38454702
0.067976967
-0.20211153
-0.13699339
-0.27360436
-0.4327777
-0.074016146
0.16734108
0.68709427
1.425221
0.26317906
0.46467966
0.018320624
1.6140574
-0.17488688
-0.01108647
0.16256277
0.60206985
-0.30305544
0.26686099
-0.16465867
0.16602001
0.46772891
-0.078294575
-0.085700467
0.0744555
2.1330211
0.15126728
0.19835286
-0.085436337
0.10762021
0.83689195
0.41925338
0.56283021
1.8062514
0.29194486
0.27044979
0.23453002
0.67235315
-0.37968022
-0.043874137
-0.92762899
-0.52044064
-0.48250929
-0.2481422
0.058993194
0.77270377
1.9861394
-0.31125349
0.7326144
-0.51786155
0.7241993
0.19994839
0.46227774
0.30834854
0.34861523
0.20142598
0.42325237
-0.29466236
1.0071917
-0.1962426
-0.37261403
0.79886657
-0.33029979
-0.0091861868
0.23415145
-0.0027654818
0.8442902
1.951182
-0.89231777
0.032918129
-0.40190926
-0.25626135
0.019936442
-0.020104408
0.29440475
-0.35251418
0.41407531
0.40782899
0.063266724
-0.068384759
-0.13446547
-0.2287823
0.12097174
-0.42643246
0.096753277
0.21321876
-0.065521747
0.99311996
-0.13729504
-0.93937689
0.46304232
-0.26425013
-1.280306
0.59594643
-0.42772463
-0.037440147
-0.38418069
0.22650765
0.56881982
-0.29789221
0.24987318
-0.36664599
-0.25087139
0.25541127
-0.43221882
-0.11712814
-0.25770032
0.73128134
1.2260058
-0.45953599
-0.13113531
0.82834679
-0.15890439
-0.90507579
-0.23180698
-0.23771796
-0.42494133
0.085133754
0.36519247
0.77421916
-0.021766268
0.012393184
0.01176599
0.088734135
-0.12951756
0.075151749
0.2943992
0.17388031
0.1768363
0.95866108
-0.25536856
-0.70306033
-0.16028087
-0.37490922
-0.47125247
0.56768703
-0.056826368
-0.37742999
0.39361012
-0.11742156
0.46023569
-0.25786129
-0.048071574
-0.010259651
0.15049087
0.013172506
-0.036677036
-0.11241166
-0.14306343
-0.13664377
0.89051735
-0.14877653
-0.34516314
-0.053585123
-0.27238783
0.043427747
0.23811361
-0.32886654
-0.21084101
0.53676534
0.25209811
0.42189023
-0.42539051
-0.10126958
-0.021932857
0.061077233
0.1200759
0.49891093
-0.094772592
0.05148891
0.079055466
0.60187703
-0.25401291
-0.40123767
0.2350544
-0.25708494
0.073677033
0.29016304
-0.28736529
-0.33743384
0.46211395
0.54816586
0.25266564
-0.6146667
-0.30581263
-0.26095942
-0.080106325
0.097191937
0.18200997
0.25690508
-0.07493525
-0.15589961
0.30170953
-0.38918865
-0.053190406
-0.08245454
-0.1131249
0.23438567
0.23506431
0.084771015
0.31720829
0.50590634
0.21388863
0.079128094
0.36319798
0.026029302
0.093332395
0.12264682
-0.11934987
-0.084183104
-0.023374937
0.18168435
0.00094981049
0.12202755
0.32914591
-0.37180609
0.18304545
0.13134749
0.1809826
0.37427112
-0.03484007
0.17132127
0.21048327
0.0686104
-0.28164193
-0.30649117
0.1778065
-0.26353064
-0.061844379
0.60310078
0.056816615
0.10843243
0.037901871
-0.03403306
-0.26306424
-0.032061759
-0.15278207
-0.29149622
-0.042097759
0.085289203
-0.081070237
-0.19787215
-0.39069706
0.71359068
-0.17245787
0.49238116
0.11221856
-0.24685709
0.29807615
0.31351358
-0.2808733
-0.050426211
-0.14897767
0.2058347
0.11898606
0.49014521
-0.16671304
-0.28618801
0.3891806
-0.42194605
-0.29341269
-0.21964042
0.17360294
0.31337249
-0.11515396
0.051938776
0.025911415
-0.28648674
0.6321243
-0.12443168
0.12715773
0.27950123
0.042964976
0.62144613
0.45227143
0.33985072
0.26877373
-0.48608974
-0.17687473
-0.15674175
-0.12497021
-0.10035931
0.16783355
-0.25087395
-0.15436596
0.16370773
-0.16909871
0.50555623
0.08080858
-0.03884891
0.1830264
0.070531338
0.0017561648
-0.26611462
-0.25269395
0.39654252
-0.083135433
0.43899316
-0.057050396
-0.20621341
0.35878307
0.43363574
0.12758215
0.53920329
0.24611422
0.35717413
0.28304666
0.33482063
0.35213491
-0.27729413
0.092942096
-0.15176639
-0.0037929092
-0.77597272
0.20949349
-0.0019714138
-0.19233833
0.35641807
0.26628178
-0.35054514
0.033991367
0.15152563
-0.41323316
-0.44060114
0.021970615
0.18028009
0.12208407
0.98953968
-0.2689144
0.031680964
-0.2014533
0.021922152
0.14245227
0.31773257
-0.70068288
-0.093356729
-0.89396763
0.16079848
0.02932266
0.098181948
-0.74970192
0.127903
0.44790477
0.089604959
-0.11467262
0.15487184
0.48946393
0.28377098
-0.36621511
0.3227509
0.41778874
-0.52271557
0.47858682
0.026053566
-0.01217322
-0.49334893
0.62300003
0.50446165
0.69437307
0.10475356
0.55246878
-0.73753262
-0.0049566547
0.52796805
0.12158956
-0.25252417
0.097254939
-0.0092681265
-0.15747683
-0.14121743
0.12130325
-0.013172604
-0.20501378
0.33561274
-0.026258055
-0.18858375
0.51384109
0.025644554
0.19681597
-0.40484053
-0.2966986
0.091886953
-0.78171426
-0.029664483
0.07229843
0.17670016
0.058600962
-0.011692973
0.056233998
-0.13757665
-0.14206056
0.016183851
0.33177131
-0.11726418
-0.14412256
0.043140694
-0.12775864
0.545596
0.32089913
0.29496044
0.061222702
-0.10886419
0.19567743
-0.47933516
0.062565945
0.10820862
-0.10800977
0.36844042
-0.36908263
0.0028046723
0.16138157
0.64648443
-0.21260837
-0.17681506
0.07519979
0.28131136
-0.11637153
0.10887205
-0.16570219
0.051998701
0.23782721
0.19163011
-0.17607276
-0.053342622
-0.34441945
-0.093318447
0.30124909
0.24145003
-0.42087203
0.052501664
-0.16302779
-0.39413229
0.40307146
0.058251865
0.25498718
0.24798484
0.17063597
-0.043092437
0.01513244
0.29286113
0.021578833
0.35982722
-0.013145547
0.13179584
0.29853943
0.10365928
-0.31062073
-0.19129585
-0.20188731
0.5106408
-0.30938974
-0.058402695
0.15984249
0.36830729
-0.10992683
0.13299751
-0.021411497
0.049387567
-0.040739462
0.063798562
0.16393313
0.0041822335
0.15087794
0.53493208
-0.072129421
0.17437592
0.070668519
-0.027387589
0.06893789
-0.067378871
-0.31481534
0.01799427
0.035573389
0.033661984
0.19145249
0.13301161
0.24942985
0.25201434
0.19790484
0.0049053407
0.20004255
0.15918966
-0.028761214
0.12911227
0.26681519
0.24287567
0.36057788
0.071788743
0.040778484
0.33927521
-0.31391945
0.1815002
0.17808987
0.036653779
0.2119265
0.13513884
0.086486176
0.012412461
-0.11426187
0.24369337
-0.27883852
0.026868798
0.56837982
0.026996695
0.18204661
0.078391552
0.092534959
0.10355202
0.25969389
-0.2995519
0.001900212
-0.046397474
0.08898247
0.054881766
0.039168354
-0.29472667
0.67286885
0.33548024
0.041502681
-0.32475087
0.11050058
-0.14762478
0.046705045
0.333655
0.078587927
-0.042707492
-0.13763921
0.20739056
0.19053847
0.5134843
-0.47461864
-0.010445059
0.12639536
0.17331629
-0.24887325
0.051225804
-0.062717423
0.62773556
-0.13302711
0.36107564
-0.41358411
0.23481828
-0.016034415
0.13920054
0.16466154
0.025561737
0.17359838
0.027073516
0.15133572
0.67321581
0.56073856
-0.54138088
-0.015397298
0.14870919
-0.18148331
0.19098608
-0.20279418
-0.20273733
0.35246164
-0.0070376527
0.58343953
0.026748111
0.24148454
0.2214708
0.11015028
-0.1604186
0.15981697
0.5732401
-0.074971102
0.11918987
0.84632421
0.40477258
-0.49939924
0.039685346
-0.408755
-0.44988143
0.2619518
0.17638284
0.1782705
0.13493769
0.29071152
0.47961459
-0.014174906
-0.027879152
0.19734016
-0.19489241
-0.23191278
-0.01787778
0.073089302
-0.018788656
0.065368198
0.73330885
0.10178033
-0.74318236
-0.26898435
-0.44204983
-0.33903113
-0.14230712
0.41535592
0.56407773
-0.058994632
0.0021745551
0.65660715
-0.20096931
0.042787913
0.18411422
-0.078258678
-0.05859239
-0.58775204
-0.026650287
0.25054994
0.052237563
1.2108034
0.29005504
-0.56039143
0.34473935
-0.40174627
-0.50495666
0.23030692
-0.058710556
-0.011705026
0.0031264815
0.31677648
0.5211916
-0.29433858
0.44290057
0.20277779
0.32080725
0.14415672
-0.16861588
0.04381578
-0.15734901
0.25417304
0.81651944
0.43803841
0.019691676
0.59015566
-0.81168377
-0.52157617
0.10111351
0.39454448
0.19478777
-0.53998637
-0.19079149
-0.1629376
-0.015620925
0.31537357
-0.04104919
0.33118084
1.4864095
-0.21509084
-0.0043806834
0.35203302
0.33952993
0.062788621
0.70249385
-0.3071416
0.15748136
-0.15463568
0.60110843
0.46935835
-0.22486298
-0.10441574
0.55806094
0.1553311
0.0034533229
-0.69089723
-0.40585431
-0.39968455
0.1502745
0.42171919
-0.10751627
-0.19945298
-0.34132305
0.012573753
0.26724985
0.76742846
-0.077446282
0.34778941
-0.58168221
-0.74140054
0.15122029
0.1127653
0.062653616
0.94145346
-0.029554371
-0.12520406
-0.21535149
0.1036553
0.095009267
0.1006142
0.59509331
-0.31262231
-0.16633084
-0.10806833
0.30704954
0.61599362
0.70155722
-0.26712519
0.87301195
0.43091601
-0.15282595
0.15781517
-0.10947366
-0.6048981
0.16189703
0.16174704
-0.15293682
-0.60436738
-0.03749584
0.020605143
-0.20309165
0.93758768
0.93509662
0.6183815
0.26720512
0.0058290334
-0.1614892
0.28923887
-0.36106592
-0.099031702
-0.18554647
-0.71859181
0.32795882
-0.19636436
-0.24608283
0.51130104
-0.039970562
-0.22599542
0.13335077
0.0041026869
0.079395257
-0.049550589
0.29094499
-0.41777608
0.098475084
0.20531896
-0.10235719
0.4820253
0.30365548
-0.097038023
0.26813543
0.18322782
0.061715364
0.19470069
-0.1780799
0.097506635
0.79236847
-0.15881975
-0.30583251
-0.32312766
0.18994901
-0.13660006
0.1961343
0.030610401
0.60652471
0.099641465
-0.13528872
0.20823377
0.0021456878
0.12950802
-0.16099292
-0.04596537
-0.13362189
0.47408611
0.30055603
0.06721893
-0.0072009554
0.26040021
-0.074207038
-0.24422336
-0.10105495
-0.38206547
-0.066608056
-0.1353721
0.33826131
0.20471324
0.053091306
0.10757113
-0.18769167
-0.15654826
0.11795895
-0.089526094
0.17723212
-0.089097582
-0.25510114
0.24527474
-0.094138131
-0.22447771
0.38282183
0.22628964
-0.27716377
0.20040794
0.03134127
0.080265492
0.073652633
-0.022317057
0.057139251
-0.041795842
0.19758224
0.13445458
-0.14884014
-0.006365051
0.050279185
0.11968753
-0.13145673
-0.10017528
0.40088332
0.070632838
0.022285793
0.21342355
0.10339767
-0.32301956
0.062960267
-0.039752468
0.11664583
-0.048871011
0.19371945
0.33588135
-0.12506343
0.25840738
-0.0948544
-0.28244951
-0.12198261
0.075319052
0.012067168
0.12964207
0.1118061
0.088641509
0.10796621
0.14481533
-0.041764151
0.073098049
0.29527453
0.26602647
0.11058562
0.19000958
-0.015801132
0.26337841
0.065519631
0.1092705
0.19603144
0.012851082
0.31888807
0.4034358
-0.07888256
0.17475645
0.071661241
-0.034080155
0.1380766
0.1458631
-0.018417047
-0.17851534
0.046336547
0.20989968
0.25753987
0.2438046
0.23633423
-0.031138361
0.28006637
0.053198941
0.01196758
0.016517408
0.0099829147
0.21537201
0.16623987
-0.033753119
0.21350324
-0.24154578
-0.017213205
0.1029594
-0.046024021
0.19992492
-0.19226541
0.072092533
0.15727355
0.23430604
0.11207785
0.13534474
0.16745813
0.19646347
-0.15360312
-0.30812031
-0.086089917
0.017845219
0.11816145
0.15955311
-0.10842022
0.16003968
-0.036284488
0.12833108
0.15330252
0.11230863
-0.035632279
-0.098610923
0.02428339
-0.0042405864
0.055149008
0.20458207
0.0095997574
-0.052853417
0.23670381
-0.24329636
-0.2225022
0.22670436
0.0043565766
0.024360619
0.19348155
0.2143379
0.39621785
-0.10364425
-0.18266852
0.069968902
-0.18645819
-0.20801701
0.22077021
0.14156422
-0.24729109
0.13777138
0.13053004
-0.098856963
0.061817847
0.52498531
0.1875269
0.11739921
-0.12342621
-0.15362008
-0.29595029
0.22964717
0.15875226
0.10657392
-0.30332738
-0.27138674
0.2496388
0.1749974
0.12623423
0.20181105
-0.096277587
-0.27170557
0.022384938
0.20182091
-0.027778789
-0.19620566
1.0323671
0.072527617
-0.080850519
0.067106605
-0.2037129
-0.096918181
0.37682927
-0.14958715
0.045229483
-0.078819394
0.34570095
0.18447839
0.1342968
0.25473067
0.38151264
0.10493989
0.14940503
-0.10046798
0.059034266
-0.14426099
0.19055992
0.26702338
-0.04258889
0.15106882
-0.1945895
0.010506977
0.29560736
0.81377274
-0.35426664
0.14207666
-0.50380331
-0.39635837
0.35225758
-0.067517743
-0.10253761
-0.044601671
0.15698612
-0.0411014
0.25356838
0.14118974
0.203403
0.068072416
0.91329604
-0.42178437
-0.18138283
0.089357115
0.10797892
0.14046997
0.73344678
-0.41883978
0.63851726
0.57970613
0.3494277
0.32044017
0.18939757
-0.30519804
-0.1885099
0.2840479
0.02356129
-0.051317777
0.27347872
0.2124792
-0.03849379
0.89703554
0.60731924
0.69634444
-0.098196395
-0.05663164
-0.15104784
0.82885134
-0.35042617
-0.023775775
-0.34089541
-0.52262795
0.2859154
-0.31439385
-0.11358504
0.05870511
0.18247016
0.079365321
0.26914507
-0.10481334
0.14336202
0.28220505
0.41091612
-0.38630974
-0.24493437
0.42454302
0.26777056
0.31543934
0.55438203
-0.12105814
0.06646473
0.13346034
0.17147857
0.36552784
-0.27884963
0.097389624
0.72811294
0.16839585
-0.019067651
-0.26758447
-0.044795144
-0.13507088
0.044953458
0.017177504
0.438631
-0.11564015
-0.14344129
0.058097977
0.033104621
0.40889496
-0.029109431
0.1126609
0.13306157
0.5299266
0.16087721
0.31167752
0.2762838
0.31326151
0.099875361
-0.079356648
-0.28958392
-0.14597173
-0.084411427
-0.16979654
0.051299341
0.1807887
0.00046777545
0.17486703
0.0079343384
0.087160602
0.15767527
0.11938734
0.25752258
-0.069333568
-0.44288868
0.43522209
-0.099552244
-0.20416977
0.15771325
-0.02477278
0.029656369
0.19165367
0.027867146
0.026617751
0.1209918
0.095591843
0.050935317
0.0098948097
-0.094581239
0.078055605
0.2412011
0.0033539603
-0.12528451
0.18737476
0.067538507
0.16688646
0.049825825
0.04357684
0.16996905
0.15931022
0.19989744
-0.10392724
-0.13550085
0.045405131
0.0082583651
-0.036614917
0.19269812
0.15369628
-0.045095492
0.14847852
0.15051149
-0.020863598
0.035617914
-0.12697387
0.05984161
-0.14106813
0.29552507
0.091804326
0.30581939
0.33566585
0.15302558
-0.20295066
0.0018451521
0.1401279
0.024377404
0.096044175
-0.052115727
0.1375075
0.065458752
-0.10069221
-0.057057228
-0.24930346
0.051243212
0.16201942
-0.023541369
0.013253383
0.11996275
0.05261999
0.10584412
0.01295738
0.053155012
0.19101256
0.14655055
-0.011701988
-0.031654306
0.020009294
-0.035905477
0.080415584
0.082407802
0.09932588
0.043052834
0.14631958
0.14431901
0.027220584
0.010382868
-0.092075892
0.025060957
0.088921018
0.10421437
0.091258965
0.034846615
0.050960563
0.16716978
0.066973798
-0.006518425
-0.073600523
0.035600103
-0.074699551
0.059145849
0.14048432
0.12782767
0.10471806
0.1403023
0.074148849
0.021239644
0.057350598
-0.022227023
-0.016751075
0.1079951
0.003993127
0.21804725
-0.0022835608
-0.065601647
0.2109686
0.022993881
0.038525641
-0.0049073016
-0.011646253
0.027797282
0.13810483
0.052496307
0.15939048
0.15307648
0.10773411
0.054640789
0.013052048
0.031009704
-0.042027976
0.05838659
0.068437666
-0.00041690006
0.16165659
0.060790889
0.043136384
0.12751728
0.017661622
0.014855314
-0.063986309
0.10844799
-0.034876227
0.032472491
0.13442677
0.13633384
0.14892939
0.047123011
0.04253966
0.073395215
0.043293737
-0.037198104
0.059936587
0.080677934
-0.016274516
0.15077694
0.025846694
0.030093528
0.11023861
0.01357707
0.096478708
-0.010938846
0.10672455
0.034176968
0.039937366
0.16899227
0.18339926
0.17333567
-0.062082943
0.010551258
0.17950779
0.03704359
-0.17748766
0.15512557
-0.036550354
-0.12931323
0.21236548
0.11373205
0.028314149
0.012701395
0.042056199
0.060534373
-0.0076892595
0.17722733
0.036092024
0.03055747
0.19557926
0.063221328
0.14074244
-0.023667792
0.070942611
0.16735737
0.099631049
-0.22269355
0.084500618
-0.080474675
0.032366209
0.099582396
0.14277399
0.074774846
0.13623312
0.057080328
0.050756048
0.049420275
0.11461409
0.056931585
0.10684904
0.28645763
0.082208164
0.12829413
0.034153547
0.14120294
0.092261828
0.32257727
-0.21790165
0.15575852
-0.071494535
0.029487235
0.10327855
0.09613502
0.035808306
0.28831312
0.11526392
0.063116163
-0.018135406
0.11676975
0.012145809
-0.014266827
0.2624816
0.064557582
0.038284473
-0.056718588
0.041538097
0.15287785
0.34477329
-0.20680532
0.25812915
-0.074777961
-0.1172151
0.10249434
0.078735732
0.022408232
0.15412469
0.10007162
0.013167772
-0.032358829
0.19274837
0.049885646
0.10676723
0.24794033
0.099548846
0.014800851
0.083406702
0.16262898
0.10981815
0.27087206
-0.1630263
0.27851406
0.048799399
-0.12244155
0.14052215
0.011277232
0.10431334
0.11981257
0.099390887
0.045198534
-0.072150387
0.13869986
0.020592723
-0.053464003
0.17052813
0.2405946
0.035254002
0.11201508
0.032220431
0.089745358
0.14897309
-0.19303082
0.02258602
-0.087146148
-0.16674176
0.16156206
-0.064612322
-0.018026089
0.14297722
0.07976982
0.036331367
0.0051409085
0.0078681568
0.058453605
0.21273325
0.010471045
0.11175601
-0.0086948397
0.21803376
0.26542902
0.13644432
0.10792011
-0.16027674
0.22955681
0.0082423296
0.0255228
0.18465646
0.098785199
0.10393734
-0.038444947
0.15939577
0.05677937
-0.055242669
0.099225454
-0.005679409
0.075799845
0.13799863
0.15377939
0.058195524
0.17487305
0.14484321
0.091063283
0.049809918
-0.10388642
0.014326679
-0.13966171
-0.074761584
0.22701679
0.022241952
-0.026454836
0.11098192
-0.027674634
0.1202402
0.072862752
-0.093174092
0.062763363
0.18401521
-0.044281606
0.056110181
-0.0010539806
0.26232225
0.1539958
0.14905803
0.061814774
-0.14159065
0.19402592
0.0204452
0.012435333
0.13615203
0.07542704
0.1230729
0.042036399
0.16541351
0.014644499
-0.020753413
0.092706814
0.033306923
0.095636718
0.064192481
0.11709718
0.046037119
0.1577051
0.20731668
0.075868428
0.075119443
-0.017959513
-0.084685445
-0.084039137
0.04270792
0.14148146
-0.055488318
-0.03007145
0.12177148
-0.061155628
0.10746104
0.036845475
-0.084251471
0.070277505
0.13455668
0.15834586
0.10183683
-0.018185996
0.14829566
0.084366985
0.12736379
0.079564996
0.53545499
0.089178197
0.28588322
0.12743843
-0.10091431
0.12997518
-0.03233508
-0.24946977
0.010106515
0.068204269
0.16636086
0.1278104
-0.14013232
0.11652126
0.31280157
-0.28646237
-0.13598967
0.27547768
-0.13290989
-0.13643701
-0.39868858
0.95592409
0.12903661
0.17753237
0.33918923
-0.23146527
-0.13553548
0.56684041
-0.30751744
-0.12444519
-0.0870637
0.50538862
0.15951318
0.077522263
0.32458997
0.20168084
-0.14624292
0.026203476
0.27904141
-0.36946335
-0.47072577
-0.59347874
1.2088026
0.14377891
0.53426892
0.91745871
-0.0077553373
-0.10167001
0.03517767
-0.67420965
-0.024222631
0.11038073
0.80696368
-0.35827523
0.060989834
0.17018689
-0.22424307
-0.27618182
0.185306
0.43827951
-0.37916949
-0.34337229
-0.61798406
1.1724368
0.60131556
0.17099372
0.25883362
-0.22753745
-0.03608137
0.081255555
-0.72013557
0.14849497
0.76777434
0.661053
-0.57877064
-0.17652933
-0.021841774
0.021992147
-0.059972946
-0.39568949
0.70435345
-0.20483655
-0.14850812
-0.070330419
1.481535
0.43527541
0.33157688
0.67702836
-0.19951947
1.0498912
0.95073467
-0.70274717
-0.094311647
-0.25132999
0.49954998
0.71614426
-0.5394268
-0.11039259
0.021052064
-0.5138967
-0.0097305961
0.22690241
-0.14240743
-0.31601402
-0.42632627
2.4100852
0.62606031
0.10179509
0.98744971
-0.20011583
0.12688001
1.0981214
-0.78716695
0.025603153
-0.28255376
0.61635464
0.39761364
0.049005613
0.15994965
-0.7320317
-0.6382246
0.13421129
0.67675358
0.25492501
-0.30079931
-1.52083
2.9665208
0.43869787
0.01102621
0.010171046
0.34811375
0.16661373
0.43529755
-0.64657474
0.44198939
0.77785844
1.2123265
-1.0208014
1.0510967
0.80889761
-1.4765061
-0.76256669
-0.87328833
0.90094125
-0.43099743
0.12517007
-0.93628496
1.6835562
1.0512099
0.51233912
-0.40863323
0.2756398
0.40158108
0.44734395
-0.21870354
0.19094478
0.99436569
0.33424023
0.89204669
-0.037770782
-0.23987758
-2.7611141
-0.9277184
-0.88157415
0.80665493
-0.4237031
0.46306017
-1.0140908
2.2311625
0.92826092
0.55526835
1.3439763
-0.051329277
0.42797512
0.4336538
-0.77734202
-0.054524455
-0.32573023
0.25007957
1.5228313
-0.51145792
-0.2336681
-0.21419448
-0.51521546
0.39918372
0.12558833
0.16722101
-0.19682018
-0.83464175
1.8568788
0.56625026
0.51619887
0.11214743
0.50062472
0.51201254
0.24819979
0.0028877691
0.73563147
0.18869014
1.4422746
0.83863789
0.42379728
0.091973022
-1.9753051
-0.93860835
0.22384459
0.57396948
0.16696614
-0.21778554
-0.44214401
0.6944595
-0.47078791
0.17058815
-0.83301187
0.42999625
0.068727188
-0.15715845
1.2853967
0.47283414
0.31412539
1.5406355
-0.31502473
0.47956485
0.24580826
-0.95602399
-0.73679662
-0.29891828
-0.20791334
0.012706622
-0.52294648
-0.082267158
0.29105458
0.034588765
0.13667721
-0.38778734
0.11712898
0.69401664
0.28045985
0.33091959
-0.15592022
0.17677596
0.1789007
0.57868046
0.12921512
0.14810932
-0.45896515
-0.61600393
-0.47339496
-0.0043332963
-0.34448573
-0.10250542
-0.49667072
0.74394071
0.067297854
0.31859753
0.63848776
0.0084034642
0.24003755
0.33044812
-0.13346474
-0.15538292
0.27733403
0.00072799926
0.80265629
-0.26343408
0.17994279
0.049375143
0.10137589
0.11001007
0.26327848
-0.174208
-0.23941295
-0.23170905
0.68759966
-0.060030859
0.47918862
0.10003179
0.12446548
0.14846946
-0.08171735
-0.13507628
0.29315093
0.01294847
0.31129524
0.23951864
-0.10090908
0.12393676
0.072734475
-0.58243972
-0.078024648
0.067331605
-0.18451424
-0.052262034
-0.43887901
-0.034895632
-0.10691082
0.0026070164
-0.22965659
0.018050425
0.094477013
-0.09829849
0.53889936
0.14763018
0.43909284
0.15653421
0.13098
0.072271228
0.15347777
0.15023059
-0.090926155
-0.22049953
-0.11978466
-0.025170796
0.011301405
0.016478769
-0.14455247
0.21740705
0.092505701
0.057344932
-0.15836979
0.13810293
-0.062338375
0.052319262
0.18396388
-0.1120422
0.20952375
0.076376975
0.049294494
0.15666738
0.19497237
-0.0763271
0.057969756
-0.013801843
-0.011991844
-0.26436889
-0.29333383
-0.13354598
0.065212704
0.028447526
0.24189404
-0.27463025
0.12760751
0.23697318
-0.078923211
0.085586987
0.066963956
0.091179617
0.091520227
-0.028917963
-0.027803082
0.1843373
0.011012888
0.08927536
0.17539689
0.16454911
-0.045342933
-0.21542248
0.10352013
0.19031349
-0.011368873
0.24198693
0.16153836
0.1736435
0.051248349
-0.050434023
0.02197624
-0.012768746
-0.05226896
-0.027778029
0.15834035
0.082568973
0.35188335
-0.014622128
-0.0084379353
0.16402407
0.063372523
-0.13054506
-0.23064224
0.28276718
0.041498341
0.057257738
0.341418
0.18700649
0.13341607
0.33420467
0.051173568
0.1057503
0.050698519
0.022927329
-0.14101061
0.14714497
0.18086709
0.15769263
0.25657821
-0.088138156
0.12115408
0.13369229
-0.088151477
-0.24308105
0.068888746
0.41910857
-0.17294148
-0.035379462
0.21011654
0.17850603
-0.19435745
-0.17439519
0.22858784
0.15476647
0.32341406
0.30492088
0.32798287
-0.043608427
0.064564675
-0.13726144
-0.29324484
0.3328734
0.023100639
-0.12207691
-0.028626302
0.33608487
0.55800563
-0.034800258
-0.22829294
0.37802833
0.17644973
-0.13530396
0.092451021
0.09453515
0.076476678
0.23378377
0.49276349
0.1336628
-0.10977017
-0.098678075
0.31692401
0.52579618
0.38290682
0.17865077
0.046991255
-0.055999432
0.42792204
0.08895427
0.12935737
-0.0047834329
0.15615125
-0.44765839
-0.55824351
-0.12577301
0.12084877
-0.037199121
0.26639047
-0.030760728
-0.097992666
0.062384669
0.49462137
0.026491879
0.47449714
-0.019015098
0.11662158
-0.19243778
-0.48761094
1.0478581
-0.25893793
-0.67471433
-0.56100905
0.11122186
0.1875131
0.38873211
-0.085255489
-0.0029637236
-0.25442031
0.3431271
-0.39128661
0.24983251
0.16283558
1.0262603
-0.53115648
-0.83177787
0.31546709
-0.079756886
-0.2038967
-0.51390266
-0.024943678
-0.055116683
-0.27060917
-0.15397018
-0.19864511
0.2604892
1.1229056
-0.64493531
0.57206255
0.60204786
0.014504117
-0.054175101
0.14582337
0.1109127
-0.48925522
-0.62137693
-0.15807907
0.39433765
-0.079896867
0.53140211
-0.51739234
0.53343618
0.12013084
0.37898323
0.78202462
0.27138358
0.39577454
0.43943432
-0.71759295
-0.10842971
0.28909072
0.20761581
0.33509931
-0.091700196
0.13540462
-0.33446273
0.16260314
0.48948967
0.30330908
0.1194711
0.035607807
-0.40138736
0.58531564
0.33645445
-0.030732816
0.21709046
0.41250193
0.50406694
0.022413788
-0.25456783
0.3342374
-0.087019645
0.38909739
0.34617195
0.04455759
-0.065296315
-0.35562629
-0.13199495
0.57107091
0.59725225
0.4420343
-0.11855216
-0.24573451
0.73000515
0.015522346
-0.39302137
-0.45112753
0.17571017
-0.15007406
-0.20526671
1.4303777
-0.28552485
-0.058640864
0.33974078
0.15714501
0.13766098
-0.071077533
-0.65843087
-0.47114837
-0.637909
0.17361778
-0.33970636
-0.13309732
-0.13518327
0.27583542
0.20177987
-0.051456276
-0.36596239
0.40118268
-0.49387372
-0.65419424
0.30403635
-0.02351691
0.72056526
0.60512257
-0.11174457
0.42917663
0.40907881
-0.77165717
-0.24203347
-0.71761131
0.066778913
-0.11811021
0.0011808386
-0.022398865
0.58290887
0.086269259
0.1705848
0.27767968
-0.15831532
0.01132171
0.0084642041
0.34433094
-0.20211726
-0.088938169
0.13762461
0.13074702
-0.0028945142
0.31325898
-0.068093948
-0.10991157
0.0047606397
0.043134857
-0.085251108
-0.19241621
-0.46497378
0.2774139
-0.10295246
-0.078057237
0.20388743
0.23859191
0.080260478
0.22130771
0.18230788
0.36277348
-0.11071642
-0.048722249
0.34939346
-0.042370092
-0.039727174
-0.0041835746
-0.10274168
0.134468
0.25702849
0.16584091
-0.011352481
-0.32695189
0.042691521
0.05431547
0.056071654
0.061401412
0.10155226
0.028393669
0.035834178
0.064841919
0.032854568
0.078547992
0.023342565
0.047028545
0.029443437
0.1008769
0.11717448
0.026232651
0.017857971
0.15519549
0.056045655
0.064987376
-0.029190548
0.025734548
0.018382385
0.03029176
0.077497251
0.068176121
0.012000469
0.036005504
0.074287109
0.058713842
0.081421614
0.048868425
0.023774369
0.018820412
0.078520432
0.061381649
0.05686143
0.061473195
0.11785823
0.108074
0.079764642
-0.051119167
0.012983299
0.036585193
0.028950615
0.067680664
0.10549583
0.0076499293
0.00038537604
0.093458779
0.025895465
0.053647052
0.007589031
0.055515364
0.0034462982
0.071487829
0.1038123
0.061978463
0.040917713
0.10890488
0.055298381
0.059219353
-0.039884437
0.00059214258
0.073575422
0.068423465
0.080339849
0.10554405
