-0.37741727
-0.030498108
0.019580068
0.46286458
0.41715154
-0.28705168
-0.39009571
0.737297
-0.15779705
0.68933737
0.53713101
0.1288587
-0.55672526
0.55300331
0.32882342
-0.50361353
0.18615401
-0.41396338
-0.036744229
0.10815492
-0.065254718
0.028095534
-0.41055608
0.021735819
-0.17399706
-0.38502491
-0.2379515
0.12655474
0.035579525
-0.12080801
0.00041014879
-0.085105307
-0.094199434
0.022473438
-0.085072011
-0.074186966
-0.065088078
-0.0095330542
-0.26030147
0.046581451
-0.89883184
0.17854846
0.12115785
-0.19844428
1.0011278
0.095209382
0.37988284
-0.053271037
-0.16295084
0.55139023
0.15802495
0.29395217
0.7235567
-0.75341624
-0.026367888
-0.033368248
-0.483459
0.70015275
0.14848907
-0.35216394
0.36306369
-0.031938974
-0.13791145
-0.14318298
-0.096970096
-0.11336406
-0.13731003
-0.21102345
-0.082733959
-0.2019747
-0.092716433
0.16436683
-0.18475297
-0.11758931
-0.063224584
-0.24882632
-0.030530794
-0.31566948
-0.271516
-0.016216312
0.16050301
-0.54473615
-0.17559083
0.078669518
0.28021267
-0.92329752
0.45959601
0.18606246
-0.31152621
0.28840739
0.34997472
0.12131384
-0.33575574
-0.18318892
-0.27208385
0.44179189
-0.35366896
-0.33559334
-0.56510156
0.35019609
-0.11569778
1.3010201
0.10725068
-0.26113915
-0.0050609442
-0.068477288
-0.18780969
-0.052425921
-0.086484879
-0.21969864
0.05811898
0.056887198
-0.13297018
-0.28672493
-0.13474047
-0.15091775
-0.40822423
-0.13395528
0.1297151
0.026182162
-0.1864105
-0.18811521
-0.63143981
0.20230128
0.098595314
-0.083873317
0.059402205
0.24102362
-0.19574615
-0.39556018
-0.2689423
-0.13477415
0.50499791
1.0244397
0.278218
-0.4621717
-0.0078732446
0.13441986
-0.68879086
-0.48574975
0.26985222
-0.20216654
0.40920997
-0.12203344
-0.12034336
-0.37666288
-0.23511627
-0.067436546
-0.15292321
-0.13734812
0.052629985
0.0044623422
-0.052485716
0.0023896333
-0.29764396
0.046018437
0.034560245
-0.1084426
-0.05753734
-0.18837506
-0.40681323
-0.092697226
-0.094791621
-0.41752207
-0.19212739
-0.29704654
0.4389821
-0.32762188
0.091121599
0.55852771
-0.39907146
-0.26522025
0.50247192
0.69510227
-0.62039614
-0.37138781
0.049350757
0.32745808
0.31792527
-0.337935
-0.036107875
0.32633895
-0.25714806
0.32814136
0.053795479
-0.10340745
0.026524944
-0.025509344
-0.33228663
-0.53621662
-0.24807334
-0.49781704
-0.40112323
0.27909213
-0.089489028
-0.017104527
0.021113819
0.14234939
0.044992141
-0.051854584
-0.21374483
0.089472175
-0.31621861
0.11707363
-0.49269211
-0.031800572
-0.40120226
0.024142848
-0.55990064
0.18848951
0.41623643
0.26296493
-1.5139644
-0.12465211
-0.25308785
0.19225122
0.17222162
0.36759916
-0.012630121
-0.023720413
0.2435375
0.74792087
-0.030194193
-0.045106463
0.77415371
0.14520603
-0.046596996
-0.28710452
-0.049184036
-0.16912119
0.14506727
0.14170372
-0.63936198
-0.29937816
0.24020432
0.078500569
-0.29119101
0.0079846503
0.036157966
-0.3655358
-0.2611413
-0.34562624
0.059512109
-0.30163497
-0.085154675
-0.41172162
-0.66575402
-0.4348819
-0.29716566
-0.16320689
-0.017302472
0.018248141
0.39619064
0.88022262
-0.27085757
-0.148937
-0.54231161
-0.014357741
0.024444524
-0.55530709
-0.74843699
0.096584
0.49153611
0.27161548
-0.19483152
-0.086098798
-0.03052634
-0.22913143
-0.057396732
-0.16391249
-0.18779238
-0.19619563
-0.0059822332
-0.72053498
-0.23869729
-0.033244479
-0.12411416
-0.23519009
-0.064130954
-0.13079005
-0.37568441
-0.25082496
-0.15719691
-0.15516619
0.36551243
0.018578978
0.23601021
0.46226698
0.26950046
-0.025058642
-0.26985329
-0.087598734
0.62234819
-0.17070271
-0.53860301
-0.18691023
-0.29452497
-0.28987852
-0.35546637
0.27801397
-0.18339042
0.73563004
0.33609849
-0.098011136
0.2793822
0.0053965393
0.56690705
0.010620495
0.014173979
-0.29864612
-0.34208542
-0.30667818
0.1233877
0.093825869
-0.70676285
0.063824721
-0.057338107
0.087479949
-0.22797216
-0.0013933205
0.17827745
-0.94676226
0.045769248
-0.28570911
-0.041652344
0.059945922
-0.086614646
0.001494778
-0.16072132
-0.53890592
0.6867317
-0.74393404
-0.33946043
-0.59735537
0.30992913
-1.2244794
-1.2194382
-0.12926878
-0.19871207
-1.1101531
0.30417144
-0.25524068
-0.32487297
0.45755035
-0.42237684
-0.14103067
0.30313244
0.45152345
0.20869379
-0.45404267
-0.52469939
-0.16118559
-0.28719506
-0.13410483
-0.16131495
0.17738809
0.050239868
-0.39568451
-0.20284361
-0.56038558
-0.16613673
-0.15496026
0.54447496
-0.084630094
-0.071080126
-0.41615003
-0.1586666
-0.1626049
0.2736744
-0.23304495
-0.40503764
0.12606314
-0.51570547
-0.26634803
0.61535114
0.30637905
-0.22305247
0.40602547
-0.45864025
0.19121297
0.30118608
0.48642081
-0.26163137
-0.92398918
0.47782347
0.29200414
0.11738927
0.41569221
-0.20567997
-0.10979585
-0.38534951
-0.40246743
-0.28218037
0.09463042
-0.14149415
-0.34859416
-0.041246258
0.12115622
-0.11955027
0.25035471
0.039947763
0.22517459
-0.0957551
-0.30994946
-0.2846179
-0.25719589
-0.40848801
0.18013237
-0.06125335
-0.34723878
-0.58165413
-0.14317834
0.15109612
0.079770468
0.4357177
0.44703406
0.7857914
-0.25351045
0.15856227
-0.57049245
-0.097291552
-0.36833283
0.13315587
0.052935515
-0.15830167
0.59560776
1.7013049
0.27058929
-0.10047644
-0.11857478
0.043646727
-0.047101621
-0.10720009
-0.26349232
0.19831224
-0.2186961
-0.2524353
-0.14306813
0.091731727
-0.12384194
-0.058019679
0.10366817
-0.078803748
-0.40912214
-0.091806017
-0.27948752
0.014847971
-0.38674128
-0.27964059
-0.21934095
-0.31650645
0.36357778
0.046661917
-0.20064245
0.016393956
-0.055200167
-0.21733287
0.038850386
-0.11977506
-0.50021017
-0.20204079
0.056633241
-0.37338805
-0.042203445
0.30171001
0.19096743
-0.31365988
-0.69994527
-0.046162855
-0.24953529
1.058822
0.14414869
-0.20413831
0.018245539
-0.10585088
-0.45421743
0.0088628484
-0.099890396
-0.067563489
0.11066017
-0.2532118
-0.168054
-0.079142816
-0.18877725
0.099253424
-0.45475513
-0.076331079
-0.19289453
0.034382079
-0.14931011
-0.26187795
-0.47216424
-0.64011914
0.14826587
-0.26012704
0.60716665
0.14998512
0.14832965
0.74271846
0.35369357
0.23114544
-0.13017255
0.034241058
-0.26112321
0.31041762
0.25113943
-0.86495066
0.46651292
0.28026468
0.61416757
-0.10510028
0.10348995
0.15307631
-0.20678206
-0.23552455
-0.24104296
-0.15003012
-0.081922293
-0.054375812
-0.054409478
-0.088101394
-0.15071741
0.04736615
-0.18519324
0.004007082
-0.0017518924
0.071974449
-0.16681582
-0.098909132
-0.35843143
-0.13987218
-0.012145663
-0.78219098
-0.40463519
-0.21274863
-0.15307407
0.48724142
0.13912125
-0.1396699
0.61500573
0.31489471
-0.3087965
0.6280055
0.16125639
-0.17545192
-0.29591176
0.27155215
0.32899308
-0.20844238
-0.13827209
0.10968159
-0.49096864
-0.038403526
-0.19936684
-0.078444645
0.08882954
0.071793787
-0.091978118
-0.30468193
-0.087661274
-0.26330173
-0.20042542
-0.12656812
0.038575366
-0.46678013
0.10414539
-0.0017423808
-0.45565423
-0.17865466
0.067038789
0.1649579
-0.053407185
-0.07482098
-0.83954996
-0.24585943
-0.11274569
0.24122483
0.12896849
0.48682973
0.34847891
0.068631269
-0.01041882
0.34056264
0.022257436
0.23314872
-0.16766962
0.16166714
0.20657739
-0.28605703
-0.18240763
-0.47397578
0.26616225
-0.65824002
-0.13600498
-0.0030284952
-0.37595639
-0.22559671
-0.31143564
0.10633587
-0.041202191
-0.27943674
-0.022631243
-0.062521167
0.048764545
0.02975121
-0.028255135
0.047150023
0.03895909
-0.44567883
-0.075722523
0.094302259
-0.035500851
-0.14666139
0.03367753
-1.1322404
0.11349992
-0.13182671
-0.19545898
-0.10574739
0.07490316
0.45479587
-0.25285602
0.39327067
0.41709217
-0.1921321
0.38559723
-0.30044404
-0.073413372
-0.55301452
0.21301778
-0.030098332
0.087061696
-0.2736527
0.00039470205
-0.22881959
-0.11305779
-0.062072992
0.24144749
-0.14014331
-0.15885176
0.0082168803
0.0020347349
-0.23735532
0.20296499
0.096837632
-0.014631995
-0.019712474
0.47619393
0.27168217
-0.062684149
0.015681034
0.14538345
0.16782767
-0.3177135
-0.062763266
-0.27126324
-0.47678366
0.22114854
0.6085602
0.26617113
-0.063466057
0.29681322
0.15462631
0.32270911
-0.65689826
-0.23463923
0.16130757
-0.24835606
0.11794154
-0.41730058
-0.05854686
0.041545685
0.25503626
-0.23481335
-0.36178601
-0.3476263
-0.01298878
-0.085956313
-0.0052061318
-0.29123217
-0.023502424
0.16747774
-0.34208807
0.029503495
0.45791093
0.059187695
0.060205013
-0.082361691
-0.04405123
0.11414782
-0.13645405
0.15973833
-0.018051354
0.051577404
0.31104892
0.0092297569
-0.28578356
-0.13637398
0.11285353
0.47790256
0.22414716
-0.25438714
0.15509996
-0.018647188
-0.067006461
-0.18579383
-0.2272689
-0.15884009
0.03821525
-0.08378996
-0.11775403
0.59205943
-0.22362314
0.35612199
0.17154841
-0.34212592
-0.66343987
0.0015093501
0.11465245
-0.18618129
-0.052283384
-0.087897845
0.048311915
-0.31734625
-0.19575217
0.027579935
-0.085024714
0.064627953
-0.13247442
0.22593586
0.55966109
-0.26206669
0.016436273
0.40928093
0.55706972
-0.27794719
0.12331669
-0.42098674
-0.55032861
0.0056093507
0.81399167
0.16876285
-0.45295075
0.37674153
-0.4026157
0.7351886
0.42780045
-0.26257634
-0.2913532
0.021178354
-0.47783291
-0.14055929
-0.30895981
-0.042065486
0.68249947
-0.38853645
0.31470677
-0.26693028
0.14058796
-0.089851707
-0.041815858
0.27432305
-0.06452807
-0.39959282
0.089707725
-0.34927282
-0.37230393
0.25670746
0.42659131
-0.23756106
-0.068739831
0.51006943
0.30533871
-0.19852914
-0.002154906
0.23459399
0.090379007
0.30382603
-0.6295101
-0.42726776
0.37781203
-0.46166098
-0.16141888
-0.090343565
0.23109697
-0.062773667
0.77606875
-0.13780221
1.3081126
-1.4207277
0.15571269
-0.59777212
-0.41319457
0.14412631
-0.42847607
-0.49737018
0.13278933
0.019259414
0.41375861
0.079309724
-0.0086830556
-0.00062325574
-0.038473148
0.36486191
-0.1189509
0.18413956
-0.14708738
-0.39874148
0.37812859
0.29689157
-0.069821447
0.50453937
0.02184592
0.02039177
-0.11207774
-0.19233167
-0.48020706
0.37240514
0.24529532
-0.77785659
0.69874352
0.27159315
-1.1843051
-0.77791268
-0.48047379
0.62796855
0.49519134
-0.54672033
0.35370949
0.77168083
0.2501016
-0.015490818
-0.29651424
0.074708968
-0.86362255
-0.50688392
-0.41967478
0.38996181
-0.2340132
1.0807734
0.33901042
0.13562834
0.19387034
0.10074899
-0.024715764
0.2188241
0.39758116
-0.18084377
0.042199347
0.38336387
0.13766275
-0.32619938
0.18951625
-0.087879069
-0.50462526
-0.16140236
-0.12485403
-0.12291813
-0.21461347
0.17786311
-0.51838678
1.9237182
0.36988172
-1.2621808
-1.2118429
-0.066349447
0.4003484
0.49967641
-2.474407
-0.13192889
1.8238213
0.18452412
0.39931977
-0.56880867
0.05919604
-0.70596725
-1.0410839
0.19661841
0.3262234
0.19540215
1.3587948
0.15827298
0.13131441
0.28332365
0.15094574
-0.0014454061
0.17214458
0.29384193
-0.48051563
-0.024603534
0.034518268
0.23243241
-0.22640648
-0.054543007
0.016188135
-0.26063523
-0.1580051
-0.26223525
0.77088165
0.079254575
0.24964897
-1.0265976
1.1904056
0.5507983
-0.98288953
-0.14123802
0.11555415
0.60937721
0.38745472
-2.8649058
0.32820857
1.6514477
0.00092716707
0.55455685
-0.45634025
-0.56390858
-2.2122412
-0.34566712
0.25702718
0.078957848
-0.23911873
0.83887827
0.25688255
-0.19358489
-0.21976595
-0.073148228
0.38620403
0.090567023
0.11137051
-0.86924988
0.25551412
0.4088212
0.40568435
-0.11245286
0.26267487
0.49973568
-1.4411826
0.081241995
0.088136941
0.21357702
0.16819142
-0.086845614
-0.0085548293
0.44781238
0.34212285
-0.28409386
0.29396254
0.1901221
1.0031705
-0.28085822
-1.654541
0.19362037
0.31747952
0.042103726
0.0098223845
0.12675902
-0.0059863264
-2.2067454
-0.17688458
0.93596685
-0.099016078
-0.33862093
0.5044201
0.028508872
-0.24357647
-0.11320483
-0.35105142
0.042559478
0.041054249
-0.47428441
0.215371
0.42654431
0.15161137
0.59421265
0.026476394
0.46220574
0.61625636
-1.1501684
-0.00014591504
0.097650342
0.46055907
0.41093671
0.066178426
-1.2164575
-0.063592441
0.58635736
-0.38443592
0.33644921
-0.40561447
-0.57059503
0.010651595
-0.77734566
0.20539069
0.45151639
1.0847764
0.5063262
-0.22542012
0.28100339
-0.0072826087
-0.11655614
0.22038218
0.11891982
-0.45316896
0.35455623
-0.21122016
-0.020989599
-0.30869266
0.19558723
0.096898817
-0.058927484
-0.35483941
-0.4536818
0.024529422
0.24887586
0.6968568
0.059629969
-0.080146134
0.22852476
-0.053635284
-0.05712609
0.033417486
0.43143284
-0.16036169
0.29517588
-0.49029115
0.59100658
-0.62762827
-0.11538319
0.6090467
-0.44868198
-0.095201649
-0.13926284
-0.20067583
-0.2461063
-0.31319118
0.08595559
0.11449539
-0.26743689
0.63487089
-0.60323256
-0.2227246
0.21402265
0.25254953
-0.3976275
0.3770985
-0.047271471
-0.2676062
-0.079658374
-0.17254056
0.15998733
-0.062990546
-0.00023992721
-0.74812382
0.36429456
0.34816083
0.52204466
-0.21967094
0.093828715
0.21846627
0.3214162
-0.046077464
-0.17339024
0.13279545
0.035734221
-0.054402281
-0.14183815
-0.15172972
0.075832285
-0.1190571
0.2619988
-0.031452764
0.03847836
-0.012495468
0.10128584
0.4373731
-0.18009786
0.31186426
0.26475042
0.34995845
0.062941596
-0.16163667
-0.16010711
-0.076347269
0.14443232
-0.28817043
0.19209984
0.28747037
-0.1156337
-0.0086700208
-0.24843808
-0.16777565
0.074755356
-0.25558299
0.083585531
-0.30370575
0.10703434
0.24145228
-0.005798189
0.1271705
0.21160384
-0.054149047
0.14215353
0.026520789
0.2193761
-0.16093716
0.003912962
-0.095896989
-0.25117663
-0.0488686
-0.24090834
-0.08365988
0.12439305
0.37258938
-0.62496972
0.12606379
0.23694167
0.33718565
0.015201503
0.9226914
-0.25800741
0.57152158
0.17227085
0.20357314
0.35557383
0.15073058
-0.34159738
-0.1722883
-0.018436478
-0.20777726
0.20745662
0.23619074
0.12250155
0.009013569
0.15186517
-0.25323689
-0.065907441
-0.05938594
0.19125943
0.059269223
-0.10317194
0.16111116
0.1376787
-0.017986942
0.13297743
0.081157945
-0.47657669
-0.15076336
-0.039978374
-0.66618192
0.31658995
0.041016154
0.085241728
0.1044673
-0.28855205
-0.089483678
0.27447122
0.56788152
0.26695251
-0.088299118
0.43108186
0.026000137
0.70600271
0.44681361
0.14436878
-0.12082484
-0.28263101
-0.18499087
-0.036667611
0.16869272
-0.15819715
-0.37495899
-0.091403358
0.17412429
-0.19291359
0.057055719
0.19862455
-0.029364072
-0.057162181
0.058075707
-0.16488881
0.23254579
0.087283045
0.084159963
0.079466246
-0.028136732
0.14231448
-0.32673144
-0.019955678
0.23130301
0.045411184
-0.31979677
0.52727711
-0.11317956
-0.064227901
-0.11490267
-0.45355013
0.24995182
0.082517408
-0.40203926
-0.24531065
0.49794486
0.036229767
0.25913596
0.30343243
-0.50875974
-0.40896621
0.367511
0.038141381
0.39154577
-0.1751132
0.15124491
0.1638822
-0.075924575
-0.10310919
-0.079776883
-0.038318168
-0.34246203
-0.15209973
-0.015081062
0.25633082
-0.15314209
0.25935143
0.1724534
0.1762557
-0.036200847
-0.10024457
-0.14955635
-0.20810364
0.1589472
0.49260306
-0.12325646
0.092220031
0.25169641
0.17749082
0.05332322
0.002591647
0.27763504
0.066040888
-0.29207739
0.16046506
-0.092304505
-0.33855346
0.2003914
-0.36649621
0.0097846566
-0.13006429
0.22329597
0.12098157
0.1784998
-0.34989545
0.20733599
0.14172588
0.39252782
0.22060908
-0.0033201952
0.26704058
0.29412276
0.06940078
0.16008635
0.30804551
0.12908873
0.15690947
-0.020985175
0.066603869
0.051321667
0.24465123
0.20543559
0.019031726
0.14592153
-0.020228032
0.29367232
0.085033998
0.2375782
-0.03365124
-0.37874421
0.02588121
0.054532122
0.27008411
0.27079645
0.20589198
0.35757515
-0.055513013
-0.46662092
0.07519041
-0.18507768
0.025811238
0.26918325
0.20313932
0.13272005
-0.12915187
-0.25064912
0.18052787
0.049879838
0.13069965
0.16004069
0.59656388
0.14820281
0.21899694
0.31567612
0.093520336
-0.031229744
0.090875432
0.14376633
0.20168608
0.11107757
-0.032449931
0.16570668
0.2151674
0.18215246
0.27404386
0.12284677
0.031418007
0.179455
-0.10469326
0.12632164
0.22393511
-0.29663986
0.24152018
-0.063578628
0.081722759
-0.091613352
-0.29502901
0.48039836
-0.24147993
0.2254231
0.10243273
0.015615147
0.23364188
-0.20661435
-0.097762428
-0.033589225
-0.071006663
0.19539922
0.21553935
-0.1128601
0.13076104
0.30564123
0.23757184
0.39964288
0.074151449
0.081761621
0.11530491
0.17344357
0.053135354
0.34805858
0.11937343
0.086059608
0.082178704
0.2452188
0.52331316
0.18326212
0.14144632
-0.21621476
0.26304114
0.097116813
-0.034429081
0.09866666
-0.36409947
-0.43147108
0.046561085
-0.15930673
0.2348112
0.11191031
0.072431028
-0.28801191
-0.17001517
-0.23842861
-0.13003136
-0.035919599
0.31481016
-0.080949023
-0.016023377
-0.5454753
0.2893793
0.26401055
0.24408709
0.21950185
0.69611001
0.40970507
0.23967807
0.024160597
0.055564113
0.39476866
0.15576814
0.20522797
0.033567574
0.20245562
-0.17184114
0.14063418
0.13039744
0.062477794
-0.05763324
0.13576192
-0.34699255
0.31058717
-0.22994393
0.00073945295
0.44426632
-0.3782385
0.20034437
-0.26506734
-0.12586109
-0.06654083
-0.33869019
0.19145522
-0.1094296
0.35680044
-0.17082375
-0.31275672
0.58758014
0.21295033
0.21121849
-0.08925236
-0.19590648
0.11255684
0.40249506
0.090570115
0.33576182
0.092789426
0.16208805
0.38006079
-0.14681907
-0.015573222
0.43505684
0.36525893
0.28717241
-0.0098803313
0.064141795
-0.13168633
0.082413122
0.11604147
0.35290283
0.063592508
0.20703734
-0.081496537
0.89124817
0.10079396
0.18323946
0.36334205
-0.21222125
0.33810529
0.90622193
-0.2698729
-0.094720699
0.16959466
0.52481067
-0.74763012
-0.28827539
-0.19420841
0.21241076
0.23489249
-0.51423228
0.18101342
0.39709741
-1.0994042
0.32723826
0.082436472
0.20733973
0.52963376
0.3266477
0.17043632
0.53089446
0.11162393
0.078240424
-0.024634538
0.14580439
0.15657949
0.10574324
-0.067274466
-0.13324916
0.39287609
0.043446817
0.0066909394
-0.017834818
0.11004532
0.17900234
1.858709
-1.0297982
-0.93441308
-1.7663651
-0.38669747
0.88584691
1.5973272
-0.097862087
-0.37346062
1.0327505
-0.47904202
-0.20882149
0.23496437
0.11575805
-1.9819298
-1.9694549
-1.5982025
0.19207494
-0.17101093
0.95250517
0.34066206
0.2145579
-0.25811169
-0.47552326
0.49610099
0.30056414
0.38581061
-0.26199219
0.018821899
0.65832174
0.40926781
-0.012633804
0.38923174
0.01482455
-0.46877569
-0.22320373
-0.16440175
0.24178968
0.11132571
0.85683089
0.79083228
-0.47770119
-0.75479043
0.5103811
0.15461685
0.35188597
0.52310956
-0.52185053
0.10141882
0.071116887
-0.31551686
-0.48230854
-0.46193552
0.047755733
-0.14734727
-2.1285555
0.95546418
0.25098807
-0.35428628
-0.06260816
0.26782346
-0.0090953112
0.19628622
0.4916333
0.17454921
0.46790385
-0.045917921
0.038717862
0.30052274
0.4760381
0.17430946
0.087179109
0.17476082
0.12117788
0.12960757
-0.73557967
0.44823149
0.55333304
-0.46840736
0.5045535
0.087208144
0.028620856
-1.5631304
-0.49383309
0.3717092
-1.7101928
0.178542
0.21447149
-2.9659739
-0.75956875
-0.41213247
-0.87084758
0.58134252
-0.770688
0.011493116
-0.62037766
-0.19925627
-3.3483427
1.9324105
-0.73077339
0.081057616
0.39438385
-0.18779257
0.082271002
0.092547514
-0.31358692
0.33707774
-0.029696966
-0.42177275
0.74813616
-0.044425294
0.75228196
0.40957481
-0.044695012
0.27208224
0.36678118
-0.18939216
-0.41788864
0.095823847
0.25547189
0.6030044
0.61923069
0.32026571
-0.96473992
0.6959697
0.44090983
-2.1101129
0.42509478
-1.6494437
-0.64860803
1.3064971
-0.14435938
1.202626
-1.3950139
-0.32212672
-0.61938059
-0.030426042
0.97741139
0.37153178
0.66559893
-0.12242548
-0.32192966
-0.11547066
-0.16260226
-0.20452821
0.076486073
-0.27671036
-0.26944613
-0.24123491
-0.32660919
0.92648906
-0.015192161
-0.013682715
-0.14776976
-0.28116509
0.0064190412
0.34896991
3.0278738
-0.15880261
-0.094436534
0.3822946
0.34228471
-0.16500773
0.28331742
-0.60195917
-0.18676178
0.35799086
0.44332585
-0.28794613
-0.31807739
0.34909809
0.32143962
0.44003311
-0.093519405
0.21779895
0.64003962
-0.24637578
0.19021791
1.0418211
-0.10771161
0.30126977
0.08616998
-0.068030849
-0.13005646
-0.48307317
-0.22287594
0.65111762
0.74923211
0.18989497
-0.37713775
0.38449037
0.32863179
0.12362088
-0.52779424
-0.51915497
0.21862729
-0.23881607
-0.58320743
3.6228788
0.4007237
-0.0047225896
-0.23841941
-0.48083386
-0.54349744
0.88204372
-0.31522274
-0.13854493
0.015566812
-0.57006204
0.14009899
-0.10276687
-0.096650675
-0.25630507
0.1707513
0.10539655
-0.14204779
-0.1433171
-0.39929143
-0.11082068
0.13503247
0.33151609
0.49306515
0.071298324
-0.061830606
0.20946379
-0.062655456
0.11276405
-0.024469053
0.13926195
0.050684392
-0.03488664
-0.18760324
0.20750234
0.19272944
-0.016722022
0.12809044
-0.061269742
-0.2176418
0.22984454
0.77723515
0.18906459
0.14922053
-0.24719535
0.32710186
0.048543006
1.5975372
-0.22306645
-0.51196742
-0.31015915
-0.13150106
0.10436414
-0.38015464
-0.18980071
-0.18100506
0.45321071
-0.074484058
-0.49206966
-0.39018425
0.22201227
-0.43172103
-0.35398757
0.14252192
-0.3344889
-0.12636219
0.18522801
0.34290636
-0.087025292
-0.027822247
-0.024331301
0.1825821
0.11943468
-0.079399996
-0.083053991
0.23544993
-0.22268006
0.41126442
0.38988352
-0.011821858
0.18419705
0.037390992
0.28662679
-0.080886595
0.30776763
0.06388282
0.25928766
0.42465872
1.0043164
-0.065625101
-0.2585499
-0.036990494
-0.025095744
-0.059987526
0.12465568
0.20819905
0.04326928
0.20524165
0.29817149
0.29238403
0.031735037
-0.065227367
-0.072068498
-0.17105113
-0.30957732
0.3281087
0.16819279
-0.37998232
0.061261125
0.037844684
0.16177633
0.26030341
0.45664653
-0.14979358
0.20718841
0.35593107
0.10763641
0.40785691
-0.054505154
-0.19198194
0.1766697
-0.32525912
-0.039434031
0.79527485
0.30335274
0.23986514
0.3692131
-0.059624419
0.22033751
0.36109176
0.21698819
0.33207232
0.37873885
0.056549072
-0.087767318
-0.12930733
0.060806692
0.036735173
-0.086276464
-0.34110111
0.19504441
-0.11296912
-0.35694993
0.025349
-0.058246348
-0.16520919
-0.25249198
-0.10820528
-0.2071632
0.39740726
0.070885934
0.068847083
0.24767463
0.29172373
0.15531954
-0.015197794
0.20831971
0.017878061
0.055315439
0.19445388
0.02152778
0.0044436581
0.26769719
0.16846
0.41006055
0.24912588
0.0067676436
0.37096831
0.2027839
0.066830166
0.31403586
0.28187585
-0.25148761
-0.24724925
-0.19783832
0.20022613
-0.14860423
0.11746378
-0.092632018
0.11530492
-0.26074591
0.053926609
0.12502252
0.12140714
0.11720879
-0.37433898
-0.16083544
0.10627823
-0.12591463
-0.14108872
0.022205791
-0.089238413
0.012232874
-0.12329753
0.023440551
0.090514362
0.029579392
-0.043045603
-0.031060023
0.027496487
-0.15145335
-0.047095407
0.0020176836
0.027038807
-0.017615627
-0.0042397478
-0.046491854
-0.10493422
-0.0037402837
-0.17022772
-0.077425167
-0.63890433
0.36095703
-0.11723607
-0.17413342
0.28537247
0.22217798
0.3540459
0.09167964
-0.43306369
-0.010750717
-0.057179358
0.059816498
0.25515011
-0.18047531
0.2655412
0.14918721
-0.29008427
-0.23744769
-0.24641296
-0.064003468
-0.28340775
-0.089991435
-0.18379085
-0.10988288
-0.11736623
0.21349268
-0.011593757
0.063117765
-0.066879988
-0.10482503
-0.011992032
0.068316244
-0.20844857
0.082891181
-0.036524344
-0.19241451
-0.12393562
-0.026073229
0.045670211
-0.18643646
-0.0046319547
-0.43820348
0.80204523
0.079007521
-0.10209356
0.26437941
-0.28982344
0.00012645715
0.21454027
-0.063080952
-0.14986415
-0.11702468
0.33022815
0.11793821
-0.37930968
0.003487075
-0.29368544
-0.56894416
0.052791737
0.1625912
-0.20283137
-0.33475497
0.013643367
-0.21089049
-0.20147367
-0.11006981
0.065415546
0.0062363693
-0.023403179
-0.19864766
0.028424688
-0.12725861
0.012950432
-0.18856409
0.078700371
0.10235317
-0.20708935
-0.24895126
-0.13474454
-0.020744991
0.099832907
-0.024344573
-0.3352623
0.38755274
-4.6975914e-05
-0.3961255
0.052732166
-0.48297387
-0.41255689
0.4177371
-0.48472163
-0.23088381
0.16038717
0.54647267
0.13820873
0.18814887
0.41626528
0.63849586
-0.46273869
-0.0054885633
0.34505859
-0.59497279
-0.26568726
-0.14567997
-0.18891326
0.030807748
-0.13860695
-0.019835085
-0.084905349
-0.13530748
0.16254655
0.085341126
-0.43458223
-0.075054526
-0.003419437
0.036785074
-0.035156172
-0.35694167
-0.15208068
0.068397462
-0.0013966011
0.24634236
-0.17706791
-0.24848683
0.93701631
0.20173101
-0.057998914
0.019605497
-0.43714541
-0.029424245
0.34767178
-0.74493235
-0.041707236
-0.14945155
0.81539446
0.26217371
-0.52866971
-0.053995706
0.79126137
-0.2812959
-0.38427106
0.14836203
-0.0073308479
-0.14726858
-0.11319391
-0.24070595
0.10048976
-0.0493109
0.17854878
-0.1164768
-0.033488743
-0.15471058
-0.13115312
-0.068358548
0.077642642
-0.25264657
0.087036759
-0.053954549
-0.21331981
0.030638816
-0.030216318
-0.14174251
-0.054036688
-0.11392897
-0.22590035
0.74687475
0.26284614
0.11059049
0.16650468
-0.30203077
-0.20253433
-0.040302709
-0.21887068
-0.25900117
0.46458167
0.52757382
0.11726147
-0.43966183
-0.069788225
0.71288395
-0.34660187
-0.30817968
0.16260231
-0.083524048
-0.70929748
-0.088172026
-0.36875087
0.037655622
-0.074050508
0.11681082
-0.13992929
-0.061759349
-0.04312576
-0.075195558
-0.057809163
0.023970811
-0.41131777
-0.020388164
-0.11405742
-0.28862002
0.028314073
-0.031299278
0.090516701
-0.031449586
-0.10384896
0.23731634
1.1664015
0.21266
0.16014412
0.40688616
-0.054854881
-0.034643803
-0.037656695
0.23874722
0.46714845
0.026941331
0.38928738
0.047844388
-0.027423555
-0.21254556
-0.36600417
0.95501804
-0.18040983
0.3200368
0.036736235
-0.13538952
-0.15595213
-0.10761727
0.061470203
0.1646492
0.12626049
-0.24114914
-0.26602402
0.033255797
-0.092412792
-0.06467133
-0.23820129
-0.25071114
-0.12138284
-0.14861502
-0.089549758
0.21455486
-0.011951596
-0.37957162
0.021901583
-0.41242144
0.35573131
2.5655994
-0.44912466
-0.19271292
-0.35542592
0.071409307
0.097106114
-0.3005164
0.7993719
-0.56083775
-0.58138973
0.91659474
-0.2298853
0.48229808
-0.056721326
-1.5090811
-0.27242503
-0.079688199
0.16960879
-0.080421321
-1.1935284
-0.021647887
-0.15941174
0.33479249
0.13095096
-0.31829002
0.024865909
0.02972904
-0.15351146
0.20331201
-0.19882271
-0.2413054
-0.17091908
-0.24632813
-0.1394693
-0.15025513
-0.0052011972
0.23209734
-0.45668033
0.14627188
-0.26256064
0.0079992972
0.77372414
0.29768211
0.18835728
0.45654812
0.0098937647
0.48404011
0.26434594
0.49330413
0.11503965
0.15880843
0.21825866
0.0093824212
0.11591832
0.53069544
-1.8281615
0.55695927
0.79220325
-0.011998176
-0.1388703
-0.42132777
-0.39558944
-0.40875468
-0.25989634
0.14954181
-0.031508811
-0.13330413
0.045912828
-0.3747806
-0.024850335
-0.11528578
-0.050967243
-0.12293214
-0.23305254
0.071908072
0.050424989
-0.016439563
0.19091865
-0.089083217
-0.0095745139
-0.1684109
0.39727533
1.0562818
-0.12870234
0.56830382
0.2883625
-0.028249389
0.4320991
0.18821567
0.034465637
-0.18478602
0.058817312
1.127514
-0.07198678
0.36338383
-0.13116203
-0.971789
-0.054209039
-0.52051151
0.27410814
0.28455156
-0.74160326
0.18754935
-0.27425399
-0.14490779
0.2889238
-0.13898782
-0.025665652
0.1882866
-0.24862199
0.0043908702
-0.094409749
-0.15248963
-0.24237436
-0.0048373882
-0.22269306
-0.51539969
0.018172499
0.10509619
-0.18893704
0.048664484
-0.22443804
0.11778866
0.84512585
0.21957901
0.48822227
-0.063870773
-0.055640012
0.49052063
0.075043261
0.39984253
0.063569881
-0.06714727
1.3486013
0.084870324
0.18841535
0.13014629
-1.0872211
-0.22762932
-0.5163607
0.015684132
0.050409272
-0.34787655
0.095921144
-0.14882965
-0.037152458
-0.07179676
-0.21747054
0.10740681
0.10824855
-0.059068255
-0.055543508
0.023869894
0.063229665
-0.2406711
-0.18007405
-0.25507301
-0.42243168
-0.10108069
-0.028143324
0.12984134
0.028893901
0.18589392
-0.34266204
0.75751561
0.003586062
-0.26545316
-0.45379087
-0.086677864
0.2803987
0.63871431
0.29162964
0.15703939
0.2714169
0.52826518
0.15218449
0.59493387
0.29464567
-1.1404325
-0.4742257
0.10954031
-0.072331361
0.33700094
-0.27459767
-0.27304354
-0.043402147
-0.17286588
0.021448562
-0.20148218
-0.011164363
0.16038343
-0.27585718
-0.088091679
0.0091022793
-0.031610303
-0.086250998
-0.073405363
0.0064700749
0.14676638
-0.10559072
-0.12360734
-0.028157853
0.043443013
0.039218407
-0.39540327
0.54309845
0.37024024
-0.039682806
-0.68080419
-0.017224971
0.10641495
0.19987066
-0.44200242
0.0788173
0.15220802
0.094116867
0.24030678
0.42210975
-0.084375739
-0.10046773
-0.26831546
-0.31145772
0.12236272
0.35145181
0.063733824
0.058212489
-0.12928738
-0.18713917
0.12374067
-0.14884399
-0.13206281
0.020934766
-0.29034394
0.041575011
-0.01278587
-0.11693613
-0.15261078
0.030991934
-0.021413403
0.081183814
0.011455511
-0.19122244
0.077240504
-0.052873667
0.028952435
-0.51541573
0.26291886
0.091867141
-0.11166018
-0.75638682
0.075930752
-0.1487717
0.047738615
-0.20106274
0.15630051
0.63395369
0.44719929
0.35581401
-0.18829763
-0.12653926
-0.63082486
-0.24716195
-0.45003673
0.19613473
0.20230667
0.0022210304
0.060981724
-0.25633669
-0.24711588
0.029361565
-0.27771792
0.014722512
0.10758094
-0.30113
-0.17639805
-0.044286877
-0.13937864
-0.098753966
-0.024432842
-0.01547246
0.064601898
0.010257585
0.12769535
-0.080851227
0.095256478
-0.034778446
-0.45173666
0.24061064
0.6192711
-0.062681004
-0.079374932
-0.15381044
-0.32308319
0.11910822
-0.022656608
0.063318096
0.73119926
0.059602611
0.44732416
-0.14951257
-0.19821943
0.3123785
-0.62671113
0.02664144
-0.038653918
0.43260664
0.04635676
-0.10694212
-0.25656065
-0.19045484
0.03264074
-0.0089245178
-0.050407793
-0.020138586
-0.16405301
-0.18305054
-0.089909092
-0.070438318
-0.18716875
-0.080844916
-0.057579726
-0.090398215
-0.058162771
-0.05023111
-0.028987205
0.24703093
-0.03160093
-0.049677618
0.064285323
-0.021435928
-0.51078528
-0.0020013514
0.14490022
-0.26998964
0.21344082
-0.090167366
0.20942053
0.011830579
0.40897363
0.17144988
0.1627416
0.037775967
-0.17478377
0.26023507
-0.47710156
0.049496491
-0.043740284
-0.33354706
0.16338383
-0.091092311
-0.077185452
0.060932405
-0.17805351
-0.063448682
-0.10539464
-0.10685264
-0.31527251
-0.079549775
-0.057757862
-0.32610968
-0.066855364
-0.25077599
-0.074031964
-0.045281142
-0.10528032
-0.16785532
-0.26604334
0.024540581
-0.78988516
0.1220386
-0.29769012
-0.10012481
-0.18271968
-0.27112502
0.23590034
0.15998946
-0.19286712
-0.14319062
0.26785538
0.11474533
-0.056275181
0.047420263
-0.41606417
-0.033552814
0.13022076
0.051204242
-0.060533162
-0.075597778
-0.08806444
0.028085874
-0.16726811
-0.12441199
0.083701812
0.37842193
-0.16050279
-0.23627946
-0.24590877
-0.44380504
-0.15117085
-0.19380544
-0.084926516
-0.2007677
-0.16410771
-0.55095422
-0.1998502
-0.15500645
0.0083035678
-0.01449933
-0.077938214
-0.30032119
0.56543171
-0.014216045
-0.029368946
-0.32128003
0.20929429
0.23857158
0.19344041
-0.1933327
0.15126498
0.20742871
0.481509
0.066375375
-0.10793997
-0.26646933
-0.19474767
0.11713082
-0.041179854
0.10022318
0.30565575
-0.55712163
-0.15833059
-0.20850907
-0.0035310411
0.069526404
-0.20717457
-0.2253222
-0.093092971
-0.037920568
-0.23881382
-0.082318567
-0.099992335
0.0094249845
-0.079555281
-0.39441916
0.013077484
-0.11542426
-0.18821296
0.21755414
-0.31300172
-0.022527836
-0.74466676
0.38954684
0.093207411
-0.17584227
0.27506003
0.26736113
-0.53719753
-0.18284175
-0.34286156
-0.016786443
-0.30613071
0.17274167
0.2930522
-0.12217785
0.6312229
0.19591355
0.1006014
-0.26413214
-0.080075786
-0.34444779
-0.42287633
0.12477256
-0.089116007
-0.28595272
-0.081584871
0.14462194
-0.20524326
-0.096365243
-0.033521324
-0.39157343
-0.20229733
0.027056286
-0.23020752
-0.094971657
-0.011732861
-0.037913967
-0.17959628
-0.076994069
-0.27241322
-0.31373158
-0.099379182
-0.42709681
0.33910424
-0.097188964
0.084581077
-0.014807344
0.17326583
0.091967538
-0.13893875
-0.23228326
0.26706982
0.49394187
-0.11871876
0.66661459
-0.12229209
0.035578284
0.14884451
0.16855992
-0.73307949
-0.017925676
-0.23659772
-0.26430622
-0.087906763
-0.0091703953
-0.075873896
-0.32490483
-0.23749436
-0.22353281
-0.01482145
-0.20198254
-0.34182727
0.23941059
-0.091250367
-0.063686043
0.052101072
0.12611912
0.00087877363
-0.26472235
-0.32104033
-0.35575834
-0.20886306
-0.036188412
-0.49133933
0.30991319
0.19819658
-0.015437981
-0.066614777
0.38717875
0.53261435
0.20071852
0.48776165
0.57073963
0.23578998
0.34408394
-0.099351123
-0.43653902
-0.087260604
-0.0048643402
0.018125685
-0.23692422
0.002906438
0.12542346
0.1035974
-0.17242479
-0.19344239
0.0030272231
-0.13497344
-0.24823196
-0.31251207
-0.29303497
-0.040738795
-0.21764855
0.12482341
-0.033142954
-0.10846046
0.10003749
0.13603798
-0.027839284
-0.31683224
-0.34425753
-0.25477543
-0.081374809
-0.14470634
-0.3854509
1.5229412
-0.34104776
0.30285299
-0.15851434
0.53123742
-0.089735188
-0.12137597
-1.800401
-0.39463976
-0.49182168
0.069988199
0.10714453
-0.43834868
0.36789861
0.86250955
-0.75724381
-0.053744849
0.0057418477
-0.39999872
0.21924473
-0.16453671
-0.17753088
-0.39571145
-0.19389346
-0.54964733
-0.20684418
-0.44668269
-0.55753762
-0.43650568
-0.024329346
0.20148684
-0.35369414
-0.067933008
0.029010754
-0.11693995
-0.59177965
-0.024734436
-0.074538484
0.21139315
0.15124856
0.92649096
-5.1500463
0.85429651
1.4046781
2.8842883
-0.078303933
0.9781782
-1.7720463
4.6889777
0.73519695
-1.0907062
0.57860368
1.7402352
-0.10577936
0.44706616
-0.33888924
1.1123677
2.7043426
0.52556837
-0.37304765
-1.8031887
-0.46591395
-0.21922621
-0.04486791
0.20211115
0.39738032
-0.07648024
-0.14646803
0.051435467
-0.089946918
-0.70632941
-0.65021139
-0.10932782
-0.35638633
-0.15172088
-0.34138379
0.27653089
0.58070546
-0.46308777
0.077515587
-0.48916957
-0.024699852
1.4348016
-0.0015733027
-0.85500377
-0.30980006
0.37248099
-0.15884666
1.0523837
-1.1175944
0.49295723
0.87482047
-0.10201236
0.62945235
0.098270603
0.20859808
-0.087864585
0.096125126
-0.57611698
0.1896185
0.16698271
-0.71358204
-0.11965799
-0.15813512
-0.31246194
-0.28334183
-0.21620157
-0.26951659
0.12050181
-0.59624261
-0.49054345
-0.21552064
0.034306776
-0.31633729
-0.21954027
-0.034833591
0.041047156
-0.040327843
-0.13600269
-0.23241448
-0.42971742
-0.34539455
1.2103025
0.47028461
-0.43735972
0.18126863
0.56523991
-0.35502312
-0.83164901
0.53914291
-0.88612229
-0.47850943
-0.23909135
0.77674806
-0.0085860593
-0.27634612
0.16485859
1.2561485
-0.10901131
-0.71532607
0.07189855
-0.34090781
0.17583035
-0.089425027
-0.096949011
0.010181102
0.28248593
-0.23839089
0.18729788
0.33981794
-0.51243293
-0.11845763
-0.30937576
-0.24464732
-0.078954943
-0.44150501
-0.12483492
-0.78781354
-0.13237144
-0.22042306
-0.27646402
-0.041169111
-0.28128558
0.21560083
0.2613802
-0.22623146
-0.33355701
0.63788915
4.1292831e-05
0.39857468
-0.10553715
-0.33649546
0.17997076
-0.14520817
0.14958523
0.08425878
0.064461894
-0.35634002
-1.3058864
0.40783593
-0.3782227
-0.06847734
0.15897784
0.35506266
-0.16707851
-0.28071836
-0.24351493
-0.14191382
-0.026864119
0.060229275
0.014848873
-0.14310734
-0.37217936
-0.050517343
-0.018113781
-0.082150564
-0.086433336
-0.13147838
-0.17603737
-0.1320191
-0.1880504
-0.4015851
-0.11506394
-0.19146058
-0.045062769
0.63397062
0.43049589
-0.44845581
-0.059489831
0.29343298
0.057627682
0.11904112
-0.65704316
0.049299899
0.42347062
0.5306893
-0.10181048
0.22974432
-0.46661502
-0.36461088
-0.65306097
-0.20137736
-0.3311224
0.23033661
-0.79476517
0.089080557
-0.089640677
-0.070264123
-0.11332898
-0.6761474
-0.21966298
-0.28918818
-0.024029722
-0.40698022
0.053591754
-0.056956168
-0.14704181
-0.080806166
-0.032454692
-0.046851933
0.086232617
-0.038765363
-0.1899353
-0.21130218
0.090512536
-0.620166
0.61684585
-0.39433935
0.01862542
0.21950287
-0.039601807
-0.039388236
-0.35600767
-0.11355003
0.084623627
-0.15804175
0.38380095
0.07104063
0.0022065609
-0.27358818
-0.043231845
-0.43067005
-0.015167197
0.0049180323
-0.12484555
-0.33650553
-0.044537459
-0.014870492
-0.13761111
-0.15245798
-0.24764419
-0.010262199
-0.16735031
-0.19126825
0.092904821
-0.031752326
0.050262395
-0.29926714
-0.21803614
0.012239554
-0.40757352
-0.160576
-0.14514302
-0.0077851187
-0.1477845
0.026532117
-0.66425681
0.60562199
-0.19634271
0.13596486
-0.07962919
-0.06636361
-0.1450863
0.12162884
0.19333655
0.24019448
0.33737841
-0.16241214
0.47956106
0.45275661
-0.13676466
-0.20821489
0.023893312
0.014920626
0.31923392
0.083224133
-0.51679552
-0.067975603
0.056632504
-0.28031376
-0.092629656
-0.08642868
0.057707194
-0.033973817
-0.14705704
-0.23827051
-0.15047295
-0.069067098
-0.1475428
-0.14021701
-0.40828955
-0.37373203
-0.041876279
-0.03062918
-0.10313733
-0.40885606
-0.063947655
-0.26541302
0.68632537
-0.16565992
0.43153992
0.061680797
0.27387035
-0.34524119
0.14775077
-0.52529395
0.03496547
-0.13139528
0.49769437
-0.44909292
0.32297668
-0.26340839
-0.17957118
-0.30246985
-0.4084301
0.12854119
0.013024419
-0.54998118
-0.11679963
-0.32875293
-0.20124128
-0.20201644
-0.14023587
0.082750589
-0.012175359
-0.068706222
-0.14302845
0.12750641
-0.12659538
-0.049821701
-0.057699699
0.11521428
-0.22966179
-0.098669499
-0.020873044
-0.51025087
-0.096822925
0.0024194391
-0.75106311
0.14375927
0.30710146
-0.44317624
0.0040398762
-0.23613138
-0.12217754
0.072935745
-0.11466153
0.0091058929
-0.17667003
0.14238268
0.45198414
0.11590104
0.05044353
-0.28299725
-0.14831233
0.043023132
0.02421248
-0.022796554
0.024031151
-0.10532667
-0.25529245
-0.16899244
-0.11314607
0.16667297
-0.12528194
-0.093908437
-0.1319835
0.02274433
-0.21015957
-0.28330746
-0.11582179
-0.016336404
-0.10669214
-0.18432978
-0.11257036
0.11116056
0.093115643
-0.2632927
-0.082908466
-0.044415597
0.024603633
-0.10614936
-0.26661596
-0.010853237
0.056440379
-0.13389257
-0.19752373
0.34658393
-0.12501217
0.25159699
0.28034899
0.061658315
-0.13661939
0.019122837
-0.23156673
-0.562424
-0.55267155
-0.1328522
0.12695894
0.056280129
0.090719298
0.096639149
-0.41999206
-0.094004072
-0.069582611
0.040856417
-0.1094898
-0.13542707
-0.20844345
-0.24489376
-0.15688233
-0.10324213
-0.29218727
-0.034256246
0.080366835
-0.044926234
-0.002935773
-0.18452705
-0.081717104
-0.17181221
-0.13525878
0.021196064
0.1856039
-0.27337611
-0.26813236
0.30333158
-0.17961657
0.21391374
0.052455846
-0.03163458
-0.075559594
0.027731203
-0.078927338
0.042172968
0.052032713
0.17371383
-0.22032245
0.12219755
0.10598285
-0.20631209
-0.28591621
0.060040593
0.016940996
-0.11376861
-0.17513494
0.072560571
-0.25013602
-0.071547717
0.012604068
-0.082780994
-0.50889599
-0.12247894
-0.13633683
0.12864678
-0.24877331
-0.090873525
0.079584867
0.020825731
-0.27527243
-0.43711695
-0.111775
0.030746242
-0.64798933
0.30887061
0.27759102
-0.15554519
0.020167362
0.2263982
-0.045425903
0.072798952
0.14432637
0.079462059
-0.017166134
0.30365592
-0.16417526
0.40626991
-0.20407236
-0.16382916
-0.23129803
-0.14014384
0.15519592
0.20127533
-0.027683757
-0.083629712
-0.088353187
-0.087472335
0.0071750558
0.044724975
0.21088074
-0.03744841
-0.28944758
-0.04776039
-0.31798515
-0.080087617
-0.45363575
0.0097813532
-0.098369934
-0.1128068
-0.11206964
-0.27088106
-0.33672738
0.12799737
0.090425275
0.07541433
0.38205421
0.094136924
1.7333589
-0.36660475
0.15653941
-0.25904629
0.28048858
-0.2813096
0.036593221
0.05408847
0.27681428
-0.14230797
0.22118275
0.25949371
-0.11431245
-0.14021076
-0.1322055
-0.1144147
-0.51219457
0.20954348
-0.1558142
-0.041125976
0.096332587
0.045062914
-0.046624828
-0.087325305
-0.31606299
-0.23538749
-0.22089253
-0.25342825
-0.10316021
0.16189611
-0.13330147
0.088644907
-0.15998504
-0.32438511
-0.4708634
-0.068900846
-0.20681356
0.086423852
0.011165514
0.33897692
-0.093049474
-0.31658608
0.38861337
-0.44188091
-0.50302857
-0.71000254
0.22698095
-0.20516245
1.0664219
-0.17496924
0.18555385
0.18708815
0.75901437
0.53307801
-0.043485343
0.10105187
-0.046609018
-0.49055484
0.029452849
-0.12198762
-0.34666505
-0.16164297
-0.028364202
-0.26678005
-0.25736398
-0.57698858
-0.21403436
-0.11455285
0.12271895
-0.14322236
-0.26405528
-0.0086292801
0.1243523
0.16420318
0.0020883307
0.020861015
-0.13199218
0.055514742
-0.035263415
-1.2994577
-0.51809174
0.98540109
1.7241409
-0.11213633
0.12089586
0.18489064
1.6174133
0.03276049
-0.026738806
0.00019241714
0.52725482
-0.076088168
0.70692796
0.62927687
-0.47549391
-0.28293166
0.55205292
-0.15740559
-0.26454791
-0.34987047
-0.32641599
0.088555939
-0.054345693
-0.18747194
-0.17253855
-0.045879811
0.36317667
-0.20505543
-0.52969348
-0.48608887
-0.052353218
-0.52433008
-0.0035149124
0.40131554
-0.1632366
-0.12343004
0.058020912
-0.21242216
-0.14260522
0.60266298
-0.34003896
-0.61555117
0.073471159
0.65758139
0.25387803
-0.42611924
0.1600171
0.35046637
-0.57259452
0.32410532
-0.25499246
-0.30356336
-0.073032647
0.28894103
-0.5602479
-0.27617082
0.39818653
-0.011074471
0.10965005
0.33512729
0.10440011
-0.47631282
-0.28252143
0.35676205
-0.029537547
-0.20007582
0.042049527
0.35804564
-0.12454884
-0.26846001
-0.43271747
-0.53887439
-0.16640048
-0.16190468
0.41536072
0.047378428
-0.14427593
-0.044624813
-0.23110178
-0.20071039
-0.016188491
-1.0024257
0.2700693
0.2409911
0.6136443
-0.36794567
0.37912732
-0.0056478358
0.68496543
0.33390626
-0.28036681
-0.54860514
0.64940816
-0.36163774
-0.32868123
0.73487997
0.54970795
0.67658383
0.15980458
0.043854084
0.33317062
-0.21882753
-0.24134028
0.18930849
0.099089302
-0.42798886
-0.026128143
-0.20103125
0.33217293
-0.43722224
-0.37513939
-0.62508017
0.050943304
-0.28101048
-0.67095655
0.48435253
0.020899937
0.35765043
-0.24318299
-0.19158924
-0.024181666
0.40701291
-0.28023574
-0.048413843
-0.081202559
-0.37692764
0.40154564
-0.39325601
0.0061337375
0.0075236522
-0.039980639
0.099638633
0.040124618
-0.30095148
0.021645492
-0.16948314
-0.23360988
-0.42130142
-0.50204551
0.12640344
-0.20658183
0.39641073
-0.1506893
-0.1284821
-0.044157546
0.19762455
-0.094230533
-0.16332103
-0.068093516
0.01261099
0.059397027
-0.38382477
-0.31628302
-0.037629567
-0.50827473
-0.29486501
0.25716075
-0.058988348
0.095405765
-0.16998546
-0.32715687
-0.20723063
0.17633
-0.6148591
0.28665647
-0.15880801
0.13821341
0.33314794
0.01449587
0.083536856
-0.24101274
-0.041345321
0.33575401
-0.80942088
0.11670768
0.10455097
-0.28418458
-0.51230371
0.50088447
0.50282496
0.20123523
0.19628862
0.45486501
-0.027468022
-0.19994719
0.037402187
0.23052527
-0.23328447
-0.21398041
0.08792416
-0.13051842
-0.17412482
-0.076312646
-0.32185695
-0.27565494
-0.10482806
-0.26039267
0.19230646
0.10232607
0.080646597
-0.47725952
-0.32019907
-0.062524572
0.17006768
-0.28304204
-0.001407034
-0.10769615
0.15407594
0.24639429
-0.083760381
-0.11167555
-0.19276151
-0.15020351
-0.065661088
-0.063856527
-0.28386831
-0.0066126948
-0.20533012
-0.11115011
0.052960359
0.37984979
0.12007
-0.041130967
0.018049777
0.051981032
-0.021096725
-0.11117533
-0.06877324
-0.046569936
-0.045927133
-0.032495022
-0.23854621
-0.21924749
-0.035381559
-0.15465114
-0.29453963
-0.045465596
-0.3060683
-0.26518455
-0.23412363
-0.064566389
0.37146312
-0.11056312
-0.17282932
-0.010960544
-0.32354322
-0.21223244
0.25183067
0.076314114
0.012801924
-0.42074046
0.21855795
-0.36026701
-0.22214675
-0.2344528
-0.020715555
-0.3508656
-0.050980318
0.30576846
-0.10127645
0.34037149
0.54130399
-0.0017632236
0.1673521
-0.29543662
-0.18497992
-0.16332455
-0.060990263
-0.17944279
-0.35597304
-0.027175641
-0.044018548
-0.10052238
-0.02483847
-0.23337615
-0.033220224
0.019244034
0.074629374
-0.33101374
0.12992504
-0.21204904
0.049867768
-0.087396607
-0.075313434
-0.28025678
-0.045287661
-0.28770882
0.31862518
-0.048248608
0.19233063
-0.041646816
-0.30876499
0.22371601
-0.48250997
0.15494566
-0.11189251
0.11320597
-0.16466647
-0.34736738
-0.50853652
0.26507404
0.14961039
0.043340586
0.19755165
0.027869342
0.093204811
-0.048703652
-0.068097629
-0.18311803
-0.0052585187
-0.033561453
-0.11731101
-0.24302468
0.04738009
0.036995482
-0.20395254
-0.31172487
-0.19497293
0.033081412
0.064646892
-0.32060409
0.068047293
-0.069419779
-0.045787863
-0.081113406
0.018571053
-0.17756736
-0.3302809
0.20523572
0.12464473
0.13866934
-0.084415831
0.14030325
-0.14213106
0.016255964
-0.066952139
0.098948404
-0.30118349
0.21969223
0.12069193
0.23388517
-0.053655073
0.051930677
0.048487827
0.28405145
-0.19010584
0.26296103
-0.11584637
-0.089756049
0.029691812
0.019946111
-0.17998721
0.08949589
-0.039445963
0.024026949
-0.19207636
-0.051269412
-0.19464307
-0.16313039
-0.054989055
-0.017202225
-0.087938577
-0.054797996
-0.20896728
-0.053246368
-0.23996738
-0.19602661
-0.41145664
0.48996845
0.15821441
0.13810827
-0.010755342
-0.12970947
-0.13984165
-0.1597355
0.070117466
-0.15587421
0.27342719
-0.29504976
-0.52742535
0.40335211
-0.20443322
-0.16978176
0.14792602
0.23007269
-0.13309294
-0.06960348
-0.31179494
0.056603674
0.082065918
0.035180308
0.0031911477
-0.21487051
0.16281998
0.29116467
-0.097049877
-0.051443625
0.1387447
0.10935431
0.10360279
-0.068727948
0.090940461
0.022988889
-0.13297528
0.049014892
0.3340936
0.082799144
0.070746049
-0.81194139
0.41767332
0.036126252
-0.11884769
-0.20686734
0.37014621
0.20803334
0.14982556
0.28532842
0.18473938
0.19490233
-0.34989783
-0.70386064
0.56749117
0.039275032
-0.0064587072
-0.17355427
-0.68080407
0.11184856
-0.10788648
-0.41332275
-0.074604534
0.016736453
0.097083516
-0.094830081
0.017523507
0.20053636
0.053599667
-0.31217277
0.13673846
0.17929497
0.21361683
0.17335995
-0.31938231
0.20618777
-0.06862358
-0.019254303
0.011869851
-0.068077639
0.020798409
0.17509671
-0.28293926
0.1518603
0.049246397
-0.56587321
-0.21164292
0.35636491
0.53907341
-0.2506558
-0.032018427
0.27156067
0.24730514
-0.31086761
-0.68296313
0.70176935
0.12148836
-0.23660696
0.27298293
-0.090790309
-0.21962798
-0.34985247
-0.66778386
0.161268
-0.028066248
0.12751973
0.048987608
-0.18829858
0.024765536
0.11514161
-0.14395775
0.067009106
0.033160906
0.042877741
0.1232442
0.12740056
0.088821001
-0.24007779
0.066541098
-0.060272537
-0.14053507
-0.16719145
0.042119656
0.067403518
0.29307106
-0.11003114
-0.21658395
-0.089319482
0.60160357
0.16481203
-0.10912289
-0.27628508
-0.049137194
-0.22066119
-0.41921315
-0.64555621
0.52696794
-0.17137557
-0.10743582
-0.27699828
-0.5559417
-0.035947125
-0.2719689
-0.15711573
0.065126024
-0.10741197
0.061302058
0.054935787
-0.24941722
-0.044150293
-0.098537013
-0.070147477
0.23563868
0.20326811
-0.01634049
-0.043566003
0.21116263
-0.066583857
-0.40383184
-0.054188006
0.10511816
-0.075395219
0.13057114
0.30339438
0.2687152
0.3713322
-0.18546548
0.25659013
-0.62706655
0.26932141
-0.041663609
-0.37414649
-0.76299572
-0.23519997
-0.25748953
0.15086506
-0.70595378
0.032032605
-0.14297193
-0.73660213
-0.090973526
0.082030363
-0.11554268
-0.18800187
-0.64303476
0.061363947
-0.015953435
0.019790243
0.16610232
-0.098840885
0.14002164
0.19349648
-0.30619299
0.23764446
0.012941775
0.082470313
0.092208102
0.17412563
-0.050721001
-0.33212525
0.025846822
0.033513032
-0.6604932
-0.016805828
0.094530605
0.31417352
1.102736
-0.15974195
-0.1919831
-0.6189698
0.12672745
0.027172666
-0.25282058
-0.81056589
-0.20644659
0.080853589
0.40891877
-0.75302643
0.1244602
0.13704191
-0.020846009
-0.065658279
-0.41100681
-0.11367788
-0.22272675
-0.24659969
0.34634557
0.082414679
-0.17843194
-0.13747963
0.13622817
0.015760466
-0.14320396
-0.39022684
0.47477421
0.45529255
0.066053271
0.14348429
0.071685158
0.044370253
-0.30188516
-0.22534928
-0.1273815
-0.25666651
0.065443762
-0.0044847014
0.11218344
-0.025459047
0.2938889
-0.64776385
-0.095455542
-0.50003397
-0.36190856
0.49441168
-0.9215259
-0.2361373
0.42166603
0.41538882
-0.013296235
0.044293031
-0.58073014
0.26148233
0.63116556
-0.19291353
0.3046619
-0.17135635
-0.41849545
-1.0168715e-05
0.0092734694
-0.032224428
-0.30388787
0.1893954
-0.085833155
0.21480796
-0.38505998
0.3105883
0.13430268
0.14893597
0.040844698
0.048459847
0.19101937
-0.26549339
-0.22199968
0.042031482
0.046449333
0.0022983712
-0.0081418315
0.11321478
0.80649489
-0.27952588
0.34061977
0.61532634
-0.53322309
-0.45011806
-0.10885736
-0.026966862
-0.040483925
0.26121956
0.83503413
-0.41417068
0.17183194
-0.45291167
1.266205
0.33446786
-0.80444819
0.28328991
0.04702973
-0.97159934
-0.12615848
0.20236276
-0.22890234
-0.47515711
0.0062027965
-0.086787194
0.26322418
-0.38469183
-0.12578556
0.31036794
0.38162231
0.098576173
0.24409011
0.37604603
-0.67781925
-0.032514304
0.043913703
0.11685164
0.15977901
0.14568292
0.015147369
0.52424079
0.099966608
1.2621099
2.0767827
-0.49409086
-0.12345253
-0.86449456
0.59956521
-0.34610483
-0.19203594
0.33162242
0.30313531
0.10443993
-0.14395915
0.63762039
-0.094582014
-0.49907979
-0.10686444
-0.11173392
-1.7406175
-0.069295608
-0.15882699
-0.046813678
-0.018539265
0.11686423
-0.22251707
-0.21442156
-0.07267569
-0.029264785
0.079233885
0.31987742
-0.032025844
0.14600709
0.21154864
-0.64842576
-0.013993757
0.046401352
0.23855242
0.26220775
0.23491703
0.11903411
1.0683457
0.11777261
0.93479413
1.185445
-0.30337235
-0.22361639
0.63211811
1.0794374
-0.068774007
-0.19948076
1.0802692
0.47770131
0.40734428
-0.2463654
0.44965461
-0.34714901
-0.18918249
-0.040539756
-0.12465853
-1.7587407
0.044275571
-0.047734447
0.10925215
0.084500626
0.090524517
-0.25853372
0.21314541
-0.13791072
-0.37832442
-0.069232225
0.31092599
0.095676281
-0.11923951
0.33814707
-0.72617108
0.046801656
0.012581568
0.22577931
0.15818188
0.029307943
0.27953357
0.79095632
0.10772078
0.56319082
0.71964133
-0.18007568
-0.20277458
-0.372325
1.1191069
0.44570869
-0.088136517
1.124681
0.56903201
-0.048302609
-0.58972561
-0.2695151
-0.074332915
-0.33400258
-0.15170047
-0.061464902
-1.0216835
0.023854615
0.088265881
-0.33948022
0.035564132
0.027731888
-0.064375244
0.011605267
-0.098954231
-0.17744438
0.10538471
0.17428143
-0.11656597
0.046406157
0.17912081
-0.21801285
-0.11391483
0.028166905
0.11065586
0.24793793
-0.090821765
0.41554755
0.9764998
0.094213583
0.20582068
-0.3584308
0.32718766
0.41710237
-0.051467195
-0.14130123
-0.015413373
-0.14680149
0.55651659
0.55079389
0.34080485
-0.2174179
-0.4613232
-0.39780694
-0.46588743
0.031610396
-0.14048457
-1.2283932
0.13928226
0.029560829
-0.135912
-0.12798834
-0.075628363
0.10769407
-0.23140998
-0.31095994
-0.22917978
0.09109205
0.091782317
0.028801873
0.0024684635
-0.044678397
-0.08788307
0.070067354
-0.031235585
0.43265194
0.2278731
-0.11103121
0.3333813
1.1845264
-0.0048775128
-0.20047913
-0.38787502
0.45161667
0.60394925
0.20456493
-0.32909846
-0.13612838
0.60086149
0.61795402
0.44054267
0.91481131
-0.39253584
-0.50064903
-0.50174451
-1.0454464
0.015298411
0.089070901
-1.1298379
-0.02895874
0.27818328
0.22947203
-0.038196929
-0.30100033
0.020187674
-0.058855046
-0.15725826
0.10096229
-0.074475996
0.019684268
-0.10663631
-0.0259737
0.097866677
-0.15479009
-0.079989694
-0.0096381875
0.43347844
0.075335845
-0.067102484
0.069759645
1.3476248
-0.15538473
-0.07627064
-0.51746017
0.41309556
0.072847322
-0.0067577059
-0.57551432
0.074712105
0.70820135
0.33054456
0.17485024
0.59452933
-0.20342118
-0.4458271
-0.038453296
-0.99348503
-0.25207779
-0.26161388
-0.89984888
-0.056193195
0.32941335
0.022358023
-0.0068598245
-0.17880252
0.043198615
0.10540931
-0.34640542
-0.01835059
-0.0083275605
0.17491023
0.013854855
-0.18007891
0.17654207
-0.25180972
0.0061953533
-0.075075835
0.38524252
0.20261253
0.020060718
-0.13326001
1.1708463
-0.18676494
-0.41487631
-0.049355019
0.30153552
0.3905659
-0.22244315
-0.65434003
0.28510627
0.72915435
-0.063478224
-0.11133035
0.37682295
-0.14390124
-0.76762879
-0.34748262
-0.55919904
-0.43343085
0.06743367
-0.44254491
0.095699951
0.21021433
-0.12187883
0.20544495
-0.31044421
0.11056943
0.045312427
-0.0052633109
-0.10640439
0.093695655
0.24393071
-0.096327119
0.061868761
-0.065603256
0.10514747
-0.04036108
-0.060603224
0.20666127
0.1254594
-0.091388516
-0.36094823
0.71789443
0.11828958
-0.19438206
0.39842325
0.31369284
-0.0051309415
0.40539184
-0.39586467
-0.1370569
0.22725886
0.18229361
-0.22124568
0.12768054
-0.32831585
-0.1138529
0.13026446
-0.38220662
0.13233732
0.28683689
-0.4754605
-0.30293185
-0.15637332
-0.063131966
-0.098691933
-0.6758194
0.2452801
-0.010458133
-0.24050124
0.022857774
-0.017103206
-0.064231716
-0.016264148
-0.13600241
-0.081927478
0.13111658
-0.076215819
-0.25507197
-0.1415139
-0.12154026
-0.014674443
0.29173037
0.12460385
-0.12924217
-0.014439097
0.010105957
-0.23998079
0.41992289
0.22449657
-0.079595111
-0.055799436
-0.31764248
0.54210579
-0.10706507
0.10647564
0.073496364
-0.31430483
0.45953718
0.073051356
-0.20813262
-0.0028076093
-0.096494056
-0.13142195
-0.16240653
0.19967905
0.02236235
-0.037739489
-0.10721176
0.054310665
-0.35959902
-0.019106993
-0.16541651
-0.18107234
0.0045197522
-0.13760145
-0.049085278
-0.12448004
-0.10575639
-0.051270403
-0.28371674
-0.23677066
-0.096790113
0.03356478
0.18489595
-0.025568917
0.33259946
-0.20130652
-0.32662329
-0.16483226
-0.002190372
-0.43966171
-0.35859594
0.40306225
0.29775754
-0.61899048
0.045819785
-0.48039868
-0.419016
0.2569052
-0.39366418
0.17822427
0.16261593
-0.26460022
-0.096760198
-0.013541045
0.12195863
-0.11360768
-0.40244678
0.23200537
0.06938538
-0.008463419
-0.32324275
-0.33355531
0.023130035
0.06906347
-0.35304368
0.0021964777
-0.26646444
0.078455709
0.012365364
-0.52297133
-0.141652
-0.38629356
0.62218052
-0.08408609
0.61314374
-0.097214475
-0.49017587
0.14622229
0.37386328
0.69581378
0.35349244
-0.23246765
0.04563193
0.10650814
-0.56532216
0.36571163
-0.32427269
-0.33026046
0.091147833
0.039835364
-0.0088574523
0.38020936
-0.47950712
-0.14247519
-0.22721519
0.067382768
-0.16912779
-0.32361424
-0.31105232
-0.1092089
-0.12647562
-0.30084136
-0.093908712
0.057085544
-0.28322187
-0.048827503
0.1141738
0.007773411
0.011443168
-0.047509465
-0.15127417
0.14824107
-0.23764433
0.34899503
0.13578036
0.087626584
-0.37656847
0.19078732
-0.0010928359
0.72122401
0.34965295
-0.27381304
-0.70909023
-0.003930185
0.56881249
0.26332122
-0.34083691
-0.29212496
0.72405118
0.67470562
0.28922758
0.15772428
0.60084945
-0.81492186
0.025887419
0.08290989
-0.094412796
-0.070532739
0.22790837
0.030197592
-0.13570115
0.10503632
-0.20608109
-0.20042625
-0.05855459
-0.052574359
-0.18750367
-0.17460647
-0.40853155
0.16525815
-0.098678976
-0.25135547
-0.31023252
-0.21937348
-0.086446986
-0.13434453
0.018896233
0.19720849
0.16047364
-0.096406281
-0.19054358
0.28522751
0.15220276
-0.087254159
-0.12434097
0.19368935
-0.36088085
-0.093092777
0.028062716
-0.24709292
-0.11911181
0.19899139
0.10091431
-0.39720878
-0.69547451
0.13896531
-0.13232364
-0.38913938
-0.68381554
0.15211435
0.19741571
-0.099715665
-0.26204216
-0.13640496
-0.014818287
0.095945388
0.12586732
0.0084120622
-0.17130536
-0.30645356
0.35996926
-0.13138506
-0.88504696
0.015601711
-0.018858548
0.25952801
1.1105177
0.25846037
-0.10083772
-1.0740671
-0.13020584
0.035166249
0.49803227
-1.4519795
0.038079314
0.54719061
0.36992615
-0.21975867
0.04564843
0.13499118
1.0557979
0.94259238
-0.26134837
0.24775553
-0.42289543
-1.2298261
-0.20208639
-0.36051953
0.27696431
-0.16710475
-0.12338139
-0.078259811
-0.1092207
-0.25644445
-0.09629184
-0.61479384
-0.23328662
-0.17644897
-0.26109919
-0.25914583
0.047474429
-0.16530208
-0.091742538
-0.42078561
-0.28186497
-0.49585158
2.0519814
0.17641939
-0.23160763
0.85606229
-0.20427768
-0.12291989
0.32078072
-0.13124287
2.0963614
0.47959596
1.363829
0.12950709
0.48980522
0.43182829
0.20440949
0.91933644
-2.1510513
-2.641897
0.1634528
-0.19816536
-0.58165157
-0.072895482
-0.24732871
0.11695024
0.21177375
-0.49497858
-0.23060538
-0.35196421
0.7971428
-0.026231168
-0.25306109
-0.3677102
-0.22698112
-0.42022967
-0.27083209
0.7389617
-0.042061709
-0.49970779
-0.0088097975
0.090632103
-0.37545034
-0.011048553
1.2695996
0.055543907
0.14568192
-0.4159278
-0.023663502
0.68610263
-0.21719402
-0.68832666
-0.057438787
0.88498926
-0.48744515
0.036134165
0.20080014
-0.11675354
-1.4390067
-1.1365955
0.18748352
0.07110177
0.11428241
-0.35495359
-0.63742638
-0.44739026
-0.64353585
-1.0394797
-0.59797013
-0.52537549
-0.99988592
-0.52763116
-0.11354859
-0.13354194
-0.078171514
-0.054345567
-0.32517794
-0.15295869
2.2611678
-0.38472214
-0.25719923
-0.41040391
-0.26210538
-0.092464074
3.2543387
-1.2060225
0.36241636
0.53069663
0.77102673
-0.14922282
0.13891725
0.53792852
-0.043366585
0.20670995
0.20151532
-0.39530578
1.5691781
0.016018068
0.25322109
1.0402565
1.0312843
1.8332143
-0.69422859
-0.097855471
0.25822228
-0.43129987
-0.16779107
-0.03190998
-0.18919012
-0.14315337
-0.25422958
-0.37489617
0.071455143
0.028832408
-0.13943106
-0.3437494
-0.42180064
-0.24984981
-0.25024652
0.47341838
0.16623236
0.13222569
0.15064964
-0.23316655
0.072472908
0.15592794
0.017401598
0.56333774
0.40521997
-0.46031275
-0.21099901
-0.75390732
0.20529215
-0.48982155
-0.24391896
0.3530888
-0.036271621
0.55235982
-0.40796819
0.44712412
1.0128595
-0.0089498153
0.096526951
-0.045540724
-0.014117947
0.22103468
-0.18738909
-0.19916934
-0.055695832
0.19897389
-0.17366606
-0.28217539
0.059740148
-0.24213998
-0.030764563
-0.19637567
-0.049099788
-0.32390299
-0.48186293
-0.21984413
-0.011913378
0.19451278
0.045695871
0.2689307
0.0066366303
-0.14788251
-0.11937368
-0.15104209
0.17806751
-0.16210362
0.18320349
-0.19474356
-0.18460847
-0.22374028
0.16425285
-0.045432571
-0.060417805
0.1511333
0.387647
0.097936533
-0.26477116
0.023205532
-0.03331314
-0.068511225
0.19339596
0.15197511
0.42458278
-0.36680126
-0.094085574
0.021127608
0.053225499
-0.12290101
-0.31449193
0.15877169
-0.11768565
-0.12087233
-0.14152418
-0.16802284
-0.060832027
-0.17809993
0.0026755591
0.2417365
-0.026125859
0.029719142
-0.27641597
0.20803128
-0.21808778
-0.37333152
0.22007217
-0.032969017
-0.72212529
0.939821
-0.37482631
0.35036314
-0.005752855
-0.13396978
0.3096033
-0.049931802
-0.27031964
-0.18584283
0.2381876
0.15048265
-0.067785271
0.07936722
0.59025818
-0.065784872
-0.21011533
-0.47391754
-0.15714855
-0.26805833
-0.10705282
0.1485144
-0.12989843
-0.018527197
0.0015711425
-0.33174211
-0.30632204
0.00062122621
-0.14370888
-0.060772233
-0.020892266
0.039023202
-0.053251229
-0.055267699
-0.077614695
0.24503331
-0.27652156
-0.011395014
-0.17190488
0.15760738
0.29328951
-0.051798258
-0.23475824
0.24028063
-0.097994022
0.021081071
-0.32270387
0.12358675
-0.14937146
0.13334058
-0.4370946
0.013709535
-0.48898098
-0.02846897
-0.24158481
0.22655301
-0.3700425
0.10959312
0.26676625
-0.12402289
0.012042621
0.016943423
0.2851117
-0.46075386
-0.083926499
0.069486797
-0.078805372
-0.39283895
-0.17771995
-0.20584016
-0.028383927
-0.21463025
0.089811787
0.070898853
-0.07142245
-0.030989161
-0.55995631
0.32772991
-0.098058209
-0.091472313
-0.19450007
0.31099749
-0.81381226
0.30790374
-0.12399377
-0.18180802
-0.12451279
0.53255141
-0.21695241
0.02745292
0.22642596
0.089019574
-0.15488532
-0.14191796
-0.14806186
-0.030202195
-0.43283588
0.068368964
0.1317171
0.23202761
-0.057062004
-0.042128272
0.013067953
-0.082275443
-0.048205376
-0.14605632
0.078210734
-0.13093047
-0.19884224
-0.22932906
-0.24654251
-0.22954515
-0.026788676
-0.25039369
-0.025369698
-0.081386469
-0.14685783
-0.30598447
-0.08248955
-0.09234786
0.43647686
-0.52324802
-0.20318618
-0.51103169
0.075979352
0.11154247
0.40598902
-0.4178991
0.41182476
0.11090852
0.58093888
-0.36967754
0.017423294
0.26295111
0.029713534
0.30379677
0.084083937
0.12910169
-0.20379758
0.18338943
-0.33812678
-0.13677208
-0.24587773
-0.1907713
0.10234829
0.077976406
-0.27620491
-0.19341719
-0.11183406
-0.19413118
-0.246439
-0.14636932
-0.13033208
-0.081107579
-0.26973742
-0.34051377
-0.1560175
-0.028008062
-0.18163477
-0.17252834
-0.086550251
0.10402471
-0.82619065
0.44785172
-0.28420573
-0.094211638
0.18100251
0.49073249
-0.048580598
0.6281805
0.020155886
-0.4399167
-0.6562736
-0.24843828
0.51709497
0.089025706
0.12134913
0.11722789
0.17097826
0.29958323
-0.27302814
0.75870818
-0.1863727
-0.16282418
-0.26722586
0.16241972
0.16395506
-0.35912395
-0.20633657
-0.3024545
0.13415334
-0.20014298
0.0019645847
0.016178045
-0.072125293
-0.21426558
-0.51491666
-0.085169874
-0.34028769
-0.17419668
0.013123594
-0.07108707
-0.24788085
-0.21099709
-0.25570813
0.0023835097
-0.56495148
0.21824336
-0.10213289
0.054147385
-0.18555768
-0.15700515
0.034997277
-0.335089
0.091290906
0.19953911
0.058667146
0.37143707
0.21138136
-0.024463568
0.23785101
0.047804434
-0.54667282
-0.26123002
-0.041004401
-0.11095514
-0.12515806
-0.023334958
-0.12157495
-0.20237938
-0.074258395
-0.12534535
-0.02195484
-0.076767504
-0.068425521
-0.068160966
-0.12404849
-0.031723645
-0.29972321
-0.098096505
-0.33749828
-0.14553037
-0.03226158
-0.47362894
-0.21352357
-0.010538815
-0.28920847
-0.37627548
-0.18680184
-0.26175991
0.19225553
-0.094176888
0.40056375
-0.29809991
-0.014955247
-0.059380464
-0.25871828
0.12300101
-0.0072488571
0.56462574
0.66237879
0.17584749
0.074609183
0.44224125
-0.012727799
-0.061604757
-0.25404176
-0.31982979
0.25196338
-0.11510947
-0.12534079
-0.010453373
-0.04784989
-0.19374679
-0.14174017
-0.13906956
-0.014639936
-0.26120484
-0.32524824
-0.23293443
-0.27351347
-0.20873615
0.10769111
-0.17209437
-0.39196569
-0.71203834
0.34648132
0.18476078
-0.15943721
-0.066733152
0.1099517
-0.13340819
0.304306
-0.38191161
0.45519713
-0.1973459
-0.69057757
0.10937198
-0.18162034
-0.14601387
0.10155068
-0.091249831
-0.031630099
0.13434888
-0.10212054
-0.20174797
-0.13709837
0.041872252
-0.47183475
-0.040986698
-0.018637139
-0.23873876
-0.073535278
-0.1618723
-0.0043596332
-0.15535571
-0.40051678
-0.20733136
-0.2463094
0.077884667
-0.052772995
-0.025061214
-0.17896345
-0.19683799
-0.10579576
-0.28245983
-0.12665886
-0.41619131
-0.42679507
-0.36220336
-0.025590146
-0.23033288
0.089522958
0.34480295
-0.21432798
0.31394407
-0.61219442
0.43461749
0.033551048
0.21053962
-0.085056663
-0.7393719
0.21539852
0.096381947
-0.045928568
0.81103563
-0.21459198
-0.1848233
0.11860685
-0.45137599
-0.099406399
-0.3818152
-0.24107929
-0.10936522
-0.15998356
-0.073023602
-0.13157064
-0.10973145
-0.26478669
0.15450801
-0.080436163
-0.40437493
0.092629984
-0.25007734
0.062765084
0.13993171
-0.47526899
-0.43361121
0.5362252
-0.83917034
-0.37501112
0.38688463
-0.50905234
-0.18626446
-0.63447344
-0.028513985
-0.27843085
0.23424411
-0.51190871
0.10913007
-0.42839798
-0.34043697
0.71678358
0.133853
0.025615949
0.30369103
0.46038455
0.034618851
-0.16948271
0.078266755
-0.33409572
0.1963639
-0.28505343
-0.58034801
-0.33613414
-0.25269279
-0.04612359
-0.043240696
-0.29475224
0.0059118504
0.0094856294
-0.37129846
-0.28932074
-0.45223027
0.25331855
0.32565296
-0.21811402
-0.12600558
-1.1652972
0.015964286
-0.8133328
0.062112097
0.22756758
0.11832936
0.38622048
0.043834936
-0.026951797
0.56428707
-0.36068261
0.51423538
0.13570838
-0.082293496
-1.1493565
-0.42473969
-0.62787634
-0.34292439
0.21946779
1.5158479
-0.23042662
-0.10246751
-0.010950111
0.056005709
-0.31807289
-0.30670324
-0.015292975
-0.14552718
-0.084733218
0.0052972753
-0.15313856
0.055042908
-0.33611664
-0.017042257
-0.9596011
-0.46233061
0.25895154
-0.063216917
0.007263741
0.040662393
-0.01140448
-0.88419449
0.74210107
-0.43073341
0.99731714
0.0208977
-0.74680978
-0.61973637
-1.3123637
0.019581802
-0.14436677
0.38641307
0.23640417
-0.42988998
-0.42819995
1.3019301
0.82893586
0.42067128
0.16995765
0.41076136
0.44790441
-0.15793861
-0.33932579
-0.094605915
0.35820776
-0.12863821
-0.12105513
-0.14878605
-0.30210501
-0.16596714
-0.036912765
-0.14168242
-0.18262738
-0.30441821
-0.077907853
0.35345855
-0.00058735081
-0.085010275
-0.021088887
0.092611112
-0.15573835
-1.2269826
1.343837
-0.082947813
-0.87613958
0.31813899
-0.2132284
-0.55086327
0.56665373
0.74715686
0.10917393
0.10761461
0.45044237
0.58980417
-0.31857684
-0.92647338
0.5693543
0.65908474
-0.30739781
0.040047202
0.70981163
0.64540339
-0.15750165
-0.21994002
-0.10968477
-0.24385184
-0.31261271
0.078323148
0.086243719
-0.02105549
-0.036919806
-0.086392395
-0.17437409
0.057288293
-0.086125523
-0.52309406
0.23445301
-0.064394422
-0.30881515
-0.48833153
0.16506346
-0.33348906
-0.41378632
0.31250396
0.5996263
1.3076514
1.2468902
-0.62222308
0.87834078
-0.45967835
1.4938443
-0.024776857
-0.19986127
0.37845057
0.00088308071
-0.78810745
0.1124725
-0.4270781
1.1823093
0.9555288
0.072268426
-0.11275353
-0.6098749
-0.16452624
-0.2533609
0.013714051
0.087946862
-0.54298037
-0.13316903
-0.084398627
-0.32483551
-0.29783419
0.031851862
0.0059984373
0.006276648
0.18699174
-0.31734702
-0.22200121
-0.14212625
-0.23568007
-0.47781667
-0.023711191
-0.048355106
-0.083033755
-1.1700517
0.20569894
0.66677594
0.61387926
-0.092213869
0.86978817
0.41073516
2.3763483
-0.018781506
-0.59510195
0.22078675
0.44930384
-0.11491575
0.092929862
-0.99051404
0.33257008
1.0832217
0.4150981
0.10990631
-0.85046393
-0.24470215
-0.14947304
-0.095367514
-0.24893421
0.016803917
-0.29001105
-0.17965005
0.32394618
-0.19190021
-0.18781947
-0.31903321
-0.120764
0.070368186
-0.052516021
-0.8131274
-0.23269522
-0.059372917
-0.12129934
-0.067530654
-0.12471594
0.15272434
-0.79112858
0.28141046
0.39108133
-0.55804116
0.41829658
0.70992774
-0.051315553
1.0629706
-0.092934586
-0.55650932
0.77642524
0.021760063
-0.55317688
0.068154439
-1.2472417
0.05905493
0.89782912
0.10377058
0.051233392
0.6769973
-0.14319031
-0.21632348
-0.16040565
-0.19667152
-0.13122618
0.098748229
0.091559745
-0.13332723
-0.24493566
-0.10828158
-0.11725868
0.079769053
-0.33260006
-0.021364948
-0.51058412
-0.23333077
0.011587149
-0.11693177
-0.28492123
-0.1203963
-0.14532904
-0.085745014
-0.012177099
-0.60823846
-0.53236353
0.43551558
0.75646132
0.41823286
-0.6567235
0.16430862
0.089008652
0.61583209
0.11894658
0.32900366
0.099632621
-0.4207145
0.15095018
-0.09605471
0.23857491
-0.073095337
-0.070153974
-0.10826409
-0.14754069
-0.29654989
0.14661404
0.21867587
-0.0019831844
-0.18863699
-0.46058396
-0.19021548
-0.31401369
-0.21564534
-0.046386249
0.029617336
-0.15540279
0.071304031
-0.21912888
-0.1997412
0.041573565
-0.27945846
-0.16570383
-0.50565493
-0.36772016
0.004985882
-0.44496074
-0.5519014
0.55965889
0.33972102
0.24748787
-0.046397973
-0.16710503
-0.39378396
-0.077490978
0.29183811
-0.030413065
0.48770773
-0.83596331
0.22461765
-0.24726102
-0.00036716386
0.060598373
0.75746584
-0.069933996
-0.16844098
-0.47495687
-0.38126484
-0.20141859
-0.038035322
-0.26552263
-0.38291678
-0.44330001
-0.098276094
0.24124967
0.008023941
0.0033596382
-0.031021845
-0.40876374
0.013718625
-0.019054441
0.062480729
0.063233197
0.32359087
-0.53182906
-0.064891145
0.096424736
0.40626371
-0.2098708
-0.48933959
-0.0041205189
-0.12283275
0.40449718
-0.1200242
-0.28571972
-0.40435195
0.11547139
0.15659703
0.30124268
-0.015144866
0.28978974
-0.38730508
-0.39149022
0.17062005
0.47587031
-0.17047244
-0.022465881
0.16899672
0.15510228
-0.67718321
-0.24501188
0.15286472
-0.080445386
-0.37395081
-0.24149843
0.18624976
0.19974293
0.048315082
-0.00060121983
0.088903666
-0.010455322
-0.12058131
-0.092814848
0.42123151
-0.0076346467
-0.6114316
-0.35852173
0.31461656
0.11043479
0.11415303
-0.39184383
-0.088488154
0.031890523
0.24807799
0.11736494
-0.54891735
-0.88740724
0.4402667
0.33816513
0.053466786
0.4019056
0.21918418
-0.30156237
-0.061940748
-0.37964445
0.54979092
-0.26909116
0.039465372
0.19732937
-0.065261036
0.11635746
-0.12910093
-0.11921223
-0.54737633
-0.07873632
0.17788891
-0.04098874
0.0089798756
0.087659203
0.43934897
-0.074881569
-0.093709528
-0.23129764
0.077364288
-0.29682627
0.1792804
-0.60082757
0.48502353
0.38345468
-0.76135486
-0.21556741
-0.16414769
0.46410105
-0.46897459
0.21836437
0.055734675
0.48184219
0.16657442
-0.50748008
-0.88481224
-0.12702756
0.0095958188
-0.13459671
-0.020641597
-0.5334608
0.57834941
-0.16956422
-0.031142969
-0.21400107
-0.15802826
0.21206191
-0.16448094
0.13343042
-0.22406296
-0.12758984
0.089184038
0.1706342
-0.15176408
0.069725588
-0.14954695
0.061486419
-0.31619665
-0.28520167
0.1645795
0.033705335
-0.13267092
0.16952206
-0.51727617
-0.36696038
0.051652264
-0.17800786
0.46362478
-0.034775276
0.53820789
-0.49084681
0.079735942
-0.15062298
0.47363177
0.41391325
0.1270144
-0.37253958
-0.16328272
-0.17775406
0.15724456
-0.13538615
0.030207088
-0.15932788
0.58895218
0.12015796
0.031189395
-0.11223204
0.079084538
-0.47474319
-0.14724594
-0.1107292
-0.011638963
-0.1718691
0.10022938
-0.28629807
-0.29693779
-0.2789467
0.21042731
0.14478987
-0.085630141
-0.26068652
0.35971355
0.45099604
-0.22263715
-0.35517573
-0.27976057
-0.6690526
0.15221432
-0.24142496
-0.06154009
0.14778948
-0.16679466
-1.0332061
0.27074763
-0.30748343
-0.13335669
0.28005797
0.3241685
-0.19238232
-0.58013415
0.28041968
1.1318265
-0.075167872
0.41682371
-0.76909465
0.054082535
0.047949146
-0.12241376
-0.3475734
0.31203023
-0.17237331
-0.38910565
-0.22684348
0.092131071
0.32983106
0.34753764
0.046297483
0.024524476
0.15812686
0.041069359
-0.37194985
-0.31290707
0.45698363
-0.25315684
-0.18976204
-0.85189527
0.30172253
-0.23192514
-0.98416913
-0.43154779
0.79238367
-0.34084666
0.063654408
-1.2059329
0.51100516
0.24837625
0.34079361
0.35366517
0.18318978
0.16348831
-0.012593803
-0.25304776
0.3615233
0.27096051
0.040963974
0.17775664
0.1019439
0.13323303
-0.022358935
0.11404438
0.28241497
0.22505268
-0.11337686
-0.6655553
0.37931994
-0.16470137
-0.23712374
-0.001004443
-0.47241434
-0.20378391
-0.085363537
0.0010506231
0.13204734
0.32060626
-0.1915762
0.083320566
-0.89454418
1.9211458
0.41479152
-2.5800989
0.24014045
-0.48128793
-0.058272019
0.54208434
0.74827313
-0.37580413
0.8823967
0.62676316
-0.39478928
0.2234877
0.14501925
-0.56110239
-0.11806086
-0.011751713
0.88725609
0.40088204
1.372299
-0.047889411
-0.009829687
-0.2065829
-0.32189643
-0.2446204
0.12021587
-0.29199645
0.14643353
-0.26734298
0.22604656
0.23231497
-0.20279327
-0.14794865
-0.11269148
0.059318751
-0.49934399
-0.14051484
0.7670927
0.30427793
-0.05652488
-0.69388252
0.76522076
1.0914705
-0.0091060558
-0.89227861
0.073934466
-0.11174636
0.85616505
-1.0243163
-0.27359068
0.93886197
0.44552135
-1.1575203
0.3165912
-0.17065464
-1.8627487
0.97091883
-0.22805172
0.45693263
-0.33111176
0.53089046
-0.097774372
-0.0040811431
0.19674145
0.18081316
-0.29630306
-0.087280989
0.061534286
1.1428394
0.073101118
-0.13344355
-0.22035827
-0.57041198
-0.30647761
-0.1282946
-0.82987535
0.030630598
-0.16276264
0.37629551
-0.21386859
-0.2900061
-0.0053393203
-0.37329558
0.13620719
0.33048981
0.32506841
0.18981916
0.015637172
0.74102861
-3.1210907
-0.24315917
0.15968627
1.4914538
0.60633683
0.033799928
0.39213866
-0.94965863
-0.39570332
-0.13082185
-0.16854818
-0.059925634
0.047981653
0.044642963
0.058166806
0.29793504
0.33483124
-0.46608064
0.14418755
0.24794798
-1.2883079
0.03969897
-0.076035731
0.013603458
0.014214275
-0.098394394
-0.19384792
0.99708927
0.13546868
0.24602832
-0.040537022
-0.36515793
-0.061767627
-1.2239666
0.35705364
-0.083389208
-0.014819766
-0.30121022
-0.047900453
0.46505535
-0.40083331
-0.61998051
0.5855391
0.52483535
0.15507339
0.51147312
1.0237448
-0.0011675904
-2.354394
0.38244227
-0.81253314
-0.13458383
0.4175604
-0.33384156
0.4972733
-0.51072997
0.041579384
-0.18773475
-0.54557723
0.04682235
-0.12414008
0.16139598
-0.31929106
0.33885106
0.19663981
-0.15885936
-0.22555894
0.48449743
-1.4005786
0.20927495
0.24588659
0.68485951
0.12969893
-0.0048812842
-0.76791495
-0.65985656
0.12547338
-0.20745029
-0.24627069
0.3027007
0.054341886
0.98089015
0.67536336
-0.31474093
-0.052997548
0.67669785
0.32960877
0.51825881
0.10292717
-0.36334416
0.72126716
0.14437297
0.2671876
0.41710305
-0.86667556
0.14298049
-0.40028432
-0.33830762
-0.15317906
-0.18558249
-0.38129428
-0.10063746
0.52954954
-0.18571676
0.13090357
0.030989187
-0.035839889
-0.10401642
0.043214176
0.3898603
0.024808403
-0.22240597
0.094452702
0.14266868
-0.12189371
-0.60781908
-0.64353728
0.42418852
0.058354869
-0.024867393
0.095426045
0.46475267
-0.67877263
0.31649312
0.066232279
-0.018789722
-0.23428528
-0.1262235
0.28191572
-0.38721672
-0.48078823
0.35410076
-0.18332446
0.18959992
0.50585592
0.25907952
0.095215097
-0.45885882
-0.25491479
0.30164045
-0.32477993
0.028872501
0.035713024
-0.35746798
0.25204378
-0.035735372
-0.23855467
-0.070235766
0.30248716
-0.11409982
0.34030375
-0.18131736
-0.13099237
-0.062295258
0.088721558
0.021447808
-0.4606941
-0.39284334
0.80435276
-0.31881717
0.10147696
0.97983766
-0.22531456
0.094206586
-0.7458756
0.023676405
-0.11759336
0.30333546
-0.44424874
0.26618022
0.13616072
-0.10711704
0.85868615
-0.29299715
-0.076477356
-0.19298802
-0.4749738
-0.18310346
-0.34159404
-0.15999086
0.16326229
-0.044534113
0.039944869
-0.018184487
0.012111749
-0.039005257
-0.14961609
-0.055357613
-0.1542798
-0.042581029
0.14905463
-0.043126192
-0.069126904
-0.016113969
0.2884683
0.033014905
-0.21103285
-0.40318382
-0.3579568
-0.3719331
-0.32851774
-0.39065695
0.64334619
0.28004691
0.02214127
0.16263549
0.3257747
-0.22178654
-0.37853432
0.23432431
0.58315331
0.32582536
0.34158796
0.14315118
-0.29619431
0.067880355
-0.16060489
-0.39585391
-0.011353199
-0.2840029
0.21084109
0.11338682
0.055680472
0.24440113
-0.25160035
-0.0092368424
-0.33717373
-0.041172724
-0.20657682
-0.155257
0.25718057
-0.16586731
-0.050128415
-0.10368201
-0.076618396
-0.11287978
-0.10014102
-0.10194214
-0.1988941
0.21899754
0.061770555
-0.27081734
0.58285522
0.25224581
0.25176394
-0.11681886
0.43911487
-0.0011821159
-0.58623582
-0.019580353
0.1489287
0.021755973
0.49567586
-0.12277303
-0.28702855
0.35117412
-0.098286711
0.34499159
0.069074869
-0.024734261
0.036150482
-0.29146138
-0.01782945
0.39659685
0.25869572
-0.25277588
-0.19977815
-0.069740444
-0.1075189
-0.027590992
-0.11974179
-0.1441167
-0.47693425
0.16898441
-0.20707577
-0.02841332
-0.24847302
0.065592699
-0.075268105
0.064970195
0.27841967
-0.20193261
-0.29976919
-0.045278218
-0.079831906
0.21244626
-0.086386278
-0.25647321
0.15377846
0.26696008
-0.26376867
-0.30802289
0.58874166
-0.35257179
-0.16573237
0.13712086
0.018364074
0.0030478395
-0.14918168
-0.33808267
-0.040101323
0.12223034
-0.084831588
0.040441386
-0.28783947
0.041553691
0.14651309
-0.20618799
0.10494471
-0.063585497
-0.053796388
0.095290385
-0.20656566
-0.18401746
-0.11699889
-0.10676162
0.071110517
-0.069629811
-0.093755633
-0.108891
-0.72952759
0.54349071
-0.30574518
-0.25385553
-0.27995548
-0.061785549
0.2072008
-0.025922785
-0.36867389
0.23893806
0.065072089
-0.081927501
-0.26341265
0.47255692
-0.3050063
-0.17363463
-0.016631672
0.0024634253
0.19744474
-0.19014871
-0.57377583
-0.036804665
0.079704255
-0.1495398
-0.049842678
-0.29744139
0.25886086
0.094047114
-0.46212405
0.08041662
0.013103358
0.020349205
4.4627952e-05
-0.19714914
-0.027395187
-0.24575295
-0.027509905
-0.015640138
-0.35472438
-0.22792239
0.036472723
-0.30614677
0.89647382
0.316679
0.20512924
0.075944595
0.074004628
0.2734389
-0.058937121
-0.36619306
-0.16589229
-0.089256205
0.34299958
-0.065758973
0.63961178
-0.24941179
0.021796005
-0.26503372
-0.10075871
0.2726326
0.031848162
-0.9549306
-0.073532991
0.040104751
-0.0057382062
0.1485116
-0.051876437
0.038368579
0.10571833
-0.19752461
0.040143713
-0.27750114
-0.017824041
-0.017944004
-0.16921481
-0.19376826
-0.087365337
-0.17625183
-0.036103297
-0.40681472
-0.067275904
0.025456881
-0.4612731
0.84122723
0.0084199347
0.19113645
0.29184571
-0.17305924
-0.0034785988
0.3066777
-0.86534172
-0.070018351
-0.058987424
0.79771084
-0.048835862
0.44632402
-0.46906424
0.056735158
0.29125947
-0.092808783
0.093665853
0.16855158
-1.2965305
0.039812662
0.001830989
-0.053731915
0.021813478
0.14152664
0.068039328
0.010011148
-0.27777681
0.092366494
-0.23308748
-0.050251443
0.044407278
-0.25839958
-0.20645308
-0.19386366
0.03775375
0.039344195
-0.16772388
-0.080845676
-0.12384564
-0.71869093
1.7257816
-0.33762038
0.12364588
-0.55073023
-0.11921044
0.1470089
0.37351078
-1.205879
-0.066839047
-0.12078966
0.74879682
-0.43470785
0.34560588
-0.46156862
-0.16743796
0.60348797
-0.63588965
0.088083923
0.023138812
-1.3582811
0.053254616
0.099264108
-0.12875065
-0.099629216
-0.14628574
0.069154084
-0.00055168039
-0.42557469
0.15169223
-0.033357218
0.020503905
-0.027669314
-0.11210945
-0.14399771
-0.23677216
-0.076431997
-0.12678286
0.056085717
-0.010445938
0.058097746
-0.6208452
2.0812187
-0.53580517
0.25450873
-0.42389584
-0.12733467
0.18620332
1.070358
-1.0679518
-0.097270183
0.63377178
0.94401449
0.11704192
0.6953705
-0.67560238
0.40787357
0.41237453
-1.176263
0.41804987
0.22445048
-1.6615026
-0.016318588
0.1012392
-0.16471864
0.047672585
-0.25112545
-0.11262081
0.2102934
-0.47469398
-0.14925522
0.054150049
0.017688636
0.10059872
-0.33579099
-0.060894087
-0.12577669
-0.19480917
0.084118545
0.094767392
-0.09965419
-0.037107658
-0.53470933
3.1127267
-0.011588255
0.2836417
0.22690544
-0.62095118
0.44557104
1.596544
-0.89387846
0.10127206
0.93228048
1.3530171
0.19431816
0.22242995
-0.29609567
-0.16443431
-0.21913077
-1.1686852
0.28724161
0.39000973
-1.8392683
-0.20207448
0.050245199
-0.14446211
0.080536328
-0.12407216
-0.040268201
0.08448796
-0.50010848
-0.066634409
0.048949733
-0.27680549
0.073082887
-0.39888358
-0.022178223
0.2799271
0.039826024
-0.051055301
-0.10496407
-0.20637085
-0.14895976
-0.24582556
3.2584534
-0.27312958
0.92564595
-0.076360054
-0.35761887
0.53247219
1.464921
-0.56912881
0.40311304
0.29267254
1.7091928
0.37619233
0.21236515
-0.4014008
-1.015713
-0.91939843
-0.80391693
0.1743522
0.3222701
-2.4954104
-0.13469864
-0.013166481
0.0080505209
0.029037038
0.044117916
-0.10315284
-0.0070590014
-1.0101314
-0.13595836
0.051539328
-0.11479698
-0.079172246
-0.30506554
0.056338053
0.30248585
0.030762706
-0.04908862
-0.045081832
-0.11863372
-0.27877533
-0.019077878
2.3841717
-0.23767403
0.85372508
-0.49358138
-0.11713094
1.0517945
0.46292445
-0.34822455
-0.044603523
-0.03067299
1.2980895
0.48753747
0.60460204
-0.32419631
-1.7213374
-0.11130016
-1.392797
-0.088703372
0.018132154
-1.9840288
0.097542927
-0.035910744
0.1026396
-0.060929582
0.24171388
0.084605046
0.064761907
0.2086738
0.0090652229
0.13952997
0.26484925
-0.14548838
0.0084958645
0.14961766
-2.5330315
0.00077950244
-0.15485938
-0.17040163
0.13500112
-0.043233883
-0.28168392
1.613274
-0.029578166
0.5645507
-0.35465482
0.31164628
0.72000235
0.060806412
-0.30958432
-0.33627349
0.20113932
0.8843506
0.64117545
0.63196105
-0.12291123
-0.94565022
-0.60055041
-0.96387857
-0.056164455
0.12406986
-1.6501783
0.039533187
0.089252949
-0.0020173276
-0.080820009
-0.317745
-0.054634362
0.0058350568
-0.23705688
-0.23239563
0.041780788
0.019444184
-0.046144947
-0.11146694
0.12244295
-0.57574981
-0.12376985
-0.025630333
-0.18673535
0.1135643
-0.026460851
-0.22311234
0.9919737
0.20086181
-0.11957581
0.16706049
0.10778624
0.78108484
-0.174154
-0.25430182
-0.0046566096
0.40439525
0.68304521
0.64528668
0.40629661
-0.48956528
-0.29259017
-0.26222339
-0.45138031
0.0316885
0.036084846
-1.4819427
0.062080771
-0.096937574
-0.1155618
-0.15487027
-0.026792789
-0.23799206
-0.11230289
-0.12523276
-0.46399358
0.03307078
0.013066459
-0.11054461
-0.13244951
0.04286794
-0.16905677
0.029194133
-0.028314449
0.060808808
0.2105242
-0.066095255
-0.43300796
1.0809619
0.19680248
-0.0020475611
0.3443653
-0.0031805388
0.33095634
-0.02726651
-0.47912502
0.20704603
0.23510332
0.24706517
0.29731658
0.44327164
-0.22213674
-0.19159929
-0.46682894
-0.097083181
0.028636936
-0.016286151
-0.93620837
0.011648716
0.0088925203
-0.13858664
-0.16344346
-0.2195977
-0.07512524
-0.21542174
-0.13005683
-0.075602449
-0.042082481
-0.0080175614
-0.1590018
-0.22759153
-0.2450614
0.034940694
-0.059297457
-0.17461252
0.22447968
0.11176039
-0.047388598
-0.21891965
0.72173339
0.15835831
0.3481971
0.12368875
0.066800788
0.22748235
-0.36199135
-0.23396716
0.22795516
0.20956643
0.20307398
-0.14438185
0.46427804
-0.50983852
-0.042425044
-0.30721143
-0.29338437
0.041880686
0.117709
-0.53843272
0.021467973
-0.010553647
-0.090087116
-0.20856927
-0.24810779
-0.16811362
-0.10998375
-0.076757289
-0.056317471
-0.16255531
-0.061129678
0.012622887
-0.11431194
-0.21420614
-0.1896908
0.058381148
-0.11543427
-0.036056723
0.1099638
-0.0014112528
-0.22037366
0.61094022
0.052309625
0.37262022
-0.10677897
0.18627518
-0.14141199
-0.21491066
-0.30093795
0.079077937
0.31925154
0.11076548
0.19969825
0.38684478
-0.41490662
-0.13212731
-0.19640358
-0.5091542
-0.052974988
0.019832266
-0.21500811
0.0082183043
-0.0071698693
-0.030574827
-0.22768739
-0.31509942
-0.038340755
-0.19624333
-0.23795342
0.019728305
-0.18376221
0.018624743
-0.016233567
-0.027668588
0.070913017
-0.25379065
-0.14620879
-0.042790942
0.20801683
0.091284171
-0.2290874
-0.27924725
0.59590846
0.13827784
-0.061518796
-0.079538874
-0.059320305
0.16156852
-0.027159087
-0.13406064
-0.16190332
0.44273674
-0.12937604
0.24200064
0.23865569
-0.1032729
-0.18326682
-0.52536643
-0.058194377
-0.17384245
0.19336654
-0.35590407
-0.015473356
0.02845427
-0.073743321
-0.062605277
-0.13812961
-0.029011201
0.01912941
-0.12014892
0.093014687
-0.1924645
-0.14248204
-0.10450265
-0.26404113
-0.063699096
-0.15629773
-0.074235871
-0.10657739
0.049448259
-0.027300635
-0.18636839
-0.27456516
-0.27173129
0.080426268
-0.010531973
-0.20223565
0.077990383
-0.013882481
-0.022104381
0.29496786
0.075337559
0.16599128
-0.042691443
-0.2827903
0.15869048
-0.0043628281
0.21383432
0.30612159
-0.24471942
-0.050478857
0.077890769
0.32023942
-0.010140011
-0.029881353
-0.025186548
0.099305011
-0.053652745
-0.10670174
-0.1772508
-0.18279244
-0.062493164
-0.14170419
-0.095620662
0.059993539
-0.31984228
-0.027978042
-0.062052362
-0.0022555243
0.063498713
0.16128336
0.11106441
-0.2517041
-0.62231231
-0.47007743
-0.18493851
0.17607778
-0.14115743
0.27208793
-0.13519269
0.10782074
-0.15202704
0.005737402
0.05649301
-0.42553532
0.20777638
0.27257711
-0.18404165
-0.0034355109
-0.14919735
0.22439672
0.051065464
0.14538175
-0.15832876
-0.0010073157
-0.098979801
-0.047094457
-0.27928227
-0.29347408
-0.081221581
-0.10169672
-0.013057102
0.10214189
-0.0975703
0.0081523154
-0.031003559
-0.17185752
0.11630555
-0.059180588
0.11645229
0.16518627
-0.21411918
-0.16633159
-0.16586864
-0.3439233
0.01718761
-0.17200367
0.21666235
0.15910123
0.2633943
0.18061772
-0.30390009
0.11191376
-0.31622666
-0.11309028
-0.34926152
-0.19428027
0.23635168
0.18005349
0.22217081
0.026544008
-0.50702053
-0.022789957
-0.07994274
0.32580552
0.090871848
0.21204501
-0.083162032
-0.020760532
-0.27172831
0.16329709
-0.13383386
-0.28403321
0.24970585
-0.1341545
-0.19689375
0.13640548
0.09197282
-0.032634418
-0.2634716
-0.018992579
-0.012800725
-0.17295158
0.051773831
-0.14769953
-0.77032256
-0.16640869
-0.41125241
0.21039234
0.13298164
-0.091178477
-0.4027625
-0.075410895
-0.016200015
-0.045797508
0.021770598
0.1843653
-0.044864241
0.13781482
-0.067029327
0.074377745
-0.064624541
0.079580836
-0.22194138
-0.04812967
-0.30744305
0.20121944
0.093955405
-0.19596012
-0.19825977
0.082609683
-0.10549675
0.042047951
-0.17709105
0.039190073
0.093875758
-0.062356949
-0.057578627
-0.32518953
-0.066537037
-0.40147328
-0.013194107
-0.08622431
-0.23214917
0.047852434
0.13930832
-0.31601074
-0.025365483
-0.36783114
-0.069698825
-0.39659578
0.23406287
-0.061760992
-0.1325438
-0.22065759
-0.32855722
0.066922024
-0.18321921
-0.1231816
0.31957239
-0.12010044
-0.10922292
-0.51617318
0.086069085
0.023225207
-0.19169894
0.044810399
-0.066171601
0.024909906
-0.14150174
0.040363058
-0.36158076
0.15831947
-0.14301772
-0.22952147
-0.1068033
-0.073938675
0.023024745
0.068395555
-0.061210658
-0.09460976
0.10546575
0.0014580399
0.030621123
-0.47211444
0.08983171
0.027110765
-0.46223623
0.14928254
-0.21957888
0.051060554
0.06830243
0.011229715
-0.4635863
-0.40463912
-0.48557901
-0.098168463
-0.44747698
-0.001362246
-0.10608546
0.27695075
0.12316886
0.13021843
-0.16876765
0.83031183
-0.047985882
-0.27751052
-0.57315725
0.0012254248
-0.019391757
0.20302948
-0.049541857
-0.41083103
0.055312824
-0.1062499
-0.063020118
0.27001649
-0.38671994
-0.28506839
-0.10733521
-0.2313039
-0.050874006
0.076026425
-0.22569627
0.065893576
-0.20846738
-0.087629452
-0.099595495
0.10538422
-0.052723922
-0.69067568
-1.1139587
-1.3552309
-0.022889849
0.18015859
0.68375891
-0.088378124
-0.5316543
0.41951686
-0.44596824
-0.04070748
-0.024193237
-0.23669711
-0.51405525
-0.66432738
-0.15915844
-0.18534759
0.15383941
0.12774613
-0.15970193
-0.1445483
-0.51486242
-0.61301768
-0.29653376
-0.21921189
-0.26560682
0.13059548
-0.13279095
0.044676531
0.11349514
-0.051028661
0.065339528
0.075922996
0.019924505
-0.082175665
-0.18971731
0.39431626
-0.11151304
0.091090694
0.26368827
-0.60675597
0.90245956
1.0282848
1.9434252
-0.12797774
-0.27928096
-0.16405557
0.50160491
0.098345831
0.63092554
0.23357974
0.86741441
-0.55820704
0.15034562
2.0051146
1.7894483
0.49806339
0.39768928
0.361065
-0.19042556
-0.23808239
-0.15108365
0.31200203
0.35522491
0.32292008
0.18168928
0.010302261
-0.031580567
-0.13950939
-0.43163213
-0.6240685
-0.14597084
-0.32873824
-0.16955166
0.43237701
-0.079250462
0.022582497
-0.28475666
-0.30207428
-0.25696999
0.0051575731
1.7724773
-0.057141732
-0.18462341
-0.76910752
0.15907732
-0.03219248
0.69036347
-1.4225273
-0.40834439
0.26358899
0.45661941
-0.42552817
0.54049367
-0.081577882
0.87116122
-1.2144006
-0.83249408
0.48127079
-0.41312084
-0.21888949
-0.246323
-0.17216538
-0.49997973
-0.13043278
-0.15251088
-0.34539083
-0.34314352
0.25605306
-0.045604844
-0.13695824
-0.27383557
-0.35826418
-0.12837797
-0.127055
0.41958272
-0.19075166
-0.093223669
0.073989257
0.071165182
-0.20169622
0.95935315
-0.12572141
1.3505543
0.55703062
2.2172012
-0.57588035
0.27764386
1.407041
0.51462632
0.38690698
0.28908482
0.13666806
1.4637247
-0.6427114
0.71965557
1.1900918
2.2661407
1.4961267
0.027582763
0.56733161
0.049980838
0.069306493
-0.092353858
0.17089042
0.19815785
-0.30907616
-0.14152914
0.1216146
-0.72543043
-0.2066984
-0.39957407
-0.45235205
-0.0066933227
-0.012067271
-0.45083645
0.019112881
0.22678138
0.30396602
-0.12949145
-0.044240642
-0.22350398
0.39317119
0.8087427
0.086566888
-0.2701686
-0.048576437
0.016754702
0.14162807
0.94868755
0.00070740504
-0.03554086
0.34980199
0.63233799
-0.778925
0.092607819
-0.095055491
-0.6920023
-0.27763388
0.12344702
0.15535
0.036025286
-0.85016483
0.037356235
-0.20567572
-0.23327385
-0.029591175
-0.38328937
-0.088553585
-0.15156049
0.029555071
-0.16466913
-0.044243839
-0.036772929
-0.42010203
-0.20316583
0.19746499
-0.17482835
-0.069404267
-0.11172017
0.31855282
-0.16875784
-0.16961548
0.45354941
0.043864883
0.2461967
-0.017776109
-0.33955616
0.085092925
0.038660545
0.098452367
0.21325491
-0.29310524
-0.13522992
0.077765927
-0.089812703
-0.32096395
-0.15123588
-0.88868254
0.38852468
-0.31543228
-0.12696157
-0.20225178
0.099828452
-0.097279064
0.1575166
-0.0090902671
-0.11926824
-0.081494406
0.010219498
-0.14964171
-0.33901915
-0.27046075
-0.027133413
-0.045828678
-0.10826357
-0.047936831
-0.23520988
-0.2611227
0.016953574
-0.26448187
-0.1879655
-0.0023231723
0.017535402
0.25006434
0.40220627
-0.0012266671
0.23789795
-0.010549855
0.21222495
0.46000096
-0.069841534
0.15573338
-0.095977083
-0.096286803
0.48918891
-0.30029246
-0.13794948
0.21934018
-0.22167155
-0.49359646
-0.20836537
0.20561226
-0.039402686
-0.48283502
-0.027228097
-0.075486079
-0.11391108
-0.011711648
-0.090432756
0.20310457
0.092475563
-0.13071156
-0.21429464
0.010373442
-0.097667582
-0.04126063
-0.084797107
-0.23695813
-0.01282159
-0.10184498
0.042501032
-0.48327568
-0.1830523
-0.03435684
0.059033666
-0.070176363
0.29607013
-0.19638759
-0.44634572
0.095470667
-0.33488926
0.29403821
-0.030040521
-0.12947315
0.26820591
-0.28909117
0.16769429
0.27940702
0.39933249
0.28801435
0.048923369
0.087478928
-0.0066199307
-0.19184498
-0.31504208
0.01963846
-0.055414867
-0.027701085
0.001779428
-0.049305879
0.069135025
-0.0037305071
-0.078922063
0.033002391
-0.046467654
-0.18672794
0.11980969
-0.18842663
-0.43776771
-0.28840294
-0.23881444
-0.082416736
0.25045779
-0.24359834
-0.065526262
-0.21792489
0.53184724
-0.1624676
0.0059498404
-0.039221782
0.06898421
0.13165954
-0.010306962
-0.16456072
0.045643296
0.15378447
0.068416297
-0.12608391
0.36956224
0.093702607
-0.32823941
0.15744618
-0.24733868
0.13512737
0.14097822
-0.54330707
-0.066104062
0.019135348
-0.06340158
-0.095392011
-0.28541851
0.092613235
-0.025232805
-0.19056854
-0.2235494
0.055497836
0.1422668
0.0081926547
-0.016918762
-0.17035265
0.048030771
-0.16981928
0.057104565
-0.22128777
-0.13895124
0.12842689
-0.57109171
-0.39168558
0.36024633
0.10609151
0.32697713
0.079038091
-0.12619859
-0.51802874
-0.002850818
0.47590214
0.18907994
0.14091003
-0.38208351
-0.22950187
0.42501393
0.02611535
0.37487227
-0.12569046
-0.088162482
-0.18148711
0.54214734
-0.18852654
-0.13034558
-0.017933281
0.17731926
-0.11200406
0.013871678
0.19903871
-0.11757306
-0.14389777
-0.22775301
-0.1627221
-0.13910219
-0.11575694
0.090641089
0.011235886
-0.134085
0.0086534545
-0.26032889
-0.21513703
-0.29855973
-0.5767616
0.063416392
-0.021434948
-0.052199442
0.22691317
-0.47853011
-0.06839563
-0.1508259
0.3610698
-0.0041258545
-0.19176205
0.14920129
-0.33261046
0.36657566
0.32856885
-0.16760848
0.16676645
-0.051492002
-0.042220939
-0.095554061
-0.018788856
0.0048799873
-0.11108489
-0.29587972
-0.10136661
-0.73671639
-0.1906617
0.13830528
-0.16575158
-0.159125
-0.025841825
0.034754049
-0.054324359
-0.42146105
-0.03183924
-0.090888999
-0.18052286
0.1625925
0.17073476
-0.084526539
0.19456913
-0.3918007
-0.17516258
0.072224244
-0.23700145
-0.30210757
-0.062001411
0.13685241
0.10124975
0.12255493
0.29914579
-0.015444395
0.23569977
-0.10062608
-0.016858378
0.099316448
0.035401333
-0.055220488
0.099701159
0.22770061
0.042969
0.089458674
-0.080028333
-0.19173282
0.016904373
-0.14437978
-0.24885118
-0.046512134
-0.073281534
0.013668707
-0.39413476
0.041216206
-0.013446067
0.030256819
-0.28430095
-0.51842391
0.17021303
-0.28069168
0.20008546
-0.11055811
-0.22002044
-0.052439585
-0.13234541
-0.53442675
-0.64535558
-0.32655931
-0.29611653
-0.27806461
0.46959627
0.12125972
0.25260189
-0.044036545
0.035917103
-0.68205076
0.38533527
0.31105646
-0.3175779
-0.0020716831
0.15111762
0.098557003
0.30151334
-0.31178409
0.15291552
-0.14302132
-0.17876394
-0.1127838
-0.2049126
0.03296037
-0.046345476
-0.11237104
-0.13943321
0.072117649
-0.049850099
-0.091886461
-0.20635849
-0.21953951
-0.11914697
-0.38221228
-0.048484627
0.067327537
-0.40980741
-0.19865207
0.039548703
-0.024376987
-0.082623549
-0.22055769
-0.47812226
-0.67107236
0.013993435
-0.39415485
0.068986759
-0.075119391
-0.015099767
-0.027550824
-0.41177267
0.3775861
-0.37020579
0.13194095
0.21390463
0.3608115
0.63972592
0.32974714
0.43771762
0.16388121
0.014202403
-0.064625509
-0.38217995
-0.050467983
-0.056133248
-0.10915469
0.014427452
0.090592496
0.027858505
-0.17214553
0.10555439
-0.03733838
-0.10832439
-0.30919865
-0.317303
-0.22940183
-0.035591528
-0.58046925
-0.29966345
-0.014363469
0.19709013
-0.81592125
0.10325395
0.66247451
0.6122905
-0.12017386
-0.15306078
-0.088903725
0.87297422
0.41435903
-0.1487056
-0.3025659
0.42137775
-0.12992452
-0.48340091
-0.19469558
0.54870594
0.063454553
0.25475532
-0.20242664
-0.090946205
-0.39452556
-0.07368657
-0.24985713
-0.24071558
0.12788834
0.030837916
0.011406075
-0.056423955
0.10827843
-0.2841948
-0.078887649
-0.23550968
-0.3282645
-0.27679357
-0.056957219
-0.12694205
0.017780276
-0.13171992
-0.29288018
-0.22731979
0.36766586
1.4808791
-0.049732279
-0.33446616
-0.64239329
0.098292857
0.33049867
-0.54147589
-1.8073088
-0.42290419
-0.18871333
-0.059925869
-0.014215906
0.15120925
0.26430619
0.64355069
-0.03956905
0.26400232
-0.43035099
0.058405932
-0.24431613
0.10422547
-0.0068092439
0.095731042
-0.060126312
-0.14855631
-0.21246529
-0.43660927
-0.2749896
-0.19539574
-0.10789461
-0.16556078
-0.30363208
-0.060458869
-0.12535818
-0.3180221
-0.050073545
-0.3944737
-0.13424081
0.079809606
-0.21736495
0.57766891
-0.36440009
-0.34398973
0.49306229
-0.19709146
0.61814523
-0.042331416
-0.29516599
-0.1078906
0.17960043
-0.99175566
0.66634697
-0.31579241
0.6476751
0.31927416
0.5568527
0.54429275
0.027802609
-0.12731005
0.063114122
-0.96749341
-0.15762234
-0.14306851
-0.71731174
-0.21562512
-0.72869051
-0.12417687
-0.11668507
-0.63404691
-0.25334647
0.025233153
0.1239276
-0.1421288
-0.0054874895
0.11141194
0.57895172
-0.071362533
0.046245128
-0.15472972
-0.0769042
0.21219683
0.010449581
-0.25312072
-0.19766948
0.27855814
1.0660951
-0.30072454
0.25889915
0.0093088271
-1.1733897
-0.35868376
-0.080072127
-0.2794708
0.5662902
-0.19772023
-0.68818301
1.6663456
2.3306117
0.66280979
0.2105906
-0.57382613
-0.92702121
0.14863336
-0.24043387
0.1048566
-0.012091476
-0.14542049
-0.14933948
-0.16637616
-1.8740993
0.12947419
-0.36258325
-0.53550059
-0.20952931
-0.28883934
-0.60510176
0.088978007
0.13197777
0.32441521
0.14422376
0.1008411
-0.24730539
1.175896
-0.36896437
-0.084411167
-0.11853934
-0.28050601
-0.31156239
-0.3214418
1.6411737
1.7067907
0.83629936
-0.13991871
-0.74204504
0.48885068
0.32022759
0.58786565
1.8770367
-0.26004648
-0.10340947
0.78348744
0.21285115
0.077355497
0.097797804
-0.33436462
-0.12214986
-0.033768069
-0.6487413
-0.020340981
0.088856682
-0.1342795
-0.29141644
-0.073657915
-0.11428055
-0.21377276
-0.18680884
-0.39142078
-0.23121952
-0.047486849
-0.071324423
0.10655071
-0.23921715
0.38966522
0.035137843
0.37580943
-0.84966642
0.36503831
-0.1495745
0.07784339
0.50411618
0.47055006
-0.94390887
-0.24894246
-0.77589065
0.16723366
-0.71692872
-0.19834857
-0.42958596
-1.750621
-0.15531549
0.092807747
0.041413426
-0.077180862
0.40479881
-0.080892235
0.040227864
-0.065711558
0.15941568
-0.45803896
0.055647697
0.090776995
-0.36267185
-0.4488346
-0.31367847
-0.11551952
-0.097525686
-0.084672391
0.022546092
0.78446573
-0.19026336
-0.13363573
-0.7361564
-0.39997509
-0.028803553
-0.16419849
-0.20057896
-0.13750929
0.29590777
-0.083713017
-0.031725824
0.94560111
-0.0034620601
-0.8234573
0.035711486
0.75365132
-0.54099786
-0.92257029
0.24280809
-0.15076321
-0.28755653
0.61679065
0.31194139
0.08929757
0.070146061
-0.56133783
0.11832426
0.070645541
-0.24501266
0.020758005
-0.21345584
0.13780394
0.16966015
-1.1163777
-0.064569063
-0.10309687
-0.03552933
0.059479315
0.10113362
-0.2631011
-0.030044936
-0.12308161
-0.18962748
0.048344739
-0.053405967
-0.25432712
-0.39958471
0.37071919
0.081086636
0.051594034
-0.22831993
0.39784664
0.50406945
-0.1906452
-0.21222658
-0.17102532
0.87360543
0.77925748
0.4912256
-0.24750978
0.053036883
-0.49004245
-0.74227452
-0.59901726
-0.053558897
0.58940679
-0.0046255519
0.17821646
0.097747222
-0.077079169
-0.10452118
0.10891216
-0.10789375
-0.24243884
-0.63152921
-0.33892781
-0.093758315
0.22082683
0.10965977
-0.13273714
-0.062718436
-0.13428125
-0.39404795
-0.037477866
-0.16609436
-0.11113972
-0.053218745
-0.43685758
-0.31011766
0.16560686
0.37913501
0.36384696
0.038606323
0.27458805
-0.07104595
0.19597675
0.030777127
-0.1880127
0.43190637
0.07092756
0.30849162
-0.38366485
0.34590805
-0.0038015766
-0.2819261
-0.18207872
0.55673152
0.22631955
0.21110018
-0.083161414
-0.40041104
-0.19705562
-0.31649086
-0.047370858
-0.11622865
-0.13714728
-0.22154845
0.058187459
-0.037409268
-0.30919319
0.090583861
0.091947928
-0.041690923
-0.05231303
-0.14101653
0.0009002788
0.11603206
-0.15499862
-0.81071299
-0.42757297
0.21027346
-0.28860557
-0.032118268
0.15386982
0.35611922
-0.38373286
0.452562
-0.13567936
-0.091326229
-0.10814155
-0.32599205
-0.16486393
0.25648868
0.056508884
-0.13258843
-0.41839874
0.095237367
0.046877068
0.50916195
0.10347971
-0.011390874
-0.044819172
-0.069245219
-0.32198095
-0.068139553
-0.11974406
-0.55110753
-0.22372349
-0.047703836
-0.10802461
-0.095833026
0.098748639
0.0025280071
0.18223485
-0.083505318
-0.011657741
-0.2304548
-0.1791544
0.090889096
-0.7789157
-0.32960057
-0.11311876
-0.25397819
0.10334907
0.27603525
0.11401866
-0.076644227
0.045317858
-0.17975129
0.057417087
-0.27373499
0.070974909
0.074197605
0.063527621
-0.023193728
-0.13474524
0.14348778
0.11087313
0.12822191
0.21641378
-0.27230504
-0.074189253
-0.21728095
-0.22129452
0.108518
-0.17416637
-0.061634224
-0.066931434
-0.039454348
0.049938723
-0.094578363
-0.071034282
0.20517544
-0.065300554
0.057329811
-0.2696541
-0.07044711
0.10709787
-0.026321121
-0.067929476
-0.021278819
-0.39093319
0.17778972
-0.043750092
-0.31751561
-0.043653443
0.10894029
-0.091585569
0.28478923
-0.14213461
-0.12025254
0.08042106
-0.14993706
0.017015371
0.17434584
0.17212676
-0.24943763
0.34440076
0.15811744
0.014987305
0.001173552
-0.068192065
0.0065355254
-0.12095684
-0.259433
-0.18225479
-0.16076095
-0.012139313
-0.16544461
0.091755539
-0.21364856
0.0088421218
-0.0019366143
0.0027479513
-0.034695756
-0.11442564
-0.14136559
-0.022674626
-0.012566659
0.034057308
0.079564378
-0.046852089
-0.20639081
0.26058576
-0.0081184246
0.047756277
0.12757725
-0.20624197
0.025660086
0.18099928
-0.014363646
0.24441192
-0.10543674
-0.0041880948
-0.25860798
0.23224284
0.033625063
-0.098953575
0.41343129
0.2095264
0.046155196
0.42788914
-0.086799949
-0.077371351
-0.078297049
-0.29142874
0.19768716
-0.044461522
-0.062100008
-0.071486771
-0.080851659
-0.1648767
-0.21817631
-0.034744166
-0.066147298
-0.086766928
-0.030259173
-0.029861407
0.095123857
-0.057249006
0.17505041
-0.021603974
-0.35297278
-0.070362948
-0.29486978
-0.1931946
0.28251287
-0.059436966
-0.063614182
-0.34337077
-0.046423286
-0.27516431
0.10642344
0.14311689
-0.46050176
-0.27091655
0.16355635
-0.17416579
0.37677574
0.15447442
-0.14386685
-0.15001102
0.45010063
-0.14872447
-0.018752735
-0.18909419
-0.13342041
0.22409938
-0.00078142888
0.02397888
-0.25321326
0.031010687
-0.15922008
-0.044343565
0.0063581043
0.16984728
-0.17293537
-0.21380045
-0.17691068
-0.020883797
-0.10665108
-0.080815233
-0.11265403
0.010349652
-0.3801223
0.27461571
-0.32906207
-0.45136559
-0.11908223
0.056446996
0.26800802
-0.12653753
-0.12467236
-0.017742379
-0.14271331
-0.087140992
-0.123934
0.026616413
0.3821384
0.22321579
0.22440127
0.11201424
0.16561645
0.49787644
-0.23056222
-0.056168746
-0.01922428
-0.24416843
-0.00071946776
0.11637462
-0.032122102
-0.20979124
0.018546024
-0.24633084
-0.2895003
-0.055400599
0.019173823
-0.10850888
-0.43720824
-0.0044691907
0.12179624
0.093655124
-0.01211576
0.16295521
-0.020357266
-0.92017478
0.19563086
-0.4038507
0.79536706
0.042617764
0.3254455
-0.022779118
0.19690855
-0.032640494
0.6510846
-0.28998354
0.00042327415
-0.48200083
0.074389711
-0.59542251
0.30830741
0.65746856
-0.0073705148
0.40185422
0.654172
-0.21926785
-0.11021405
0.14141436
0.19318046
0.25574917
0.20750129
-0.2733348
-0.37920749
0.17084731
-0.2464173
-0.29624489
0.17139548
-0.27988851
-0.1532197
-0.26098511
0.065718189
0.30291423
-0.15635909
-0.12470628
-0.32840338
-0.05948535
-0.35163984
-0.0058934125
-0.02394815
0.020340774
0.068878211
-0.9268465
-0.705244
0.51857316
-0.082996093
-0.50091112
0.92636281
-0.77056205
0.35156614
-0.23712705
-0.059194621
0.51205206
0.85680795
-0.24721387
-0.11079042
-1.2702074
-0.007386364
-0.19542785
0.12012967
0.29703665
0.093298033
-0.018281475
-0.19365247
-0.046768025
0.061339878
-0.4999814
-0.3923344
-0.083240621
-0.35994467
-0.19058098
0.37659997
0.34203014
0.27515531
-0.51004833
-0.21378635
-0.4604567
0.14539357
0.12662536
0.51352972
1.0228513
1.4218684
-0.20437385
0.74249601
0.79480892
1.7162975
-0.055062894
0.29406512
0.3099446
1.7296776
-0.14286801
-0.053122178
1.3085649
1.1632179
1.1218919
0.15944622
0.2048068
-0.015079553
0.02098467
-0.013958695
0.060943644
0.17214428
0.027927924
0.17238855
0.26041555
0.32596749
-0.081605986
-0.63608885
-0.38504317
0.29373866
-0.38501456
-0.43724942
0.35275888
0.002530202
0.0013333886
-0.27078256
-0.24727349
-0.40143049
-0.021908561
-0.54445171
0.7195695
0.23358874
0.35100478
0.41259673
-0.13797502
0.55914021
0.29561776
0.20746471
0.19205025
0.40927047
0.61684269
-0.64241868
-0.12943983
-0.56931186
0.49025282
1.0655479
0.35861909
0.63995457
0.91751021
-0.058016289
0.091812551
-0.14229073
0.13660851
-0.40527618
0.11551304
0.069715716
0.66535664
0.11470634
-0.40955129
-0.22504564
0.035466522
-0.34473124
-0.18948062
-0.6036759
0.13099518
0.091725528
-0.069689021
-0.21915135
-0.31396541
0.18111569
-0.31836405
0.06679076
-0.006906
-0.77292663
0.34370813
-0.34911764
-0.41459152
0.60656881
-0.56051308
-0.082593851
0.52234155
0.25439987
-0.097008295
-0.38865301
-0.38039878
-0.012827747
-0.27162072
0.058361389
-0.27272728
0.30620411
-0.063501954
0.2403802
-0.11096595
-0.55430412
-0.42220688
-0.034823485
-0.087831639
-0.10602696
-0.16912067
-0.038373161
-0.28949985
0.23236114
-0.37656525
-0.0059248949
1.1099777
-0.11546771
0.079647571
-0.40524611
-0.17651574
0.049750593
-0.015475976
0.066286862
-0.16988619
0.014749646
-0.30119655
0.29338744
0.11577322
-0.057363443
-0.36416283
0.041255921
0.16939375
-0.37017813
0.21738499
-0.0046767257
0.054578137
-0.66991431
-0.012637599
0.28940979
-0.13989505
0.090653509
0.55258822
-0.22229694
0.0710079
-0.030559879
-0.28130123
-0.04152194
-0.20404644
-0.021011692
-0.23511355
-0.11786143
-0.23763849
-0.24143229
-0.073614821
-0.27903789
-0.130465
0.83567291
-0.31310189
-0.017201087
0.2314873
0.052646775
0.034694552
-0.15304041
-0.29310632
-0.12999713
-0.38053507
-0.90452856
0.46830547
-0.18217529
0.1370275
0.30868712
0.22732458
0.2068287
0.08897496
0.010471876
-0.079552203
0.20905869
-0.24733669
0.033019703
0.091338143
0.05315239
-0.19876288
0.5204246
0.04128015
-0.12940221
-0.18689831
-0.28002027
0.099741742
-0.35334906
-0.083072089
-0.097936139
-0.048360586
-0.033957399
0.040006027
-0.078365274
-0.0041232673
-0.013881979
0.23067196
-0.048312832
-0.051272158
-0.1213706
0.095726021
0.023282871
-0.3895677
-0.54905969
-0.0630292
